<?xml version="1.0"?>
<opencv_storage>
<opencv_ml_svm>
  <format>3</format>
  <svmType>C_SVC</svmType>
  <kernel>
    <type>LINEAR</type></kernel>
  <C>1.</C>
  <term_criteria><epsilon>1.1920928955078125e-07</epsilon>
    <iterations>1000</iterations></term_criteria>
  <var_count>128</var_count>
  <class_count>2</class_count>
  <class_labels type_id="opencv-matrix">
    <rows>2</rows>
    <cols>1</cols>
    <dt>i</dt>
    <data>
      0 1</data></class_labels>
  <sv_total>1</sv_total>
  <support_vectors>
    <_>
      1.10991095e-04 2.69666372e-04 -1.24674186e-03 5.78881940e-04
      7.60292751e-04 8.05125979e-04 -4.25381877e-04 -9.59602126e-04
      -1.45017414e-03 -1.32277235e-03 -1.55683421e-03 1.44404685e-03
      2.61472841e-03 1.97739704e-04 -4.47332393e-04 2.96797021e-04
      -1.99889252e-03 -8.31049751e-04 -6.30912546e-04 2.06854194e-03
      8.43779533e-04 -7.06794439e-04 -2.53733917e-04 1.23749441e-03
      -4.15777322e-04 7.77853769e-04 9.46037995e-04 -1.76167861e-03
      3.45703680e-03 -1.17246225e-03 -5.66564733e-04 3.73140298e-04
      1.29770604e-03 -2.18673362e-04 -2.23601004e-04 -8.08400742e-04
      -4.14521637e-04 4.83812255e-05 2.41612161e-05 6.47781184e-04
      -1.57589267e-03 7.29046878e-04 -2.00449652e-03 8.15530133e-04
      -8.20317247e-04 -5.76315739e-04 -1.09802559e-03 -4.36099181e-05
      -9.76884039e-04 -1.14506693e-03 7.63656746e-04 -3.18084820e-03
      -2.66460655e-03 -9.33259202e-04 3.85297171e-04 -1.09084439e-03
      6.18544174e-04 -1.24205180e-04 -5.74645004e-04 1.82686688e-03
      -1.28273922e-03 -8.51859222e-04 -1.41695631e-03 -1.51582551e-03
      -1.17760792e-03 3.26553476e-04 1.38504920e-03 1.28674402e-03
      2.67526571e-04 4.47210150e-05 1.98034526e-04 -8.29558412e-05
      -2.19667261e-03 -3.82307917e-04 -5.80443069e-04 1.90141844e-04
      1.26567960e-03 2.92235345e-04 1.35807856e-03 -1.08782167e-03
      -2.98444938e-04 -8.50622659e-04 -5.73955513e-05 -3.13920365e-03
      1.63583062e-03 -1.60511106e-03 8.73156125e-04 3.61302838e-04
      -1.09153439e-03 2.61732494e-04 1.28352339e-03 -2.09675007e-03
      -1.20690628e-03 1.25856558e-03 1.43349066e-03 1.06603547e-03
      8.45568429e-05 -5.31412195e-04 -1.10303238e-03 -3.88094020e-04
      -8.09715071e-04 -3.65874963e-04 -8.36066320e-05 -8.83398985e-04
      -1.71541353e-03 -3.38030426e-04 2.41461748e-04 -1.24791125e-03
      -4.06590814e-04 5.97917591e-04 9.88245738e-05 -7.42453922e-05
      -1.81678054e-03 1.07478969e-04 8.79515021e-04 2.10692105e-03
      4.17663105e-04 -4.92067833e-04 -4.15976887e-04 9.90271452e-04
      -8.46837123e-04 1.37615588e-03 -7.80596165e-04 -1.11933996e-03
      3.32319032e-04 1.67793850e-03 -1.01653847e-03 -8.12288490e-05</_></support_vectors>
  <uncompressed_sv_total>828</uncompressed_sv_total>
  <uncompressed_support_vectors>
    <_>
      8. 12. 101. 145. 0. 0. 0. 0. 145. 100. 71. 26. 0. 0. 0. 2. 74. 12.
      1. 0. 0. 0. 0. 2. 0. 0. 0. 0. 0. 0. 0. 0. 42. 9. 26. 85. 13. 46.
      26. 16. 145. 25. 4. 2. 0. 1. 3. 50. 145. 13. 0. 0. 0. 0. 0. 10. 0.
      0. 0. 0. 0. 0. 0. 0. 14. 0. 0. 3. 26. 145. 71. 21. 145. 89. 0. 0.
      2. 16. 21. 42. 126. 125. 0. 0. 0. 0. 0. 1. 5. 5. 0. 0. 0. 0. 0. 0.
      0. 0. 2. 45. 68. 34. 4. 1. 57. 28. 1. 3. 7. 14. 8. 8. 145. 71. 0.
      0. 0. 0. 0. 8. 21. 7. 0. 0. 0. 0. 0. 1.</_>
    <_>
      45. 58. 8. 28. 38. 33. 30. 9. 18. 32. 19. 14. 11. 131. 97. 10.
      131. 7. 5. 7. 7. 62. 52. 115. 47. 2. 0. 0. 0. 0. 0. 20. 19. 53.
      13. 3. 59. 131. 21. 0. 29. 71. 131. 86. 22. 60. 24. 5. 131. 49.
      47. 25. 6. 10. 7. 43. 34. 0. 0. 0. 0. 0. 0. 9. 0. 0. 1. 1. 10.
      131. 84. 0. 19. 5. 11. 13. 12. 131. 131. 29. 131. 10. 4. 2. 1. 28.
      57. 131. 17. 0. 0. 0. 0. 0. 0. 5. 0. 0. 0. 0. 0. 3. 2. 0. 0. 0. 0.
      0. 0. 15. 9. 2. 6. 0. 0. 0. 0. 3. 6. 17. 1. 0. 0. 0. 0. 0. 0. 1.</_>
    <_>
      1. 1. 8. 21. 90. 12. 2. 0. 100. 16. 8. 4. 1. 2. 1. 31. 140. 27. 0.
      0. 0. 0. 0. 40. 22. 2. 0. 0. 0. 0. 0. 4. 30. 15. 11. 62. 140. 2.
      0. 3. 140. 21. 6. 3. 1. 0. 0. 140. 119. 1. 0. 0. 0. 0. 0. 140. 9.
      0. 0. 0. 0. 0. 0. 8. 42. 7. 1. 49. 113. 14. 25. 27. 140. 35. 0. 1.
      1. 0. 5. 90. 132. 11. 0. 0. 0. 0. 0. 29. 1. 2. 0. 0. 0. 0. 0. 1.
      4. 0. 0. 4. 9. 32. 140. 51. 79. 0. 0. 0. 0. 0. 56. 140. 41. 1. 0.
      0. 0. 0. 0. 38. 0. 1. 0. 0. 0. 0. 0. 0.</_>
    <_>
      0. 0. 9. 121. 33. 0. 0. 0. 6. 4. 21. 121. 24. 0. 3. 7. 2. 4. 39.
      16. 3. 8. 47. 17. 2. 5. 37. 18. 2. 7. 92. 13. 6. 8. 73. 121. 17.
      7. 2. 1. 121. 36. 34. 47. 4. 1. 10. 47. 40. 3. 0. 0. 1. 2. 94. 91.
      2. 2. 1. 12. 6. 10. 107. 25. 8. 3. 7. 36. 20. 121. 121. 7. 121.
      38. 3. 2. 0. 37. 69. 43. 74. 48. 30. 20. 4. 1. 4. 11. 2. 5. 51.
      121. 6. 1. 1. 1. 0. 0. 0. 0. 0. 90. 75. 0. 14. 16. 1. 0. 1. 121.
      58. 6. 9. 34. 42. 52. 18. 54. 23. 1. 0. 0. 60. 121. 20. 19. 3. 1.</_>
    <_>
      1. 0. 0. 1. 2. 102. 120. 6. 128. 12. 0. 0. 0. 19. 63. 85. 128. 38.
      0. 0. 0. 0. 0. 15. 6. 3. 0. 0. 0. 0. 0. 0. 2. 0. 0. 6. 16. 82. 74.
      7. 46. 29. 1. 14. 80. 58. 53. 15. 128. 88. 1. 3. 5. 0. 0. 7. 27.
      6. 0. 0. 0. 0. 0. 0. 6. 4. 7. 77. 29. 4. 4. 17. 59. 20. 14. 128.
      105. 5. 1. 8. 128. 27. 2. 4. 5. 0. 0. 32. 36. 2. 0. 0. 0. 0. 0. 2.
      1. 10. 46. 128. 11. 2. 0. 1. 53. 78. 38. 128. 10. 2. 1. 1. 128.
      128. 2. 0. 0. 0. 0. 2. 33. 20. 0. 0. 0. 0. 0. 0.</_>
    <_>
      20. 12. 1. 20. 29. 43. 109. 24. 37. 68. 3. 2. 49. 59. 54. 10. 132.
      113. 3. 1. 3. 1. 0. 9. 27. 7. 0. 0. 0. 0. 0. 2. 70. 132. 14. 6.
      25. 12. 5. 6. 48. 22. 11. 20. 132. 36. 8. 10. 132. 29. 1. 2. 14.
      3. 5. 44. 43. 3. 0. 0. 0. 0. 0. 5. 38. 132. 25. 5. 3. 32. 44. 17.
      80. 54. 23. 14. 46. 15. 70. 120. 96. 4. 0. 0. 3. 4. 55. 132. 16.
      1. 0. 0. 0. 0. 0. 11. 13. 5. 0. 0. 0. 55. 132. 46. 65. 3. 0. 0. 0.
      0. 54. 132. 8. 0. 0. 0. 0. 0. 9. 34. 0. 0. 0. 0. 0. 0. 0. 1.</_>
    <_>
      4. 141. 57. 8. 0. 0. 0. 0. 115. 142. 20. 0. 0. 0. 0. 0. 44. 36. 0.
      0. 0. 0. 0. 0. 0. 0. 0. 0. 0. 0. 0. 0. 20. 17. 12. 10. 5. 44. 46.
      14. 142. 87. 4. 1. 0. 2. 10. 64. 142. 25. 0. 0. 0. 0. 0. 6. 0. 0.
      0. 0. 0. 0. 0. 0. 5. 0. 0. 1. 6. 142. 142. 20. 142. 54. 1. 2. 12.
      26. 61. 81. 142. 63. 0. 0. 0. 0. 0. 3. 2. 1. 0. 0. 0. 0. 0. 0. 4.
      0. 0. 27. 45. 35. 26. 11. 98. 30. 2. 36. 83. 19. 8. 10. 142. 29.
      0. 0. 0. 0. 0. 14. 6. 0. 0. 0. 0. 0. 0. 0.</_>
    <_>
      18. 9. 5. 8. 16. 6. 1. 5. 137. 21. 2. 1. 0. 0. 1. 122. 116. 23. 0.
      0. 1. 9. 5. 68. 4. 11. 3. 2. 5. 32. 20. 3. 31. 7. 2. 4. 26. 66. 8.
      13. 137. 35. 1. 1. 1. 5. 4. 70. 107. 32. 3. 1. 0. 0. 4. 43. 4. 15.
      14. 56. 6. 4. 4. 1. 14. 1. 0. 4. 34. 41. 16. 10. 137. 120. 1. 0.
      1. 4. 11. 40. 60. 101. 94. 32. 6. 3. 3. 13. 0. 1. 88. 137. 12. 1.
      1. 0. 1. 0. 0. 1. 9. 76. 78. 21. 32. 11. 0. 0. 0. 4. 61. 137. 17.
      12. 27. 23. 28. 121. 27. 62. 0. 0. 31. 52. 18. 81. 16. 3.</_>
    <_>
      0. 0. 2. 42. 61. 44. 0. 0. 5. 1. 1. 4. 12. 11. 3. 11. 123. 1. 0.
      0. 1. 5. 5. 139. 80. 3. 1. 0. 2. 8. 14. 103. 0. 0. 0. 2. 139. 98.
      0. 0. 49. 21. 9. 13. 24. 17. 1. 11. 139. 38. 1. 0. 0. 0. 1. 104.
      83. 30. 0. 0. 1. 8. 3. 30. 0. 0. 0. 2. 139. 68. 1. 0. 48. 6. 1. 3.
      24. 80. 13. 18. 139. 59. 1. 0. 0. 4. 4. 54. 51. 31. 16. 6. 0. 0.
      3. 23. 0. 0. 0. 1. 139. 101. 2. 0. 12. 2. 0. 3. 29. 36. 29. 12.
      115. 85. 3. 0. 1. 2. 17. 51. 24. 46. 65. 34. 9. 15. 4. 12.</_>
    <_>
      0. 0. 0. 0. 0. 0. 0. 0. 0. 0. 7. 5. 1. 0. 0. 0. 0. 0. 39. 23. 1.
      0. 0. 0. 4. 12. 74. 46. 1. 0. 0. 0. 0. 0. 1. 21. 5. 0. 0. 0. 10.
      12. 84. 131. 70. 2. 0. 0. 98. 59. 131. 90. 21. 22. 5. 15. 79. 22.
      66. 75. 46. 70. 11. 23. 0. 0. 0. 10. 4. 1. 0. 0. 35. 6. 10. 94.
      131. 110. 13. 9. 131. 52. 18. 35. 31. 48. 30. 47. 72. 8. 6. 48.
      46. 33. 18. 96. 0. 0. 0. 0. 0. 0. 0. 0. 2. 0. 0. 0. 7. 79. 85. 6.
      29. 7. 2. 3. 3. 45. 131. 87. 11. 1. 1. 6. 3. 4. 114. 131.</_>
    <_>
      1. 18. 120. 55. 0. 0. 0. 0. 2. 99. 79. 4. 0. 0. 0. 0. 0. 32. 25.
      0. 0. 0. 0. 0. 0. 2. 0. 0. 0. 0. 0. 0. 14. 18. 83. 68. 8. 5. 59.
      61. 24. 125. 125. 65. 46. 9. 26. 17. 74. 125. 83. 10. 1. 0. 0. 1.
      2. 10. 0. 0. 0. 0. 0. 0. 65. 27. 19. 99. 29. 12. 34. 48. 82. 17.
      14. 125. 101. 12. 16. 35. 125. 44. 7. 13. 3. 0. 1. 44. 1. 2. 0. 0.
      0. 0. 0. 0. 7. 5. 6. 31. 21. 94. 86. 5. 26. 0. 1. 42. 21. 63. 125.
      121. 44. 0. 0. 0. 0. 0. 38. 87. 0. 0. 0. 0. 0. 0. 0. 0.</_>
    <_>
      120. 78. 67. 3. 1. 2. 3. 28. 16. 96. 48. 0. 0. 0. 0. 1. 4. 12. 2.
      0. 0. 0. 0. 0. 0. 0. 0. 0. 0. 0. 0. 0. 32. 148. 146. 49. 8. 1. 1.
      2. 148. 148. 51. 0. 0. 0. 0. 5. 75. 25. 0. 0. 0. 0. 0. 2. 0. 0. 0.
      0. 0. 0. 0. 0. 90. 29. 12. 15. 1. 0. 0. 134. 148. 20. 0. 0. 0. 0.
      0. 148. 75. 1. 0. 0. 0. 0. 0. 22. 0. 0. 0. 0. 0. 0. 0. 0. 23. 0.
      0. 0. 0. 0. 33. 148. 44. 0. 0. 0. 0. 0. 4. 148. 6. 0. 0. 0. 0. 0.
      0. 7. 0. 0. 0. 0. 0. 0. 0. 0.</_>
    <_>
      24. 155. 19. 0. 0. 0. 0. 0. 9. 155. 47. 0. 0. 0. 0. 0. 0. 19. 13.
      0. 0. 0. 0. 0. 0. 0. 0. 0. 0. 0. 0. 0. 6. 150. 38. 0. 0. 0. 1. 2.
      21. 155. 155. 0. 0. 0. 0. 1. 107. 155. 51. 0. 0. 0. 0. 5. 15. 4.
      0. 0. 0. 0. 0. 2. 6. 13. 5. 2. 9. 5. 2. 3. 121. 54. 15. 0. 0. 0.
      0. 16. 155. 56. 3. 0. 0. 0. 0. 33. 46. 4. 0. 0. 0. 0. 0. 6. 1. 9.
      15. 5. 31. 13. 1. 2. 112. 29. 8. 0. 0. 0. 1. 49. 155. 17. 0. 0. 0.
      0. 0. 87. 31. 2. 0. 0. 0. 0. 0. 9.</_>
    <_>
      3. 1. 7. 45. 35. 5. 5. 4. 124. 5. 0. 0. 1. 1. 4. 22. 153. 10. 0.
      0. 0. 0. 0. 85. 30. 1. 0. 0. 0. 0. 0. 17. 20. 7. 3. 5. 0. 0. 2. 8.
      124. 14. 0. 0. 0. 0. 19. 48. 153. 47. 0. 0. 0. 0. 3. 50. 33. 5. 0.
      0. 0. 0. 0. 1. 16. 2. 0. 0. 0. 5. 113. 113. 18. 1. 0. 0. 0. 0.
      141. 153. 98. 2. 0. 0. 0. 0. 61. 153. 10. 0. 0. 0. 0. 0. 1. 5. 0.
      0. 0. 0. 0. 8. 153. 71. 0. 0. 0. 0. 0. 0. 74. 143. 0. 0. 0. 0. 0.
      0. 18. 30. 0. 0. 0. 0. 0. 0. 0. 0.</_>
    <_>
      0. 0. 15. 137. 20. 0. 0. 0. 32. 67. 99. 133. 1. 0. 0. 0. 137. 108.
      13. 0. 0. 0. 0. 1. 23. 3. 0. 0. 0. 0. 0. 1. 0. 0. 3. 102. 127.
      110. 39. 0. 76. 24. 9. 33. 6. 49. 90. 20. 137. 49. 0. 0. 0. 1. 11.
      51. 43. 5. 0. 0. 0. 0. 0. 2. 0. 0. 0. 0. 14. 137. 99. 0. 10. 0. 0.
      0. 0. 98. 137. 45. 78. 1. 0. 0. 0. 4. 86. 137. 9. 0. 0. 0. 0. 0.
      0. 6. 0. 0. 0. 0. 0. 5. 8. 0. 0. 0. 0. 0. 0. 7. 42. 3. 0. 0. 0. 0.
      0. 0. 20. 12. 0. 0. 0. 0. 0. 0. 0. 0.</_>
    <_>
      0. 0. 9. 3. 0. 0. 0. 0. 0. 1. 23. 8. 0. 0. 0. 0. 0. 7. 8. 0. 0. 0.
      0. 0. 0. 1. 0. 0. 0. 0. 0. 0. 0. 0. 112. 117. 4. 0. 0. 0. 8. 39.
      136. 103. 0. 0. 0. 0. 80. 136. 86. 3. 0. 0. 0. 1. 20. 16. 0. 0. 0.
      0. 0. 0. 0. 0. 37. 111. 87. 87. 4. 0. 79. 20. 83. 58. 8. 33. 7.
      16. 136. 52. 13. 1. 0. 0. 0. 40. 57. 6. 0. 0. 0. 0. 0. 3. 0. 0. 0.
      0. 14. 136. 35. 0. 34. 0. 0. 0. 2. 132. 133. 62. 136. 0. 0. 0. 0.
      1. 28. 136. 18. 0. 0. 0. 0. 0. 0. 11.</_>
    <_>
      11. 4. 9. 27. 26. 0. 0. 3. 134. 40. 5. 1. 0. 0. 0. 53. 134. 62. 0.
      0. 0. 0. 0. 40. 49. 19. 0. 0. 0. 0. 0. 0. 35. 1. 0. 3. 40. 0. 0.
      5. 134. 14. 1. 0. 0. 0. 0. 95. 134. 87. 20. 1. 0. 0. 0. 56. 66.
      84. 2. 0. 0. 0. 0. 0. 29. 9. 0. 1. 39. 4. 0. 0. 134. 125. 3. 0. 1.
      0. 0. 4. 123. 105. 32. 4. 0. 0. 0. 23. 134. 41. 2. 0. 0. 0. 0. 30.
      8. 3. 0. 0. 35. 8. 0. 0. 104. 74. 0. 0. 2. 1. 0. 2. 134. 69. 0. 0.
      0. 0. 0. 31. 120. 1. 0. 0. 0. 0. 0. 40.</_>
    <_>
      0. 0. 0. 0. 0. 0. 0. 0. 0. 0. 10. 21. 0. 0. 0. 0. 0. 0. 4. 13. 0.
      0. 0. 0. 0. 0. 0. 0. 0. 0. 0. 0. 0. 0. 0. 1. 6. 11. 0. 0. 16. 17.
      121. 155. 109. 96. 16. 10. 155. 71. 84. 108. 12. 15. 17. 59. 41.
      3. 0. 0. 0. 0. 0. 4. 0. 0. 0. 0. 11. 29. 0. 0. 11. 4. 7. 36. 120.
      155. 155. 39. 155. 21. 7. 11. 11. 62. 155. 155. 27. 3. 0. 0. 0. 0.
      1. 5. 0. 0. 0. 0. 0. 0. 0. 0. 0. 0. 0. 0. 0. 6. 25. 3. 0. 0. 0. 0.
      0. 2. 47. 9. 0. 0. 0. 0. 0. 0. 0. 0.</_>
    <_>
      0. 0. 0. 0. 0. 0. 0. 0. 0. 13. 14. 6. 1. 0. 0. 0. 0. 33. 22. 1. 0.
      0. 0. 0. 0. 0. 0. 0. 0. 0. 0. 0. 0. 0. 1. 35. 9. 0. 0. 0. 16. 92.
      148. 152. 103. 19. 17. 9. 152. 152. 152. 42. 6. 5. 11. 31. 22. 7.
      0. 0. 0. 0. 0. 2. 0. 0. 0. 14. 3. 0. 0. 0. 17. 14. 13. 110. 69.
      88. 152. 42. 152. 63. 11. 10. 6. 29. 149. 133. 36. 3. 0. 0. 0. 0.
      0. 3. 0. 0. 0. 0. 0. 0. 0. 0. 0. 0. 0. 0. 0. 5. 23. 1. 0. 0. 0. 0.
      0. 4. 11. 1. 0. 0. 0. 0. 0. 0. 0. 0.</_>
    <_>
      0. 0. 22. 136. 22. 0. 0. 0. 26. 59. 119. 136. 1. 0. 0. 0. 136.
      136. 30. 1. 0. 0. 0. 0. 22. 8. 0. 0. 0. 0. 0. 0. 0. 0. 5. 88. 109.
      136. 29. 0. 57. 11. 8. 41. 7. 74. 73. 21. 136. 53. 1. 0. 0. 1. 11.
      49. 72. 14. 0. 0. 0. 0. 0. 1. 0. 0. 0. 0. 6. 136. 66. 0. 6. 0. 0.
      0. 0. 136. 136. 32. 80. 2. 0. 0. 0. 7. 67. 97. 19. 3. 0. 0. 0. 0.
      0. 2. 0. 0. 0. 0. 0. 9. 4. 0. 0. 0. 0. 0. 0. 27. 19. 0. 0. 0. 0.
      0. 0. 2. 5. 0. 0. 0. 0. 0. 0. 0. 0. 0.</_>
    <_>
      0. 0. 5. 7. 0. 0. 0. 0. 0. 0. 24. 26. 0. 0. 0. 0. 0. 0. 6. 3. 0.
      0. 0. 0. 0. 0. 0. 0. 0. 0. 0. 0. 0. 0. 68. 134. 7. 0. 0. 0. 6. 32.
      134. 134. 0. 0. 0. 0. 75. 97. 70. 9. 0. 0. 0. 2. 16. 2. 0. 0. 0.
      0. 0. 3. 0. 0. 28. 134. 122. 77. 7. 0. 59. 22. 74. 70. 7. 36. 14.
      12. 134. 49. 11. 1. 0. 0. 1. 61. 66. 1. 0. 0. 0. 0. 0. 21. 0. 0.
      0. 0. 30. 134. 41. 0. 27. 0. 0. 0. 1. 134. 127. 55. 134. 0. 0. 0.
      0. 2. 29. 134. 24. 0. 0. 0. 0. 0. 0. 10.</_>
    <_>
      1. 151. 119. 5. 0. 0. 0. 0. 23. 151. 68. 1. 0. 0. 0. 0. 12. 34.
      20. 3. 0. 0. 0. 0. 0. 0. 1. 0. 0. 0. 0. 0. 23. 50. 32. 18. 30. 1.
      0. 0. 151. 151. 14. 1. 2. 0. 0. 2. 134. 33. 1. 0. 0. 0. 0. 1. 1.
      0. 0. 0. 0. 0. 0. 0. 29. 1. 0. 1. 46. 14. 6. 33. 151. 5. 0. 0. 3.
      1. 2. 128. 150. 1. 0. 0. 0. 0. 0. 23. 1. 0. 0. 0. 0. 0. 0. 0. 5.
      0. 0. 0. 6. 10. 66. 151. 70. 0. 0. 0. 0. 0. 22. 151. 33. 0. 0. 0.
      0. 0. 5. 36. 0. 0. 0. 0. 0. 0. 0. 0.</_>
    <_>
      1. 5. 64. 129. 104. 2. 3. 2. 59. 124. 129. 30. 8. 0. 1. 7. 121.
      129. 36. 1. 0. 0. 0. 3. 4. 5. 3. 0. 0. 0. 0. 1. 2. 0. 0. 67. 129.
      26. 23. 3. 129. 13. 0. 4. 8. 3. 43. 35. 129. 31. 0. 0. 0. 0. 2.
      18. 11. 1. 0. 0. 0. 0. 0. 1. 0. 0. 0. 3. 74. 124. 110. 5. 27. 0.
      0. 0. 0. 8. 129. 80. 129. 5. 0. 0. 0. 0. 29. 107. 4. 0. 0. 0. 0.
      0. 0. 1. 0. 0. 1. 2. 11. 77. 30. 1. 1. 0. 1. 2. 0. 17. 63. 49. 7.
      2. 6. 4. 0. 0. 8. 39. 0. 0. 0. 0. 0. 0. 0. 0.</_>
    <_>
      0. 5. 121. 62. 0. 0. 0. 0. 5. 62. 121. 8. 2. 4. 0. 1. 1. 55. 38.
      0. 3. 35. 3. 0. 0. 5. 2. 0. 2. 47. 9. 0. 58. 34. 121. 75. 0. 0. 0.
      4. 121. 78. 81. 4. 2. 1. 3. 62. 14. 121. 54. 19. 12. 4. 5. 16. 12.
      92. 22. 2. 3. 15. 1. 0. 121. 53. 11. 8. 1. 0. 0. 2. 121. 117. 6.
      10. 6. 1. 1. 14. 34. 40. 28. 74. 47. 16. 4. 11. 121. 58. 14. 5. 1.
      3. 2. 26. 32. 64. 7. 7. 4. 0. 0. 0. 121. 121. 1. 0. 1. 1. 0. 0.
      54. 43. 1. 2. 11. 33. 11. 13. 121. 7. 0. 0. 0. 6. 5. 37.</_>
    <_>
      0. 0. 0. 0. 0. 0. 0. 0. 1. 7. 26. 7. 0. 0. 0. 0. 23. 27. 14. 2. 0.
      0. 1. 3. 5. 0. 0. 0. 0. 0. 2. 3. 0. 0. 0. 0. 0. 1. 0. 0. 20. 51.
      121. 97. 44. 51. 14. 9. 161. 161. 76. 24. 8. 9. 16. 65. 100. 8. 0.
      0. 0. 0. 25. 43. 0. 0. 0. 0. 0. 7. 4. 0. 15. 6. 5. 15. 36. 161.
      161. 39. 161. 41. 4. 4. 6. 43. 161. 161. 110. 30. 0. 0. 0. 0. 2.
      20. 0. 0. 0. 0. 0. 0. 0. 0. 0. 0. 0. 0. 0. 12. 28. 2. 9. 1. 0. 0.
      0. 2. 31. 24. 7. 1. 0. 0. 0. 0. 0. 4.</_>
    <_>
      0. 7. 72. 29. 15. 53. 5. 0. 6. 55. 76. 11. 18. 38. 3. 2. 120. 48.
      9. 2. 3. 18. 10. 62. 65. 10. 0. 0. 0. 0. 0. 19. 0. 19. 46. 2. 12.
      131. 11. 0. 50. 55. 24. 1. 21. 131. 9. 6. 131. 46. 3. 0. 0. 11. 7.
      60. 45. 0. 0. 0. 0. 0. 0. 20. 50. 131. 126. 1. 2. 11. 0. 0. 75.
      43. 3. 0. 8. 131. 54. 29. 131. 4. 0. 0. 0. 28. 49. 100. 33. 1. 0.
      0. 0. 0. 0. 6. 131. 110. 23. 6. 7. 0. 0. 4. 131. 22. 0. 0. 0. 3.
      19. 23. 20. 4. 1. 0. 0. 2. 22. 40. 3. 1. 1. 0. 0. 0. 0. 2.</_>
    <_>
      6. 53. 96. 22. 0. 0. 0. 1. 140. 167. 28. 2. 0. 0. 1. 4. 49. 13. 0.
      0. 0. 1. 26. 11. 0. 0. 0. 0. 0. 3. 34. 0. 39. 32. 98. 20. 0. 0. 0.
      1. 167. 81. 13. 1. 0. 0. 0. 9. 146. 20. 2. 0. 0. 1. 11. 14. 0. 2.
      0. 0. 0. 3. 25. 1. 79. 5. 3. 2. 2. 4. 3. 16. 167. 18. 2. 0. 0. 0.
      0. 67. 89. 86. 44. 6. 1. 0. 0. 5. 1. 63. 18. 0. 0. 0. 4. 1. 91. 9.
      14. 4. 1. 1. 8. 43. 167. 6. 1. 8. 3. 0. 1. 75. 37. 38. 28. 69. 20.
      0. 0. 3. 17. 114. 18. 4. 0. 0. 0. 0.</_>
    <_>
      0. 0. 48. 98. 10. 5. 0. 0. 2. 10. 75. 73. 14. 3. 1. 1. 127. 54.
      20. 12. 6. 2. 1. 24. 70. 11. 0. 0. 0. 0. 0. 9. 0. 6. 34. 25. 26.
      106. 5. 0. 28. 39. 56. 13. 23. 116. 5. 4. 128. 38. 6. 1. 1. 6. 4.
      65. 69. 2. 0. 0. 0. 0. 0. 25. 10. 128. 128. 2. 4. 24. 1. 0. 51.
      59. 18. 1. 8. 128. 47. 23. 128. 7. 0. 0. 0. 23. 45. 94. 53. 1. 0.
      0. 0. 0. 0. 9. 99. 128. 70. 6. 5. 0. 0. 1. 128. 79. 3. 0. 0. 3.
      20. 27. 40. 3. 0. 0. 0. 2. 28. 71. 8. 1. 0. 0. 0. 0. 0. 6.</_>
    <_>
      1. 51. 73. 21. 0. 0. 0. 0. 48. 103. 21. 0. 0. 0. 14. 14. 15. 4. 0.
      0. 0. 5. 80. 12. 0. 0. 0. 0. 0. 5. 46. 0. 17. 36. 147. 48. 9. 1.
      0. 1. 147. 147. 46. 2. 0. 0. 1. 12. 109. 23. 1. 0. 0. 4. 38. 17.
      0. 1. 0. 0. 0. 5. 35. 0. 58. 5. 14. 16. 49. 22. 17. 30. 147. 37.
      14. 2. 0. 0. 3. 91. 75. 147. 35. 2. 0. 0. 3. 4. 2. 45. 2. 0. 0. 1.
      5. 1. 14. 0. 0. 1. 11. 56. 147. 71. 72. 7. 12. 10. 6. 35. 103.
      108. 31. 88. 21. 8. 3. 5. 47. 24. 15. 59. 4. 0. 0. 0. 9. 11.</_>
    <_>
      0. 23. 74. 25. 28. 31. 0. 0. 106. 77. 30. 10. 10. 38. 12. 28. 138.
      54. 0. 0. 0. 0. 1. 26. 7. 1. 0. 0. 0. 0. 0. 1. 14. 85. 75. 4. 17.
      108. 2. 0. 138. 91. 16. 1. 2. 17. 13. 96. 138. 5. 0. 0. 0. 0. 1.
      106. 6. 0. 0. 0. 0. 0. 0. 3. 21. 27. 6. 0. 21. 138. 18. 6. 138.
      39. 0. 0. 1. 57. 29. 64. 138. 5. 0. 0. 0. 0. 0. 20. 2. 0. 0. 0. 0.
      0. 0. 0. 104. 42. 2. 0. 2. 50. 39. 18. 75. 0. 0. 0. 0. 32. 85.
      118. 60. 2. 0. 0. 0. 0. 1. 30. 0. 0. 0. 0. 0. 0. 0. 0.</_>
    <_>
      25. 20. 5. 5. 0. 0. 0. 4. 99. 161. 0. 0. 0. 0. 0. 1. 161. 141. 0.
      0. 0. 0. 0. 0. 16. 5. 0. 0. 0. 0. 0. 0. 27. 4. 3. 0. 0. 0. 1. 13.
      126. 55. 12. 0. 0. 0. 0. 3. 161. 72. 0. 0. 0. 0. 0. 5. 48. 4. 0.
      0. 0. 0. 0. 1. 3. 2. 4. 3. 7. 3. 3. 8. 152. 11. 12. 2. 1. 0. 0.
      21. 161. 6. 0. 0. 0. 0. 0. 66. 42. 0. 0. 0. 0. 0. 0. 7. 0. 0. 0.
      1. 9. 51. 4. 2. 148. 0. 0. 0. 2. 5. 1. 81. 161. 0. 0. 0. 0. 0. 0.
      108. 15. 0. 0. 0. 0. 0. 0. 5.</_>
    <_>
      0. 0. 113. 69. 0. 0. 0. 0. 1. 18. 124. 25. 0. 0. 0. 0. 2. 84. 124.
      0. 0. 0. 0. 0. 3. 41. 9. 0. 0. 0. 0. 0. 12. 6. 124. 124. 0. 0. 0.
      1. 98. 46. 124. 22. 0. 0. 2. 45. 61. 109. 63. 0. 0. 0. 14. 75. 58.
      112. 5. 0. 0. 0. 1. 8. 28. 7. 12. 27. 3. 2. 1. 6. 124. 97. 3. 0.
      0. 0. 1. 17. 63. 113. 20. 6. 0. 0. 5. 31. 31. 98. 40. 14. 0. 0. 0.
      5. 2. 7. 15. 5. 1. 1. 1. 1. 12. 117. 17. 0. 0. 0. 0. 0. 3. 124.
      67. 6. 0. 0. 0. 0. 52. 66. 53. 14. 0. 0. 0. 0.</_>
    <_>
      124. 28. 1. 0. 0. 0. 9. 87. 124. 42. 1. 0. 0. 0. 19. 86. 97. 10.
      0. 0. 0. 0. 0. 14. 1. 0. 0. 0. 0. 0. 0. 0. 124. 124. 3. 0. 0. 0.
      2. 16. 124. 97. 5. 0. 0. 0. 0. 42. 108. 11. 0. 0. 0. 0. 0. 11. 0.
      1. 1. 0. 0. 0. 0. 0. 99. 19. 0. 2. 4. 4. 85. 124. 124. 109. 13. 8.
      6. 1. 3. 71. 110. 79. 1. 0. 0. 0. 0. 3. 1. 1. 0. 0. 0. 0. 0. 0. 1.
      0. 0. 19. 67. 27. 122. 53. 85. 15. 4. 22. 30. 5. 14. 95. 88. 14.
      0. 0. 0. 0. 0. 27. 0. 0. 0. 0. 0. 0. 0. 0.</_>
    <_>
      0. 0. 0. 5. 2. 0. 0. 0. 0. 6. 19. 61. 21. 0. 0. 0. 0. 27. 37. 14.
      2. 0. 0. 0. 0. 0. 0. 0. 0. 0. 0. 0. 0. 0. 3. 65. 21. 2. 0. 0. 21.
      46. 106. 166. 166. 34. 1. 3. 166. 166. 142. 92. 19. 7. 1. 14. 10.
      2. 0. 0. 0. 0. 0. 2. 0. 0. 0. 11. 15. 12. 0. 0. 31. 9. 8. 78. 166.
      166. 2. 9. 166. 35. 7. 12. 32. 44. 2. 27. 13. 1. 0. 0. 0. 0. 0. 2.
      0. 0. 0. 0. 0. 0. 0. 0. 0. 0. 0. 0. 3. 5. 0. 0. 0. 0. 0. 0. 0. 0.
      0. 0. 0. 0. 0. 0. 0. 0. 0. 0.</_>
    <_>
      0. 0. 0. 0. 0. 0. 0. 0. 0. 0. 0. 1. 1. 0. 0. 0. 0. 0. 0. 0. 0. 0.
      0. 0. 0. 0. 0. 0. 0. 0. 0. 0. 0. 0. 0. 7. 5. 1. 0. 0. 24. 6. 5.
      156. 156. 26. 12. 13. 156. 29. 6. 43. 35. 6. 12. 65. 27. 4. 0. 0.
      0. 0. 0. 3. 0. 0. 0. 2. 10. 21. 0. 0. 13. 2. 1. 54. 156. 156. 156.
      118. 156. 11. 1. 10. 16. 25. 156. 156. 16. 2. 0. 0. 0. 0. 8. 16.
      0. 0. 0. 0. 0. 3. 0. 0. 1. 0. 0. 0. 2. 23. 38. 36. 1. 0. 0. 0. 0.
      1. 50. 78. 0. 0. 0. 0. 0. 0. 2. 1.</_>
    <_>
      0. 0. 0. 0. 0. 0. 0. 0. 0. 10. 8. 0. 0. 0. 0. 0. 0. 17. 16. 0. 0.
      0. 0. 0. 0. 0. 0. 0. 0. 0. 0. 0. 0. 0. 0. 0. 1. 5. 0. 0. 16. 125.
      89. 3. 40. 126. 8. 7. 161. 161. 113. 1. 7. 17. 9. 38. 80. 7. 0. 0.
      0. 0. 0. 9. 0. 0. 0. 0. 4. 11. 0. 0. 18. 14. 7. 1. 74. 161. 116.
      40. 161. 62. 6. 1. 7. 65. 159. 161. 106. 14. 0. 0. 0. 0. 0. 10. 0.
      0. 0. 0. 0. 0. 0. 0. 0. 0. 0. 0. 0. 4. 19. 5. 6. 1. 0. 0. 0. 2.
      42. 27. 1. 0. 0. 0. 0. 0. 0. 1.</_>
    <_>
      114. 44. 0. 0. 0. 2. 11. 25. 123. 90. 2. 0. 0. 0. 0. 64. 123. 18.
      0. 0. 0. 0. 0. 47. 13. 1. 0. 0. 0. 0. 0. 4. 32. 2. 0. 1. 2. 18.
      123. 123. 120. 46. 9. 13. 9. 2. 19. 123. 123. 107. 4. 1. 0. 0. 0.
      17. 21. 8. 0. 0. 0. 0. 0. 0. 0. 0. 0. 33. 84. 48. 123. 27. 43. 8.
      3. 55. 49. 9. 30. 98. 123. 19. 1. 1. 0. 0. 1. 88. 13. 2. 0. 0. 0.
      0. 0. 0. 0. 0. 0. 11. 70. 62. 49. 6. 3. 0. 0. 5. 12. 15. 112. 123.
      9. 0. 0. 0. 0. 0. 10. 50. 0. 0. 0. 0. 0. 0. 0. 0.</_>
    <_>
      0. 0. 0. 0. 0. 0. 0. 0. 0. 1. 16. 9. 0. 0. 0. 0. 0. 8. 14. 2. 0.
      0. 0. 0. 0. 1. 0. 0. 0. 0. 0. 0. 0. 0. 5. 28. 2. 0. 0. 0. 8. 19.
      119. 135. 5. 0. 0. 0. 80. 119. 87. 17. 0. 0. 0. 1. 14. 19. 24. 0.
      0. 0. 0. 0. 0. 0. 1. 57. 78. 5. 0. 0. 60. 12. 27. 135. 85. 4. 1.
      18. 135. 64. 135. 75. 1. 0. 0. 17. 8. 46. 135. 35. 0. 0. 0. 0. 0.
      0. 0. 4. 101. 68. 1. 0. 21. 2. 3. 28. 103. 85. 18. 15. 15. 5. 80.
      135. 91. 5. 1. 5. 0. 28. 135. 67. 8. 1. 0. 0.</_>
    <_>
      4. 100. 106. 27. 4. 4. 1. 0. 11. 131. 115. 13. 4. 8. 1. 0. 28. 71.
      9. 0. 0. 0. 0. 0. 1. 0. 0. 0. 0. 0. 0. 0. 131. 131. 14. 3. 3. 16.
      8. 24. 78. 57. 6. 2. 6. 119. 34. 26. 131. 72. 0. 0. 0. 8. 9. 33.
      20. 1. 0. 0. 0. 0. 0. 3. 131. 9. 0. 0. 0. 3. 8. 131. 61. 1. 0. 0.
      0. 103. 121. 99. 83. 1. 0. 0. 0. 17. 67. 114. 16. 0. 0. 0. 0. 0.
      0. 9. 25. 0. 0. 0. 0. 0. 15. 131. 9. 0. 0. 0. 0. 6. 20. 38. 0. 0.
      0. 0. 0. 2. 15. 8. 0. 0. 0. 0. 0. 0. 0. 0.</_>
    <_>
      39. 167. 59. 0. 0. 4. 14. 11. 117. 154. 3. 0. 0. 1. 1. 2. 7. 1. 0.
      0. 0. 0. 0. 1. 0. 0. 0. 0. 0. 0. 0. 0. 96. 48. 6. 21. 36. 41. 38.
      52. 167. 136. 0. 5. 14. 10. 3. 17. 72. 6. 1. 15. 35. 5. 2. 8. 0.
      0. 0. 1. 3. 0. 0. 0. 84. 30. 33. 42. 16. 2. 7. 71. 167. 17. 5. 11.
      7. 1. 0. 150. 60. 11. 8. 26. 33. 1. 0. 4. 0. 0. 0. 1. 3. 0. 0. 0.
      49. 5. 1. 0. 0. 3. 86. 135. 111. 18. 0. 0. 0. 2. 7. 77. 5. 2. 1.
      0. 0. 0. 0. 1. 0. 0. 0. 0. 0. 0. 0. 0.</_>
    <_>
      8. 0. 0. 0. 0. 0. 4. 14. 173. 21. 0. 0. 0. 0. 0. 10. 173. 25. 0.
      0. 3. 1. 0. 17. 17. 0. 0. 13. 31. 2. 0. 8. 9. 1. 0. 0. 0. 0. 3.
      13. 173. 15. 0. 0. 0. 0. 0. 12. 173. 33. 1. 4. 10. 0. 0. 8. 23. 3.
      1. 9. 36. 1. 0. 2. 15. 8. 0. 0. 0. 2. 14. 10. 173. 13. 1. 0. 0. 0.
      0. 18. 173. 18. 2. 3. 1. 0. 0. 13. 15. 5. 2. 5. 3. 0. 0. 0. 3. 1.
      1. 15. 38. 46. 73. 6. 150. 15. 3. 7. 14. 6. 1. 70. 173. 5. 0. 0.
      0. 0. 0. 74. 4. 1. 0. 0. 0. 0. 0. 0.</_>
    <_>
      2. 15. 12. 0. 0. 4. 28. 11. 140. 123. 16. 0. 0. 2. 12. 20. 163.
      135. 3. 3. 0. 0. 0. 2. 13. 12. 5. 15. 3. 0. 0. 0. 21. 10. 0. 0. 0.
      1. 8. 11. 163. 9. 0. 0. 0. 0. 6. 27. 163. 31. 1. 1. 1. 1. 0. 4.
      25. 2. 1. 3. 1. 1. 0. 1. 26. 9. 0. 0. 0. 3. 44. 44. 159. 3. 0. 0.
      1. 11. 25. 23. 163. 24. 0. 0. 0. 0. 0. 11. 19. 5. 0. 0. 0. 0. 0.
      0. 18. 15. 15. 9. 6. 10. 62. 59. 64. 1. 6. 15. 29. 32. 39. 114.
      153. 3. 0. 0. 0. 0. 2. 111. 2. 1. 0. 0. 0. 0. 0. 0.</_>
    <_>
      0. 0. 0. 0. 0. 0. 0. 0. 0. 0. 4. 4. 0. 0. 0. 0. 0. 0. 1. 3. 0. 0.
      0. 0. 0. 0. 0. 0. 0. 0. 0. 0. 0. 0. 0. 0. 0. 1. 1. 0. 31. 29. 174.
      49. 0. 36. 67. 23. 174. 81. 93. 35. 0. 3. 26. 87. 45. 12. 0. 0. 0.
      0. 0. 3. 0. 0. 0. 0. 0. 5. 5. 0. 20. 8. 34. 2. 0. 143. 174. 124.
      174. 39. 14. 1. 0. 13. 174. 174. 24. 9. 0. 0. 0. 0. 5. 6. 0. 0. 0.
      0. 0. 0. 0. 0. 0. 0. 0. 0. 0. 1. 7. 11. 1. 0. 0. 0. 0. 0. 21. 37.
      0. 0. 0. 0. 0. 0. 1. 0.</_>
    <_>
      0. 0. 0. 0. 0. 0. 0. 0. 0. 20. 13. 0. 0. 0. 0. 0. 0. 26. 31. 1. 0.
      0. 0. 0. 0. 0. 0. 0. 0. 0. 0. 0. 0. 0. 0. 3. 5. 1. 0. 0. 28. 162.
      135. 105. 112. 8. 1. 16. 162. 162. 162. 20. 8. 0. 0. 55. 47. 6. 0.
      0. 0. 0. 0. 8. 0. 0. 0. 3. 3. 0. 0. 0. 39. 20. 12. 103. 76. 2. 17.
      162. 162. 70. 11. 14. 7. 0. 17. 162. 42. 7. 0. 0. 0. 0. 0. 4. 0.
      0. 0. 0. 0. 0. 0. 0. 0. 0. 0. 0. 0. 0. 2. 11. 0. 0. 0. 0. 0. 0. 2.
      15. 0. 0. 0. 0. 0. 0. 0. 0.</_>
    <_>
      0. 0. 0. 0. 0. 0. 1. 2. 9. 4. 2. 0. 0. 28. 70. 79. 1. 1. 4. 2. 0.
      96. 72. 18. 3. 1. 0. 0. 0. 5. 25. 42. 5. 0. 0. 0. 0. 0. 0. 3. 150.
      5. 0. 0. 0. 56. 70. 148. 36. 2. 0. 0. 0. 150. 150. 41. 1. 0. 0. 0.
      0. 77. 150. 126. 5. 1. 0. 0. 0. 0. 0. 0. 150. 41. 0. 0. 0. 8. 7.
      17. 81. 19. 1. 1. 9. 150. 68. 10. 0. 0. 0. 0. 1. 70. 150. 41. 0.
      0. 0. 0. 0. 0. 0. 0. 8. 1. 0. 0. 0. 0. 0. 0. 2. 1. 0. 0. 1. 1. 0.
      0. 0. 0. 0. 0. 0. 1. 2. 0.</_>
    <_>
      0. 0. 0. 0. 0. 0. 0. 0. 9. 0. 0. 0. 0. 0. 11. 55. 3. 1. 0. 0. 0.
      2. 133. 133. 1. 2. 0. 0. 0. 78. 133. 33. 14. 2. 0. 0. 0. 0. 0. 0.
      133. 13. 0. 0. 0. 0. 4. 133. 67. 10. 2. 0. 4. 29. 46. 133. 8. 15.
      3. 19. 9. 34. 44. 14. 19. 1. 0. 0. 0. 0. 0. 1. 133. 99. 2. 0. 0.
      0. 0. 16. 72. 133. 75. 8. 2. 18. 11. 9. 1. 7. 60. 133. 33. 11. 16.
      2. 0. 0. 0. 0. 0. 0. 0. 0. 10. 16. 2. 0. 0. 0. 0. 0. 4. 53. 121.
      25. 0. 0. 0. 0. 0. 4. 133. 133. 1. 0. 0. 0.</_>
    <_>
      0. 2. 1. 0. 25. 67. 89. 35. 4. 7. 4. 2. 1. 2. 126. 116. 4. 17. 10.
      2. 1. 28. 126. 35. 0. 1. 2. 2. 33. 126. 57. 0. 41. 93. 9. 1. 8.
      10. 29. 9. 8. 18. 15. 31. 41. 14. 14. 10. 40. 62. 24. 7. 3. 3. 2.
      7. 7. 3. 4. 7. 83. 51. 4. 8. 126. 126. 14. 1. 8. 4. 0. 1. 15. 26.
      44. 12. 32. 47. 15. 3. 71. 19. 29. 10. 4. 14. 9. 20. 18. 5. 23.
      126. 57. 6. 2. 11. 33. 126. 41. 0. 0. 0. 0. 0. 1. 83. 126. 5. 1.
      1. 0. 0. 5. 17. 126. 49. 1. 1. 0. 1. 1. 2. 82. 126. 4. 0. 0. 0.</_>
    <_>
      0. 0. 0. 0. 0. 0. 0. 0. 15. 8. 2. 5. 4. 1. 0. 1. 3. 3. 2. 10. 11.
      1. 0. 1. 0. 0. 0. 0. 0. 0. 0. 0. 50. 6. 0. 0. 0. 0. 0. 8. 169.
      102. 15. 12. 52. 46. 11. 93. 53. 27. 16. 36. 169. 169. 10. 24. 0.
      0. 0. 1. 19. 7. 0. 0. 22. 1. 0. 0. 0. 0. 0. 7. 169. 169. 139. 7.
      18. 9. 1. 31. 19. 124. 108. 19. 169. 89. 1. 3. 0. 0. 0. 0. 12. 7.
      0. 0. 0. 0. 0. 0. 0. 0. 0. 0. 0. 6. 7. 0. 0. 0. 0. 0. 0. 5. 4. 0.
      0. 0. 0. 0. 0. 0. 0. 0. 0. 0. 0. 0.</_>
    <_>
      0. 0. 0. 0. 0. 1. 1. 0. 77. 0. 0. 0. 0. 1. 1. 17. 148. 3. 0. 0. 0.
      0. 0. 64. 67. 21. 7. 2. 0. 0. 0. 7. 0. 0. 0. 0. 0. 2. 86. 19. 91.
      1. 0. 0. 0. 30. 144. 32. 148. 23. 0. 0. 0. 4. 14. 43. 59. 12. 1.
      2. 3. 4. 9. 28. 3. 4. 0. 0. 0. 9. 148. 69. 13. 0. 0. 0. 9. 148.
      148. 35. 148. 25. 0. 0. 1. 53. 102. 92. 50. 31. 5. 5. 6. 4. 23.
      41. 34. 124. 3. 0. 1. 3. 14. 9. 5. 19. 0. 0. 21. 72. 26. 5. 3. 3.
      6. 8. 6. 25. 56. 51. 5. 14. 53. 16. 0. 1. 21. 32.</_>
    <_>
      4. 5. 13. 16. 7. 8. 4. 2. 10. 19. 47. 35. 6. 3. 7. 5. 12. 85. 36.
      34. 14. 3. 2. 1. 3. 24. 4. 4. 27. 55. 9. 1. 0. 1. 139. 68. 1. 0.
      0. 0. 14. 18. 139. 139. 0. 0. 0. 1. 137. 107. 97. 48. 0. 0. 0. 44.
      55. 40. 2. 2. 1. 3. 7. 45. 0. 1. 139. 35. 0. 0. 0. 0. 87. 36. 131.
      42. 0. 0. 0. 2. 139. 117. 12. 3. 0. 0. 1. 71. 42. 27. 3. 43. 8. 0.
      4. 53. 1. 0. 4. 0. 0. 0. 0. 0. 24. 20. 1. 0. 0. 0. 0. 0. 110. 134.
      0. 0. 0. 0. 0. 0. 22. 38. 4. 47. 13. 0. 0. 0.</_>
    <_>
      26. 35. 2. 0. 0. 3. 13. 33. 54. 148. 5. 0. 4. 15. 8. 5. 144. 148.
      0. 0. 0. 0. 0. 0. 12. 10. 0. 0. 0. 0. 0. 0. 5. 0. 1. 5. 12. 19.
      94. 56. 69. 39. 1. 5. 93. 38. 15. 9. 148. 120. 0. 1. 7. 1. 0. 8.
      59. 14. 0. 0. 0. 0. 0. 0. 1. 2. 46. 49. 15. 12. 16. 2. 54. 2. 15.
      17. 81. 24. 6. 45. 148. 6. 0. 0. 5. 4. 2. 128. 62. 1. 0. 0. 0. 0.
      0. 12. 13. 19. 15. 7. 1. 15. 13. 8. 34. 2. 4. 3. 3. 13. 24. 148.
      116. 0. 0. 0. 0. 0. 1. 148. 13. 0. 0. 0. 0. 0. 0. 11.</_>
    <_>
      0. 2. 117. 117. 0. 0. 0. 0. 15. 15. 117. 55. 0. 2. 7. 8. 9. 117.
      117. 1. 1. 13. 19. 6. 34. 117. 17. 0. 0. 1. 1. 0. 9. 8. 69. 50. 0.
      0. 0. 0. 117. 28. 20. 8. 3. 3. 6. 33. 36. 12. 4. 12. 42. 27. 20.
      24. 106. 117. 11. 4. 3. 3. 2. 5. 16. 7. 6. 12. 11. 21. 5. 0. 117.
      92. 10. 8. 8. 3. 0. 6. 25. 29. 29. 43. 58. 3. 0. 3. 39. 97. 28.
      25. 37. 6. 1. 4. 2. 2. 0. 0. 4. 113. 93. 0. 16. 80. 19. 1. 2. 48.
      107. 7. 13. 51. 54. 7. 8. 3. 78. 70. 22. 9. 3. 2. 25. 28. 97. 73.</_>
    <_>
      0. 0. 0. 0. 2. 0. 0. 0. 0. 22. 13. 9. 15. 0. 0. 0. 0. 37. 19. 2.
      1. 0. 0. 0. 0. 0. 0. 0. 0. 0. 0. 0. 0. 0. 0. 28. 65. 3. 0. 0. 24.
      93. 78. 169. 169. 65. 3. 4. 169. 169. 88. 39. 23. 14. 4. 21. 12.
      1. 0. 0. 0. 0. 0. 3. 0. 0. 0. 8. 21. 8. 1. 0. 29. 10. 4. 40. 169.
      169. 35. 14. 169. 43. 4. 6. 21. 117. 23. 44. 18. 1. 0. 0. 0. 0. 0.
      3. 0. 0. 0. 0. 0. 0. 0. 0. 0. 0. 0. 0. 2. 26. 2. 0. 0. 0. 0. 0. 1.
      7. 0. 0. 0. 0. 0. 0. 0. 0. 0. 0.</_>
    <_>
      0. 0. 0. 0. 0. 0. 0. 0. 0. 12. 2. 0. 0. 0. 0. 0. 0. 27. 9. 0. 0.
      0. 0. 0. 0. 0. 0. 0. 0. 0. 0. 0. 0. 0. 0. 1. 14. 5. 0. 0. 14. 137.
      55. 26. 158. 83. 4. 5. 158. 158. 92. 10. 20. 13. 5. 28. 37. 7. 0.
      0. 0. 0. 0. 7. 0. 0. 0. 1. 14. 3. 0. 0. 18. 15. 5. 12. 158. 158.
      103. 27. 158. 78. 5. 3. 19. 98. 113. 141. 81. 8. 0. 0. 0. 0. 0.
      10. 0. 0. 0. 0. 0. 0. 0. 0. 0. 0. 0. 0. 0. 21. 24. 1. 6. 1. 0. 0.
      0. 21. 25. 6. 1. 0. 0. 0. 0. 0. 0. 0.</_>
    <_>
      0. 1. 82. 131. 16. 0. 0. 0. 3. 7. 131. 42. 0. 0. 0. 0. 70. 27. 52.
      9. 0. 1. 5. 28. 18. 20. 16. 0. 9. 26. 26. 22. 0. 2. 15. 42. 57.
      13. 3. 0. 36. 9. 27. 26. 8. 4. 0. 2. 131. 16. 6. 6. 3. 1. 1. 57.
      32. 3. 4. 32. 44. 8. 5. 23. 0. 0. 0. 1. 35. 131. 37. 0. 33. 13. 1.
      3. 25. 71. 10. 1. 131. 131. 16. 7. 5. 5. 1. 4. 13. 38. 35. 40. 35.
      1. 0. 1. 0. 0. 0. 0. 2. 131. 107. 0. 1. 3. 0. 0. 5. 131. 131. 0.
      10. 71. 14. 0. 1. 69. 131. 11. 13. 39. 31. 3. 3. 3. 99. 63.</_>
    <_>
      1. 4. 65. 25. 1. 0. 0. 0. 77. 22. 41. 6. 0. 0. 1. 35. 39. 10. 6.
      3. 17. 24. 22. 46. 74. 82. 3. 1. 9. 13. 6. 5. 13. 3. 7. 11. 16.
      22. 3. 1. 137. 30. 5. 7. 4. 1. 0. 43. 55. 12. 10. 58. 40. 3. 2.
      26. 61. 47. 26. 20. 13. 2. 2. 7. 5. 3. 0. 0. 15. 137. 51. 0. 78.
      131. 15. 2. 6. 48. 40. 4. 21. 81. 54. 29. 24. 3. 17. 16. 39. 38.
      15. 30. 54. 15. 14. 18. 0. 0. 0. 0. 0. 137. 129. 0. 3. 12. 2. 0.
      0. 122. 137. 9. 9. 18. 8. 0. 2. 16. 137. 82. 9. 1. 0. 1. 12. 48.
      137. 72.</_>
    <_>
      7. 7. 30. 135. 86. 0. 0. 0. 92. 90. 66. 45. 4. 1. 0. 3. 21. 20.
      41. 73. 49. 45. 16. 3. 0. 0. 30. 32. 10. 36. 94. 12. 24. 1. 1. 39.
      135. 135. 2. 4. 135. 9. 1. 4. 8. 14. 2. 16. 51. 11. 7. 20. 17. 22.
      11. 6. 41. 18. 4. 2. 1. 25. 61. 28. 5. 0. 0. 0. 135. 135. 8. 3.
      111. 6. 0. 0. 24. 79. 35. 59. 36. 7. 4. 10. 20. 35. 16. 22. 97.
      15. 2. 1. 3. 8. 7. 39. 0. 0. 0. 0. 135. 93. 5. 0. 5. 2. 14. 15.
      48. 50. 44. 40. 14. 5. 15. 31. 8. 18. 18. 19. 60. 6. 3. 5. 3. 2.
      4. 45.</_>
    <_>
      0. 0. 30. 96. 4. 0. 0. 0. 0. 40. 125. 61. 0. 0. 0. 0. 0. 11. 125.
      114. 3. 1. 0. 0. 0. 8. 125. 43. 0. 1. 0. 0. 4. 3. 22. 125. 125.
      12. 0. 0. 73. 68. 94. 77. 18. 5. 0. 3. 14. 12. 63. 80. 26. 38. 41.
      5. 1. 6. 68. 21. 3. 79. 60. 3. 4. 0. 0. 12. 125. 125. 3. 3. 105.
      3. 1. 4. 29. 61. 14. 29. 50. 9. 4. 6. 3. 13. 21. 19. 28. 2. 0. 0.
      37. 79. 31. 16. 0. 0. 0. 0. 104. 94. 2. 0. 7. 0. 3. 9. 49. 65. 31.
      23. 35. 3. 3. 6. 2. 8. 13. 31. 24. 1. 1. 17. 66. 4. 1. 20.</_>
    <_>
      89. 30. 11. 31. 4. 0. 1. 50. 22. 19. 27. 49. 17. 3. 4. 12. 157.
      28. 7. 2. 1. 1. 2. 41. 55. 1. 0. 0. 0. 0. 0. 7. 37. 92. 22. 12. 5.
      34. 106. 19. 55. 35. 24. 63. 53. 31. 34. 31. 157. 65. 9. 11. 4. 2.
      7. 70. 37. 4. 0. 0. 0. 0. 0. 3. 3. 3. 0. 0. 1. 109. 157. 14. 14.
      1. 0. 6. 20. 149. 157. 109. 88. 3. 0. 1. 2. 3. 92. 157. 5. 1. 0.
      0. 0. 0. 0. 1. 0. 0. 0. 0. 0. 13. 17. 0. 0. 0. 0. 0. 0. 16. 62.
      11. 0. 0. 0. 0. 0. 0. 18. 12. 0. 0. 0. 0. 0. 0. 0. 0.</_>
    <_>
      6. 137. 84. 1. 0. 3. 3. 2. 1. 137. 53. 1. 0. 0. 0. 0. 0. 20. 12.
      0. 0. 0. 0. 0. 0. 0. 0. 0. 0. 0. 0. 0. 8. 31. 19. 22. 32. 25. 5.
      3. 22. 137. 137. 24. 25. 24. 2. 4. 117. 137. 46. 0. 0. 1. 1. 10.
      6. 0. 0. 0. 0. 0. 0. 1. 7. 30. 57. 33. 39. 21. 0. 4. 61. 25. 18.
      12. 20. 53. 58. 129. 137. 34. 2. 0. 0. 5. 34. 137. 19. 0. 0. 0. 0.
      0. 0. 9. 13. 18. 60. 13. 1. 1. 59. 137. 56. 5. 7. 3. 0. 0. 30.
      137. 11. 0. 0. 0. 0. 0. 23. 104. 1. 0. 0. 0. 0. 0. 0. 3.</_>
    <_>
      3. 9. 8. 7. 8. 32. 28. 1. 4. 5. 5. 1. 0. 70. 82. 5. 112. 37. 1. 0.
      0. 15. 61. 106. 121. 28. 0. 0. 0. 0. 1. 43. 7. 9. 6. 11. 17. 25.
      45. 8. 28. 32. 55. 53. 36. 9. 13. 5. 142. 58. 18. 4. 1. 2. 18.
      105. 52. 0. 0. 0. 0. 0. 2. 72. 0. 1. 56. 110. 26. 13. 13. 0. 81.
      10. 16. 122. 61. 2. 0. 19. 142. 20. 3. 4. 2. 0. 0. 66. 61. 1. 0.
      0. 0. 0. 0. 10. 0. 1. 59. 61. 1. 2. 8. 8. 83. 1. 10. 33. 0. 0. 4.
      140. 142. 0. 0. 0. 0. 0. 0. 142. 20. 0. 0. 0. 0. 0. 0. 9.</_>
    <_>
      1. 7. 22. 9. 1. 62. 68. 1. 124. 117. 8. 0. 0. 19. 50. 45. 141. 90.
      0. 0. 0. 0. 1. 23. 8. 2. 0. 0. 0. 0. 0. 1. 7. 15. 28. 19. 7. 26.
      36. 4. 127. 40. 18. 4. 0. 11. 57. 141. 123. 8. 0. 0. 0. 0. 6. 141.
      9. 1. 0. 0. 0. 0. 0. 5. 22. 13. 22. 86. 72. 5. 3. 2. 141. 62. 16.
      13. 7. 0. 0. 30. 131. 3. 0. 0. 0. 0. 0. 29. 0. 0. 0. 0. 0. 1. 0.
      1. 39. 1. 16. 77. 10. 0. 1. 40. 141. 1. 1. 3. 1. 0. 0. 133. 73. 0.
      0. 0. 0. 0. 0. 22. 0. 0. 0. 0. 0. 0. 0. 0.</_>
    <_>
      0. 0. 23. 138. 35. 0. 0. 0. 6. 9. 131. 138. 3. 0. 0. 1. 11. 17.
      61. 62. 0. 0. 1. 3. 10. 12. 27. 26. 9. 12. 20. 13. 3. 2. 8. 138.
      138. 1. 0. 0. 81. 25. 39. 67. 27. 0. 0. 14. 26. 21. 39. 59. 16. 0.
      0. 9. 5. 22. 114. 78. 5. 1. 1. 2. 2. 3. 1. 14. 138. 66. 0. 0. 39.
      60. 43. 14. 53. 13. 0. 1. 5. 13. 59. 116. 10. 0. 0. 1. 0. 0. 32.
      60. 2. 0. 0. 0. 0. 0. 0. 0. 138. 138. 0. 0. 0. 5. 18. 5. 78. 117.
      0. 0. 0. 1. 22. 25. 3. 5. 0. 0. 0. 0. 3. 10. 1. 0. 0. 0.</_>
    <_>
      3. 23. 115. 3. 0. 0. 0. 3. 3. 113. 135. 0. 0. 0. 7. 12. 7. 135.
      92. 0. 0. 1. 5. 2. 29. 135. 8. 0. 0. 0. 0. 0. 31. 2. 1. 0. 0. 0.
      0. 18. 49. 7. 1. 0. 1. 14. 39. 80. 35. 90. 3. 0. 6. 67. 38. 14.
      135. 135. 0. 0. 0. 3. 2. 15. 53. 1. 0. 0. 0. 0. 0. 23. 118. 19. 0.
      0. 2. 6. 8. 49. 33. 6. 0. 0. 16. 60. 24. 46. 135. 7. 0. 0. 0. 5.
      7. 124. 63. 1. 0. 0. 0. 0. 0. 44. 59. 4. 1. 3. 5. 9. 31. 100. 36.
      1. 1. 3. 6. 14. 21. 47. 126. 2. 0. 0. 0. 0. 2. 66.</_>
    <_>
      0. 0. 0. 0. 0. 0. 0. 0. 0. 0. 9. 14. 0. 0. 0. 0. 0. 0. 2. 5. 0. 0.
      0. 0. 0. 0. 0. 0. 0. 0. 0. 0. 0. 0. 1. 2. 12. 20. 0. 0. 36. 16.
      151. 151. 122. 114. 13. 12. 151. 57. 55. 80. 8. 11. 12. 42. 11. 3.
      0. 0. 0. 0. 0. 1. 0. 0. 0. 0. 37. 42. 0. 0. 27. 5. 11. 34. 151.
      151. 151. 64. 151. 41. 6. 7. 8. 47. 151. 136. 8. 4. 0. 0. 0. 0. 0.
      0. 0. 0. 0. 0. 0. 0. 0. 0. 0. 0. 0. 0. 2. 5. 32. 11. 0. 0. 0. 0.
      0. 2. 39. 11. 0. 0. 0. 0. 0. 0. 0. 0.</_>
    <_>
      13. 2. 0. 0. 0. 0. 0. 8. 81. 1. 0. 0. 0. 0. 3. 83. 50. 3. 0. 0. 9.
      59. 73. 102. 29. 35. 0. 0. 27. 99. 19. 4. 24. 0. 0. 0. 0. 0. 0.
      34. 125. 12. 0. 0. 0. 0. 6. 81. 125. 53. 2. 2. 29. 24. 10. 44. 14.
      3. 1. 2. 82. 84. 24. 57. 60. 0. 0. 0. 0. 0. 0. 67. 110. 1. 0. 1.
      3. 11. 81. 125. 36. 6. 0. 2. 26. 48. 92. 86. 71. 1. 0. 1. 14. 26.
      27. 90. 111. 3. 0. 0. 0. 4. 6. 38. 125. 49. 25. 28. 11. 8. 14. 83.
      22. 11. 27. 72. 55. 27. 16. 24. 67. 2. 1. 1. 3. 2. 17. 125.</_>
    <_>
      78. 16. 5. 3. 0. 0. 5. 39. 50. 32. 7. 1. 0. 20. 112. 64. 43. 17.
      5. 1. 1. 67. 105. 19. 129. 129. 2. 0. 0. 3. 11. 16. 58. 90. 2. 0.
      0. 0. 0. 1. 53. 129. 57. 1. 0. 3. 4. 6. 55. 64. 32. 2. 1. 23. 32.
      33. 59. 64. 3. 0. 1. 10. 21. 18. 22. 38. 1. 0. 0. 0. 0. 0. 129.
      109. 6. 0. 0. 0. 0. 11. 129. 90. 6. 2. 6. 21. 39. 115. 22. 25. 9.
      16. 61. 56. 30. 15. 11. 8. 0. 0. 0. 0. 1. 1. 57. 80. 0. 0. 0. 0.
      0. 0. 79. 129. 36. 6. 5. 3. 1. 4. 22. 61. 57. 58. 59. 7. 1. 14.</_>
    <_>
      27. 0. 0. 0. 0. 0. 0. 12. 86. 26. 0. 0. 0. 0. 6. 45. 40. 30. 2. 1.
      13. 21. 12. 24. 59. 2. 0. 0. 9. 24. 15. 69. 57. 0. 0. 0. 0. 0. 0.
      23. 132. 8. 1. 2. 3. 7. 33. 132. 21. 3. 1. 12. 33. 43. 51. 50. 86.
      8. 0. 1. 4. 5. 7. 71. 63. 3. 0. 0. 0. 6. 15. 10. 132. 87. 24. 18.
      4. 2. 3. 16. 35. 27. 39. 91. 31. 8. 5. 39. 121. 6. 3. 3. 2. 0. 2.
      132. 9. 1. 0. 0. 0. 67. 132. 8. 34. 30. 11. 3. 0. 5. 132. 73. 9.
      6. 14. 12. 0. 0. 126. 132. 31. 0. 0. 0. 0. 0. 18. 132.</_>
    <_>
      31. 36. 6. 0. 0. 3. 24. 18. 72. 145. 10. 0. 0. 0. 2. 5. 77. 65. 2.
      0. 0. 0. 0. 1. 2. 0. 0. 0. 0. 0. 0. 0. 84. 68. 11. 2. 3. 6. 11.
      26. 75. 82. 11. 15. 32. 18. 12. 10. 145. 130. 1. 1. 1. 0. 0. 6.
      30. 4. 0. 0. 0. 0. 0. 1. 31. 145. 39. 3. 1. 1. 0. 3. 113. 65. 69.
      29. 20. 3. 0. 60. 145. 12. 1. 2. 1. 0. 0. 128. 32. 1. 0. 0. 0. 0.
      0. 9. 8. 19. 3. 0. 0. 0. 29. 103. 73. 15. 6. 0. 0. 0. 18. 145. 86.
      0. 0. 0. 0. 0. 0. 145. 4. 0. 0. 0. 0. 0. 0. 3.</_>
    <_>
      12. 70. 93. 1. 0. 0. 0. 4. 10. 137. 70. 2. 2. 1. 1. 1. 37. 136. 6.
      0. 0. 0. 0. 0. 2. 2. 0. 0. 0. 0. 0. 0. 14. 77. 89. 3. 0. 1. 0. 4.
      60. 116. 105. 36. 8. 2. 1. 3. 137. 137. 8. 3. 0. 0. 0. 4. 9. 5. 0.
      0. 0. 0. 0. 0. 3. 27. 57. 0. 0. 0. 0. 2. 137. 33. 61. 5. 0. 0. 0.
      74. 137. 17. 2. 0. 0. 0. 0. 98. 3. 0. 0. 0. 0. 0. 0. 0. 4. 1. 1.
      0. 0. 5. 61. 46. 99. 0. 0. 0. 0. 0. 20. 137. 85. 0. 0. 0. 0. 0. 0.
      137. 0. 0. 0. 0. 0. 0. 0. 0.</_>
    <_>
      22. 91. 52. 22. 7. 1. 0. 0. 50. 131. 7. 0. 0. 0. 0. 0. 81. 131. 0.
      0. 0. 0. 0. 0. 6. 5. 0. 0. 0. 0. 0. 0. 71. 41. 11. 9. 16. 37. 41.
      26. 95. 96. 39. 11. 0. 0. 12. 18. 131. 131. 4. 1. 0. 0. 1. 24. 36.
      8. 0. 0. 0. 0. 0. 1. 3. 1. 1. 0. 2. 30. 112. 30. 41. 5. 7. 2. 0.
      0. 114. 131. 131. 5. 0. 0. 0. 0. 7. 131. 30. 0. 0. 0. 0. 0. 0. 9.
      0. 0. 0. 0. 0. 40. 131. 17. 13. 0. 0. 0. 0. 2. 94. 131. 36. 0. 0.
      0. 0. 0. 3. 110. 4. 0. 0. 0. 0. 0. 0. 3.</_>
    <_>
      0. 0. 118. 118. 8. 18. 14. 0. 10. 56. 129. 44. 17. 31. 3. 1. 79.
      129. 90. 1. 1. 1. 0. 2. 9. 129. 61. 1. 0. 0. 0. 0. 1. 6. 50. 19.
      15. 32. 32. 4. 30. 5. 14. 25. 85. 71. 7. 5. 129. 33. 6. 3. 8. 6.
      3. 14. 45. 65. 36. 8. 3. 5. 10. 11. 10. 27. 129. 61. 5. 1. 1. 3.
      68. 47. 76. 28. 24. 1. 5. 31. 129. 51. 3. 1. 3. 1. 7. 26. 50. 52.
      6. 0. 0. 3. 10. 16. 24. 11. 35. 21. 9. 32. 72. 69. 89. 15. 6. 1.
      4. 2. 14. 129. 23. 27. 1. 2. 10. 5. 9. 20. 99. 37. 2. 0. 0. 0. 0.
      37.</_>
    <_>
      17. 15. 10. 35. 51. 6. 3. 38. 129. 117. 3. 1. 2. 0. 1. 76. 129.
      118. 0. 0. 0. 0. 0. 2. 10. 8. 0. 0. 0. 0. 0. 0. 27. 1. 3. 13. 4.
      4. 11. 129. 94. 55. 12. 3. 4. 8. 5. 114. 129. 100. 2. 0. 0. 0. 1.
      12. 43. 7. 0. 0. 0. 0. 0. 2. 94. 12. 0. 0. 1. 4. 6. 61. 51. 9. 3.
      2. 4. 15. 31. 100. 129. 9. 0. 0. 0. 0. 5. 129. 32. 0. 0. 0. 0. 0.
      0. 10. 28. 2. 0. 0. 0. 0. 53. 129. 12. 0. 0. 0. 0. 0. 64. 129. 37.
      0. 0. 0. 0. 0. 7. 124. 4. 0. 0. 0. 0. 0. 0. 4.</_>
    <_>
      0. 0. 6. 9. 0. 0. 0. 0. 0. 1. 32. 15. 0. 0. 0. 0. 0. 1. 7. 1. 0.
      0. 0. 0. 0. 0. 0. 0. 0. 0. 0. 0. 0. 0. 83. 137. 1. 0. 0. 0. 13.
      54. 137. 107. 0. 0. 0. 0. 84. 93. 45. 1. 0. 0. 0. 1. 8. 1. 0. 0.
      0. 0. 0. 1. 2. 6. 73. 137. 69. 9. 2. 4. 137. 75. 113. 52. 4. 2. 2.
      55. 137. 41. 5. 0. 0. 0. 0. 79. 26. 1. 0. 0. 0. 0. 0. 6. 3. 1. 1.
      19. 81. 112. 48. 22. 105. 4. 1. 2. 3. 12. 40. 137. 104. 0. 0. 0.
      0. 0. 0. 137. 5. 0. 0. 0. 0. 0. 0. 4.</_>
    <_>
      0. 0. 0. 0. 0. 0. 0. 0. 0. 6. 7. 6. 3. 0. 0. 0. 1. 35. 9. 1. 0. 0.
      0. 0. 0. 1. 0. 0. 0. 0. 0. 0. 0. 0. 0. 10. 23. 1. 0. 0. 10. 56.
      86. 157. 157. 45. 3. 4. 157. 157. 102. 45. 22. 12. 5. 20. 28. 18.
      0. 0. 0. 0. 0. 2. 0. 0. 0. 2. 12. 7. 0. 0. 13. 9. 7. 33. 157. 157.
      55. 22. 157. 53. 8. 9. 25. 112. 80. 157. 62. 3. 0. 0. 0. 0. 0. 13.
      0. 0. 0. 0. 0. 0. 0. 0. 0. 0. 0. 0. 4. 51. 7. 1. 11. 0. 0. 0. 1.
      19. 10. 11. 3. 0. 0. 0. 0. 0. 0. 0.</_>
    <_>
      0. 0. 0. 2. 0. 0. 0. 0. 0. 2. 10. 64. 5. 0. 0. 0. 13. 12. 11. 16.
      1. 0. 0. 0. 2. 0. 0. 0. 0. 0. 0. 0. 0. 0. 0. 17. 28. 3. 0. 0. 28.
      36. 66. 158. 158. 39. 9. 14. 158. 158. 67. 78. 15. 7. 8. 53. 37.
      9. 0. 0. 0. 0. 0. 1. 0. 0. 0. 2. 43. 14. 0. 0. 19. 5. 3. 40. 158.
      158. 103. 84. 158. 17. 3. 7. 12. 29. 92. 158. 13. 1. 0. 0. 0. 0.
      0. 6. 0. 0. 0. 0. 0. 0. 0. 0. 0. 0. 0. 0. 2. 5. 7. 8. 0. 0. 0. 0.
      0. 1. 8. 28. 0. 0. 0. 0. 0. 0. 0. 0.</_>
    <_>
      0. 0. 0. 0. 2. 0. 0. 0. 1. 22. 12. 8. 8. 0. 0. 0. 1. 50. 9. 1. 0.
      0. 0. 0. 0. 0. 0. 0. 0. 0. 0. 0. 0. 0. 0. 9. 69. 4. 0. 0. 22. 121.
      88. 148. 155. 56. 8. 8. 155. 155. 61. 19. 11. 9. 7. 30. 13. 6. 0.
      0. 0. 0. 0. 2. 0. 0. 0. 1. 30. 17. 1. 0. 21. 13. 5. 18. 155. 155.
      111. 41. 155. 48. 4. 3. 9. 59. 91. 155. 27. 1. 0. 0. 0. 0. 0. 8.
      0. 0. 0. 0. 0. 1. 0. 0. 0. 0. 0. 0. 0. 37. 12. 1. 2. 0. 0. 0. 0.
      7. 8. 5. 0. 0. 0. 0. 0. 0. 0. 0.</_>
    <_>
      0. 0. 44. 101. 21. 0. 0. 0. 0. 32. 108. 60. 1. 0. 0. 0. 7. 116.
      53. 1. 0. 0. 0. 0. 18. 116. 2. 0. 0. 0. 0. 0. 0. 0. 23. 88. 67.
      19. 7. 8. 3. 22. 74. 54. 32. 34. 7. 5. 90. 116. 42. 5. 3. 5. 3.
      11. 101. 116. 0. 0. 0. 0. 0. 2. 0. 0. 0. 3. 38. 116. 40. 13. 3. 3.
      3. 4. 26. 116. 78. 14. 84. 18. 4. 1. 3. 24. 64. 76. 91. 60. 3. 0.
      0. 0. 0. 9. 0. 0. 0. 0. 1. 116. 36. 0. 0. 0. 0. 0. 0. 116. 113. 0.
      2. 2. 1. 0. 0. 52. 115. 10. 35. 5. 1. 0. 0. 2. 49. 62.</_>
    <_>
      0. 0. 0. 76. 87. 0. 0. 0. 0. 3. 18. 74. 40. 3. 0. 0. 33. 88. 20.
      8. 4. 1. 0. 0. 73. 102. 0. 0. 0. 0. 0. 0. 0. 0. 1. 86. 118. 1. 0.
      0. 6. 16. 46. 118. 70. 11. 1. 2. 84. 110. 40. 19. 4. 2. 1. 9. 118.
      94. 0. 0. 0. 0. 0. 0. 0. 0. 0. 15. 118. 28. 0. 0. 8. 2. 2. 18. 93.
      86. 25. 12. 93. 28. 14. 2. 4. 22. 24. 43. 118. 46. 9. 0. 0. 0. 1.
      17. 0. 0. 0. 0. 78. 117. 7. 0. 0. 0. 0. 0. 13. 86. 79. 2. 6. 5. 5.
      0. 0. 32. 99. 45. 84. 4. 3. 0. 0. 1. 23. 118.</_>
    <_>
      1. 6. 17. 53. 32. 38. 12. 2. 40. 70. 14. 7. 7. 7. 1. 11. 12. 53.
      54. 1. 1. 2. 2. 6. 74. 86. 16. 0. 0. 0. 0. 1. 14. 25. 59. 125. 24.
      1. 1. 4. 125. 102. 34. 16. 1. 1. 2. 20. 45. 9. 2. 0. 9. 21. 8. 19.
      125. 12. 1. 0. 1. 2. 2. 66. 14. 3. 3. 43. 54. 48. 91. 64. 125. 15.
      2. 2. 1. 1. 39. 125. 55. 7. 1. 0. 4. 4. 6. 74. 108. 0. 0. 0. 0. 1.
      2. 125. 1. 1. 1. 0. 4. 35. 125. 45. 4. 0. 0. 0. 2. 12. 96. 80. 23.
      0. 0. 0. 0. 1. 13. 125. 52. 0. 0. 0. 0. 0. 0. 125.</_>
    <_>
      0. 28. 133. 65. 1. 0. 0. 0. 11. 133. 110. 5. 0. 0. 0. 0. 32. 88.
      5. 0. 0. 0. 0. 0. 3. 1. 0. 0. 0. 0. 0. 0. 5. 85. 57. 47. 19. 17.
      4. 0. 63. 133. 41. 1. 0. 0. 0. 3. 133. 133. 2. 0. 0. 0. 0. 5. 19.
      4. 0. 0. 0. 0. 0. 0. 42. 32. 21. 73. 55. 26. 24. 29. 133. 44. 7.
      1. 0. 0. 5. 110. 133. 15. 0. 0. 0. 0. 0. 106. 21. 0. 0. 0. 0. 0.
      0. 5. 11. 0. 0. 1. 14. 31. 84. 66. 60. 0. 0. 0. 0. 0. 26. 133. 69.
      0. 0. 0. 0. 0. 0. 121. 3. 0. 0. 0. 0. 0. 0. 2.</_>
    <_>
      5. 125. 159. 1. 1. 4. 2. 0. 46. 159. 106. 0. 0. 0. 0. 2. 32. 72.
      15. 0. 0. 0. 0. 5. 6. 7. 0. 0. 0. 0. 0. 0. 35. 36. 24. 1. 1. 29.
      44. 14. 159. 87. 8. 0. 0. 2. 7. 39. 127. 19. 0. 0. 0. 0. 1. 68.
      11. 2. 0. 0. 0. 0. 0. 9. 31. 25. 4. 0. 1. 10. 16. 9. 159. 21. 1.
      0. 0. 3. 4. 18. 159. 13. 0. 0. 0. 0. 1. 14. 2. 0. 0. 0. 0. 0. 1.
      3. 32. 85. 14. 0. 0. 0. 0. 1. 159. 26. 0. 0. 0. 0. 0. 7. 159. 4.
      0. 0. 0. 0. 0. 2. 3. 0. 0. 0. 0. 0. 0. 0.</_>
    <_>
      1. 140. 140. 3. 0. 0. 0. 0. 23. 140. 40. 0. 0. 0. 0. 0. 9. 19. 0.
      0. 0. 0. 0. 0. 0. 0. 0. 0. 0. 0. 0. 0. 54. 92. 83. 21. 0. 0. 0.
      14. 140. 140. 11. 0. 0. 0. 0. 20. 91. 29. 0. 0. 0. 0. 0. 1. 0. 1.
      1. 0. 0. 0. 0. 0. 52. 3. 2. 5. 1. 1. 30. 140. 140. 21. 1. 0. 0. 0.
      9. 117. 116. 13. 0. 0. 0. 0. 0. 6. 1. 1. 0. 0. 0. 0. 0. 0. 13. 1.
      1. 4. 22. 19. 72. 135. 114. 99. 12. 12. 29. 11. 11. 28. 104. 51.
      0. 0. 0. 0. 0. 5. 1. 0. 0. 0. 0. 0. 0. 0.</_>
    <_>
      0. 1. 58. 54. 38. 23. 0. 0. 0. 38. 146. 10. 10. 38. 14. 0. 59.
      146. 119. 0. 0. 5. 10. 7. 119. 128. 22. 0. 0. 0. 0. 13. 2. 17. 48.
      18. 10. 9. 0. 0. 13. 8. 3. 2. 4. 38. 40. 7. 132. 13. 0. 0. 0. 21.
      49. 31. 146. 17. 0. 0. 0. 0. 0. 34. 5. 69. 28. 0. 0. 0. 0. 0. 29.
      81. 10. 0. 0. 2. 3. 3. 100. 25. 6. 0. 1. 8. 7. 13. 146. 17. 0. 0.
      0. 0. 0. 9. 0. 48. 50. 0. 0. 0. 0. 0. 5. 124. 35. 0. 0. 0. 0. 0.
      110. 83. 6. 0. 0. 0. 0. 3. 146. 10. 0. 0. 0. 0. 0. 5.</_>
    <_>
      0. 11. 125. 69. 6. 0. 0. 0. 0. 2. 125. 125. 0. 0. 0. 0. 0. 0. 125.
      125. 1. 0. 0. 0. 0. 0. 117. 125. 2. 0. 0. 0. 5. 5. 98. 125. 94. 0.
      0. 0. 39. 21. 125. 65. 0. 0. 0. 3. 7. 3. 41. 46. 24. 1. 1. 3. 0.
      0. 10. 97. 58. 0. 0. 0. 22. 3. 3. 28. 125. 28. 1. 9. 75. 13. 9. 7.
      4. 2. 1. 16. 4. 3. 13. 65. 25. 1. 0. 1. 0. 0. 0. 51. 92. 1. 0. 0.
      5. 0. 0. 0. 125. 97. 9. 20. 10. 0. 0. 2. 13. 25. 18. 38. 0. 0. 1.
      25. 51. 17. 1. 0. 0. 0. 0. 14. 62. 6. 0. 0.</_>
    <_>
      15. 115. 127. 8. 3. 0. 0. 0. 13. 128. 107. 0. 0. 0. 0. 0. 48. 128.
      24. 0. 0. 0. 0. 0. 4. 3. 0. 0. 0. 0. 0. 0. 69. 19. 2. 3. 6. 2. 3.
      42. 70. 80. 22. 3. 4. 6. 11. 28. 128. 102. 7. 1. 0. 0. 2. 22. 25.
      4. 0. 0. 0. 0. 0. 1. 16. 0. 0. 0. 1. 6. 128. 128. 21. 1. 0. 0. 2.
      8. 128. 128. 128. 3. 0. 0. 0. 1. 55. 128. 20. 0. 0. 0. 0. 0. 0. 7.
      0. 0. 0. 0. 0. 3. 128. 52. 0. 0. 0. 0. 0. 1. 109. 48. 4. 0. 0. 0.
      0. 1. 34. 32. 1. 0. 0. 0. 0. 0. 0. 3.</_>
    <_>
      0. 0. 0. 1. 0. 0. 0. 0. 0. 1. 4. 35. 4. 0. 0. 0. 9. 6. 5. 9. 1. 0.
      0. 0. 2. 0. 0. 0. 0. 0. 0. 0. 0. 0. 0. 12. 13. 1. 0. 0. 19. 28.
      54. 153. 153. 30. 12. 13. 153. 132. 58. 75. 14. 6. 11. 66. 55. 5.
      0. 0. 0. 0. 0. 4. 0. 0. 0. 2. 28. 11. 0. 0. 13. 4. 3. 40. 153.
      153. 153. 86. 153. 14. 4. 8. 11. 22. 138. 153. 24. 1. 0. 0. 0. 0.
      1. 20. 0. 0. 0. 0. 2. 1. 0. 0. 0. 0. 0. 0. 4. 9. 18. 15. 0. 0. 0.
      0. 0. 0. 17. 39. 0. 0. 0. 0. 0. 0. 0. 2.</_>
    <_>
      0. 0. 0. 0. 0. 0. 0. 0. 0. 27. 20. 1. 0. 0. 0. 0. 0. 47. 19. 0. 0.
      0. 0. 0. 0. 0. 0. 0. 0. 0. 0. 0. 0. 0. 0. 0. 36. 12. 0. 0. 18.
      126. 124. 82. 150. 79. 9. 9. 150. 150. 95. 15. 9. 10. 8. 33. 38.
      13. 0. 0. 0. 0. 0. 2. 0. 0. 0. 0. 30. 12. 0. 0. 19. 12. 6. 14.
      150. 150. 122. 41. 150. 50. 5. 4. 8. 65. 113. 150. 49. 4. 0. 0. 0.
      0. 0. 5. 0. 0. 0. 0. 0. 0. 0. 0. 0. 0. 0. 0. 0. 20. 22. 2. 5. 0.
      0. 0. 0. 13. 24. 10. 0. 0. 0. 0. 0. 0. 0. 0.</_>
    <_>
      0. 0. 0. 0. 0. 0. 0. 0. 0. 1. 31. 8. 0. 0. 0. 0. 3. 8. 34. 8. 0.
      0. 0. 0. 0. 0. 0. 0. 0. 0. 0. 0. 0. 0. 0. 11. 9. 0. 0. 0. 26. 48.
      160. 160. 76. 1. 0. 10. 160. 160. 160. 61. 4. 0. 0. 37. 64. 5. 0.
      0. 0. 0. 0. 7. 0. 0. 0. 12. 9. 0. 0. 0. 51. 14. 15. 160. 100. 6.
      6. 132. 160. 44. 12. 17. 6. 2. 3. 160. 42. 4. 0. 0. 0. 0. 0. 2. 0.
      0. 0. 0. 0. 0. 0. 0. 2. 0. 0. 0. 0. 0. 0. 13. 8. 0. 0. 0. 0. 0. 0.
      27. 0. 0. 0. 0. 0. 0. 0. 0.</_>
    <_>
      1. 30. 68. 8. 0. 0. 0. 0. 4. 27. 73. 51. 6. 0. 0. 0. 160. 17. 15.
      19. 3. 0. 0. 31. 65. 0. 0. 0. 0. 0. 0. 24. 0. 7. 47. 15. 10. 7. 2.
      1. 39. 39. 101. 75. 45. 6. 0. 0. 162. 69. 27. 10. 3. 0. 0. 16. 90.
      0. 0. 0. 0. 0. 0. 11. 0. 0. 0. 1. 29. 14. 6. 4. 70. 5. 2. 10. 149.
      30. 2. 24. 162. 12. 1. 1. 10. 4. 1. 89. 81. 0. 0. 0. 0. 0. 0. 14.
      0. 0. 0. 0. 13. 16. 68. 4. 29. 0. 0. 1. 44. 40. 91. 97. 162. 0. 0.
      0. 2. 2. 12. 162. 30. 0. 0. 0. 0. 0. 0. 18.</_>
    <_>
      2. 34. 35. 44. 52. 15. 5. 2. 130. 82. 24. 24. 21. 14. 14. 24. 119.
      70. 0. 0. 0. 7. 6. 4. 4. 1. 0. 0. 0. 30. 9. 1. 0. 130. 76. 2. 9.
      10. 6. 1. 78. 95. 47. 3. 4. 10. 16. 17. 130. 88. 2. 0. 0. 2. 3.
      16. 25. 1. 0. 0. 0. 40. 10. 9. 44. 110. 34. 1. 1. 1. 1. 20. 130.
      81. 21. 0. 0. 0. 0. 45. 130. 77. 39. 0. 0. 0. 1. 39. 35. 49. 29.
      0. 1. 18. 6. 7. 64. 2. 0. 0. 1. 1. 2. 69. 105. 27. 10. 0. 0. 0. 2.
      56. 79. 89. 87. 0. 0. 0. 2. 32. 128. 52. 21. 0. 0. 1. 2. 47.</_>
    <_>
      130. 111. 11. 7. 1. 0. 0. 0. 124. 54. 25. 9. 1. 5. 9. 7. 4. 15.
      20. 5. 1. 18. 24. 2. 1. 0. 0. 0. 0. 25. 32. 1. 139. 60. 17. 3. 0.
      0. 0. 14. 112. 100. 139. 82. 0. 0. 0. 1. 139. 125. 73. 18. 0. 1.
      4. 7. 25. 3. 0. 0. 0. 16. 24. 7. 73. 39. 35. 7. 0. 0. 2. 21. 86.
      23. 73. 53. 0. 0. 7. 40. 139. 27. 8. 4. 0. 0. 0. 80. 41. 0. 0. 0.
      0. 3. 4. 10. 28. 23. 9. 0. 0. 0. 11. 62. 71. 18. 15. 2. 0. 0. 33.
      70. 139. 33. 1. 0. 0. 0. 1. 56. 23. 2. 0. 0. 0. 0. 0. 4.</_>
    <_>
      140. 8. 6. 1. 1. 4. 18. 128. 21. 3. 5. 12. 14. 50. 55. 34. 0. 5.
      6. 4. 2. 4. 4. 0. 0. 0. 0. 0. 0. 0. 0. 0. 140. 3. 0. 7. 8. 2. 1.
      68. 50. 21. 32. 140. 122. 25. 5. 8. 115. 89. 43. 40. 14. 5. 3. 14.
      16. 1. 0. 0. 0. 0. 0. 1. 140. 0. 0. 2. 8. 11. 8. 138. 29. 4. 2.
      29. 95. 140. 85. 32. 133. 17. 3. 7. 11. 48. 60. 59. 20. 1. 0. 0.
      0. 0. 0. 1. 38. 0. 0. 0. 0. 1. 21. 140. 4. 0. 0. 0. 0. 36. 25. 18.
      0. 0. 0. 0. 0. 11. 9. 1. 0. 0. 0. 0. 0. 0. 0. 0.</_>
    <_>
      0. 0. 0. 0. 0. 0. 0. 0. 0. 7. 42. 3. 1. 0. 0. 0. 0. 11. 44. 49.
      131. 13. 0. 0. 0. 0. 1. 67. 131. 44. 0. 0. 0. 0. 0. 1. 7. 6. 0. 0.
      13. 40. 131. 52. 74. 41. 3. 3. 116. 131. 117. 18. 58. 30. 3. 12.
      11. 4. 1. 6. 131. 131. 0. 1. 0. 0. 0. 0. 12. 12. 0. 0. 15. 6. 5.
      10. 96. 131. 46. 20. 131. 33. 18. 5. 11. 34. 47. 79. 21. 10. 21.
      28. 131. 123. 0. 2. 0. 0. 0. 0. 0. 0. 0. 0. 0. 0. 0. 0. 0. 4. 6.
      1. 5. 8. 25. 5. 0. 1. 8. 5. 1. 5. 44. 56. 58. 12. 12. 2.</_>
    <_>
      46. 136. 27. 0. 1. 7. 1. 1. 35. 136. 21. 0. 2. 5. 1. 0. 25. 51. 7.
      0. 3. 20. 47. 27. 3. 1. 0. 0. 0. 0. 30. 33. 93. 34. 2. 2. 15. 28.
      6. 15. 85. 136. 59. 3. 1. 0. 0. 5. 136. 136. 15. 0. 0. 0. 0. 3.
      24. 7. 0. 0. 0. 0. 0. 1. 62. 9. 6. 21. 20. 13. 8. 9. 112. 30. 19.
      5. 4. 1. 1. 39. 136. 28. 2. 0. 0. 0. 0. 68. 37. 2. 0. 0. 0. 0. 0.
      4. 10. 9. 5. 2. 1. 128. 76. 6. 90. 18. 8. 0. 0. 10. 45. 136. 136.
      1. 0. 0. 0. 0. 1. 136. 10. 0. 0. 0. 0. 0. 0. 5.</_>
    <_>
      0. 0. 36. 17. 0. 0. 0. 0. 0. 13. 77. 5. 0. 0. 0. 0. 0. 20. 16. 0.
      0. 0. 0. 0. 0. 1. 0. 0. 0. 0. 0. 0. 0. 0. 148. 148. 20. 0. 0. 0.
      13. 102. 148. 47. 2. 0. 0. 0. 104. 148. 66. 1. 0. 0. 0. 2. 15. 11.
      0. 0. 0. 0. 0. 0. 1. 1. 44. 143. 62. 0. 1. 2. 94. 28. 53. 47. 6.
      3. 7. 19. 148. 76. 6. 1. 0. 0. 0. 58. 39. 8. 0. 0. 0. 0. 0. 4. 23.
      13. 27. 51. 16. 1. 4. 13. 65. 39. 33. 21. 6. 10. 16. 14. 148. 148.
      2. 2. 0. 0. 0. 10. 21. 82. 0. 0. 0. 0. 0. 1.</_>
    <_>
      0. 1. 90. 96. 0. 0. 0. 0. 7. 15. 118. 47. 0. 0. 0. 4. 2. 1. 3. 1.
      0. 0. 1. 3. 0. 0. 0. 0. 0. 0. 0. 0. 20. 7. 140. 146. 4. 1. 2. 3.
      146. 45. 105. 38. 1. 1. 11. 68. 37. 6. 8. 19. 12. 8. 30. 39. 2. 3.
      4. 3. 0. 0. 0. 0. 26. 1. 7. 42. 19. 62. 45. 20. 146. 20. 1. 4. 6.
      4. 11. 53. 102. 21. 14. 54. 77. 53. 30. 17. 52. 22. 8. 7. 4. 8.
      10. 7. 7. 0. 0. 0. 34. 146. 53. 33. 146. 0. 0. 0. 1. 9. 36. 146.
      52. 0. 0. 0. 7. 50. 47. 54. 6. 1. 0. 0. 0. 10. 12. 3.</_>
    <_>
      9. 6. 15. 13. 3. 2. 0. 4. 89. 1. 1. 5. 16. 7. 1. 28. 166. 4. 0. 0.
      0. 0. 7. 155. 30. 2. 0. 0. 2. 53. 34. 40. 9. 1. 0. 0. 9. 15. 46.
      36. 133. 18. 0. 3. 35. 16. 6. 15. 166. 68. 0. 0. 0. 0. 0. 28. 61.
      15. 0. 5. 11. 6. 0. 4. 5. 5. 18. 42. 48. 24. 39. 22. 79. 3. 0. 11.
      43. 9. 19. 120. 166. 14. 0. 0. 0. 0. 1. 124. 66. 5. 0. 32. 38. 3.
      0. 10. 4. 4. 21. 21. 7. 3. 13. 52. 57. 23. 4. 4. 2. 0. 17. 99.
      166. 33. 0. 0. 0. 0. 0. 53. 49. 7. 0. 8. 26. 32. 12. 17.</_>
    <_>
      5. 0. 17. 29. 14. 1. 0. 2. 117. 5. 10. 10. 5. 0. 5. 143. 54. 9. 3.
      0. 0. 13. 88. 147. 1. 3. 1. 0. 1. 96. 52. 8. 22. 1. 0. 1. 27. 11.
      1. 5. 147. 11. 0. 0. 7. 2. 0. 80. 147. 11. 0. 0. 0. 5. 6. 56. 1.
      2. 0. 0. 9. 80. 8. 1. 15. 4. 0. 4. 37. 15. 6. 7. 147. 90. 1. 2.
      13. 2. 0. 15. 147. 58. 0. 0. 0. 0. 0. 8. 5. 4. 0. 11. 24. 4. 0. 2.
      3. 0. 0. 19. 40. 8. 9. 26. 147. 11. 0. 1. 6. 1. 5. 106. 147. 11.
      0. 1. 0. 0. 0. 28. 4. 1. 0. 46. 46. 2. 0. 4.</_>
    <_>
      1. 19. 142. 53. 3. 0. 0. 0. 99. 142. 99. 6. 1. 0. 0. 3. 70. 56. 1.
      0. 0. 0. 0. 1. 0. 0. 0. 0. 0. 0. 0. 0. 18. 5. 34. 45. 7. 2. 7. 6.
      142. 56. 7. 8. 2. 1. 2. 53. 142. 32. 0. 0. 0. 0. 0. 20. 1. 1. 0.
      0. 0. 0. 0. 0. 25. 17. 38. 19. 5. 9. 19. 18. 142. 142. 11. 10. 3.
      4. 4. 7. 90. 142. 1. 0. 0. 0. 0. 2. 6. 34. 0. 0. 0. 0. 0. 0. 8.
      11. 45. 13. 1. 1. 9. 13. 111. 59. 10. 5. 0. 0. 3. 45. 142. 135. 0.
      0. 0. 0. 0. 40. 62. 33. 0. 0. 0. 0. 0. 11.</_>
    <_>
      3. 16. 10. 5. 5. 2. 3. 1. 18. 16. 3. 0. 0. 22. 23. 15. 40. 47. 10.
      0. 5. 63. 19. 7. 101. 125. 21. 2. 1. 2. 1. 1. 23. 12. 5. 3. 15.
      12. 5. 3. 125. 20. 3. 2. 4. 14. 23. 85. 46. 5. 3. 17. 90. 99. 31.
      27. 125. 16. 8. 11. 27. 8. 0. 3. 15. 2. 0. 0. 4. 64. 33. 3. 101.
      85. 34. 13. 4. 11. 34. 26. 29. 25. 41. 90. 72. 18. 58. 13. 81. 37.
      15. 9. 16. 11. 13. 4. 0. 0. 0. 0. 0. 69. 94. 26. 2. 6. 3. 1. 0. 6.
      125. 125. 1. 2. 4. 3. 1. 88. 125. 71. 4. 9. 12. 1. 1. 125. 125. 5.</_>
    <_>
      0. 0. 103. 145. 0. 0. 0. 0. 9. 5. 145. 123. 1. 0. 0. 5. 58. 47.
      127. 8. 0. 0. 5. 96. 13. 16. 24. 2. 0. 13. 48. 58. 1. 2. 36. 85.
      3. 1. 0. 0. 71. 1. 8. 29. 16. 3. 0. 13. 145. 3. 1. 1. 0. 0. 5.
      138. 50. 2. 0. 0. 0. 33. 52. 62. 14. 7. 5. 5. 1. 2. 2. 8. 69. 11.
      0. 0. 12. 19. 3. 5. 145. 100. 0. 0. 1. 1. 0. 5. 81. 39. 0. 0. 1.
      3. 1. 2. 6. 0. 0. 1. 4. 9. 36. 43. 16. 7. 0. 1. 34. 20. 11. 10.
      145. 67. 0. 0. 5. 1. 1. 22. 122. 26. 0. 1. 2. 0. 0. 2.</_>
    <_>
      2. 9. 13. 30. 36. 14. 0. 0. 132. 138. 5. 1. 6. 3. 1. 1. 138. 138.
      0. 0. 0. 0. 0. 0. 10. 6. 0. 0. 0. 0. 0. 0. 0. 0. 2. 10. 13. 72.
      138. 0. 112. 40. 0. 1. 3. 68. 113. 16. 138. 96. 0. 0. 0. 3. 7. 30.
      44. 14. 1. 0. 0. 0. 0. 1. 0. 25. 18. 8. 5. 58. 138. 1. 24. 1. 2.
      17. 45. 138. 137. 30. 138. 2. 0. 0. 3. 18. 20. 70. 18. 2. 0. 0. 0.
      0. 0. 1. 25. 56. 26. 12. 5. 2. 11. 20. 1. 1. 3. 24. 28. 6. 1. 1.
      2. 0. 0. 0. 2. 1. 1. 1. 0. 0. 0. 0. 0. 0. 0. 0.</_>
    <_>
      0. 1. 66. 104. 18. 6. 0. 0. 99. 127. 35. 26. 12. 1. 0. 0. 136.
      116. 0. 0. 0. 0. 0. 1. 9. 3. 0. 0. 0. 0. 0. 0. 0. 0. 1. 8. 17.
      136. 121. 0. 106. 32. 0. 3. 11. 79. 108. 19. 136. 83. 0. 0. 0. 3.
      9. 31. 53. 9. 0. 0. 0. 0. 0. 1. 6. 40. 24. 13. 5. 84. 129. 2. 20.
      4. 2. 7. 35. 136. 136. 28. 136. 4. 0. 0. 3. 19. 23. 69. 26. 3. 0.
      0. 0. 0. 0. 1. 21. 35. 13. 8. 4. 7. 22. 14. 3. 5. 2. 7. 19. 7. 1.
      1. 2. 0. 0. 0. 1. 2. 1. 1. 0. 0. 0. 0. 0. 0. 0. 0.</_>
    <_>
      37. 3. 6. 1. 0. 0. 12. 72. 138. 24. 0. 0. 0. 0. 1. 54. 138. 35. 0.
      0. 0. 0. 0. 8. 6. 2. 0. 0. 0. 0. 0. 1. 5. 0. 0. 0. 0. 0. 42. 138.
      138. 37. 0. 0. 0. 0. 28. 119. 138. 78. 0. 0. 0. 0. 0. 25. 17. 4.
      0. 0. 0. 0. 0. 2. 0. 0. 0. 0. 0. 0. 120. 120. 26. 1. 0. 0. 0. 0.
      97. 138. 108. 3. 0. 0. 0. 0. 10. 138. 12. 0. 0. 0. 0. 0. 0. 6. 0.
      0. 0. 0. 0. 0. 138. 58. 0. 0. 0. 0. 0. 0. 86. 96. 1. 0. 0. 0. 0.
      0. 9. 41. 0. 0. 0. 0. 0. 0. 0. 1.</_>
    <_>
      60. 139. 9. 0. 0. 0. 0. 0. 10. 139. 22. 0. 0. 0. 0. 0. 1. 23. 7.
      0. 0. 0. 0. 0. 0. 1. 0. 0. 0. 0. 0. 0. 95. 139. 7. 0. 0. 0. 0. 7.
      47. 139. 71. 0. 0. 0. 0. 8. 71. 139. 19. 0. 0. 0. 0. 1. 10. 8. 0.
      0. 0. 0. 0. 0. 139. 8. 0. 0. 0. 0. 0. 45. 139. 36. 2. 0. 0. 0. 0.
      73. 139. 42. 0. 0. 0. 0. 0. 64. 27. 3. 0. 0. 0. 0. 0. 5. 90. 0. 0.
      0. 0. 1. 13. 92. 90. 0. 0. 0. 0. 0. 0. 139. 87. 0. 0. 0. 0. 0. 0.
      116. 6. 0. 0. 0. 0. 0. 0. 5.</_>
    <_>
      0. 35. 130. 130. 23. 0. 0. 0. 3. 33. 142. 50. 0. 0. 0. 2. 1. 61.
      142. 18. 2. 0. 1. 2. 0. 123. 142. 5. 0. 0. 0. 0. 11. 7. 67. 142.
      22. 11. 4. 2. 95. 21. 81. 13. 4. 5. 4. 30. 11. 11. 64. 40. 84. 45.
      4. 13. 3. 87. 128. 28. 20. 24. 3. 1. 8. 1. 1. 7. 19. 104. 64. 7.
      80. 25. 11. 3. 6. 19. 31. 24. 11. 20. 40. 14. 59. 67. 0. 1. 3. 4.
      3. 7. 48. 73. 5. 1. 0. 0. 2. 30. 26. 43. 15. 0. 1. 2. 7. 44. 43.
      19. 9. 1. 0. 12. 66. 38. 22. 1. 0. 0. 0. 2. 22. 39. 28. 3. 0. 0.</_>
    <_>
      31. 7. 0. 2. 17. 2. 2. 22. 31. 5. 0. 0. 0. 33. 44. 34. 9. 2. 0. 0.
      0. 26. 34. 64. 13. 3. 0. 0. 0. 0. 29. 60. 45. 28. 2. 2. 22. 52.
      18. 13. 132. 28. 1. 4. 9. 17. 16. 28. 13. 18. 15. 33. 49. 27. 15.
      10. 37. 100. 15. 6. 1. 0. 1. 14. 8. 1. 0. 0. 4. 132. 132. 23. 53.
      7. 11. 28. 10. 63. 60. 39. 4. 6. 12. 80. 68. 25. 34. 3. 48. 70.
      10. 8. 6. 3. 30. 43. 0. 0. 0. 0. 0. 132. 80. 0. 0. 0. 1. 3. 2.
      132. 132. 0. 0. 0. 0. 4. 9. 132. 132. 30. 7. 0. 0. 0. 0. 4. 132.
      132.</_>
    <_>
      0. 0. 0. 0. 0. 0. 0. 0. 0. 2. 42. 12. 0. 0. 0. 0. 1. 3. 29. 10. 0.
      0. 0. 0. 0. 0. 0. 0. 0. 0. 0. 0. 0. 0. 0. 7. 30. 2. 0. 0. 27. 44.
      147. 147. 147. 18. 10. 16. 147. 147. 147. 56. 8. 3. 7. 52. 37. 4.
      0. 0. 0. 0. 0. 3. 0. 0. 0. 8. 30. 1. 0. 0. 25. 9. 11. 69. 147. 57.
      128. 116. 147. 35. 9. 9. 10. 11. 109. 147. 21. 3. 0. 0. 0. 0. 0.
      1. 0. 0. 0. 0. 0. 0. 0. 0. 0. 0. 0. 0. 0. 0. 9. 11. 0. 0. 0. 0. 0.
      0. 12. 12. 0. 0. 0. 0. 0. 0. 0. 0.</_>
    <_>
      0. 33. 22. 4. 0. 0. 0. 0. 0. 1. 21. 31. 0. 0. 0. 0. 3. 7. 13. 7.
      0. 0. 0. 0. 1. 0. 0. 0. 0. 0. 0. 0. 0. 151. 141. 10. 0. 0. 0. 0.
      7. 58. 150. 102. 0. 0. 0. 0. 103. 64. 46. 14. 0. 0. 0. 4. 30. 2.
      0. 0. 0. 0. 0. 3. 2. 151. 76. 1. 1. 0. 0. 0. 96. 151. 113. 19. 0.
      0. 0. 3. 151. 31. 10. 2. 0. 0. 0. 42. 32. 0. 0. 0. 0. 0. 0. 10.
      14. 36. 2. 1. 2. 3. 1. 2. 151. 94. 1. 0. 0. 0. 0. 37. 151. 7. 0.
      0. 0. 0. 0. 62. 10. 0. 0. 0. 0. 0. 0. 4.</_>
    <_>
      4. 92. 145. 5. 6. 7. 1. 2. 52. 155. 56. 0. 0. 0. 0. 9. 36. 96. 3.
      0. 0. 0. 0. 5. 1. 5. 0. 0. 0. 0. 0. 0. 31. 17. 12. 7. 10. 14. 5.
      16. 155. 63. 3. 0. 0. 0. 2. 137. 98. 34. 0. 0. 0. 0. 9. 107. 2. 3.
      0. 0. 0. 0. 1. 3. 39. 46. 28. 6. 2. 7. 1. 2. 155. 81. 1. 0. 0. 0.
      0. 25. 146. 8. 0. 0. 0. 0. 4. 27. 0. 0. 0. 0. 0. 0. 1. 0. 23. 8.
      2. 1. 1. 61. 40. 33. 155. 15. 0. 0. 0. 1. 9. 148. 96. 1. 0. 0. 0.
      0. 0. 25. 0. 0. 0. 0. 0. 0. 0. 0.</_>
    <_>
      1. 1. 1. 2. 7. 19. 6. 1. 45. 4. 0. 0. 0. 12. 20. 61. 101. 26. 0.
      0. 0. 0. 18. 163. 59. 33. 0. 0. 0. 0. 25. 76. 9. 18. 10. 5. 1. 0.
      1. 1. 157. 13. 0. 0. 0. 0. 4. 34. 163. 5. 0. 0. 0. 0. 18. 124. 26.
      0. 0. 0. 0. 0. 59. 67. 4. 52. 25. 1. 0. 0. 0. 0. 163. 72. 3. 0. 0.
      0. 0. 0. 163. 16. 0. 0. 0. 0. 0. 7. 62. 0. 0. 0. 0. 0. 4. 7. 2.
      18. 9. 1. 1. 14. 6. 1. 163. 55. 2. 0. 0. 1. 2. 26. 163. 8. 0. 0.
      0. 0. 0. 61. 36. 0. 0. 0. 0. 0. 0. 9.</_>
    <_>
      0. 0. 0. 2. 1. 0. 0. 0. 0. 0. 0. 19. 9. 0. 0. 0. 1. 0. 0. 2. 1. 0.
      0. 0. 0. 0. 0. 0. 0. 0. 0. 0. 0. 0. 3. 41. 21. 16. 1. 0. 47. 17.
      14. 165. 165. 102. 19. 13. 165. 44. 8. 41. 17. 13. 14. 47. 10. 1.
      0. 0. 0. 0. 0. 0. 0. 0. 0. 5. 15. 80. 8. 0. 22. 3. 1. 33. 90. 165.
      165. 64. 146. 10. 1. 4. 6. 45. 165. 165. 3. 0. 0. 0. 0. 0. 0. 1.
      0. 0. 0. 0. 1. 4. 0. 0. 0. 0. 0. 0. 2. 21. 37. 8. 0. 0. 0. 0. 0.
      1. 42. 19. 0. 0. 0. 0. 0. 0. 0. 0.</_>
    <_>
      46. 44. 83. 84. 10. 1. 0. 1. 133. 133. 23. 0. 0. 0. 0. 7. 34. 133.
      24. 0. 0. 0. 0. 4. 5. 12. 13. 0. 0. 0. 0. 4. 80. 2. 0. 7. 10. 17.
      27. 26. 133. 22. 0. 0. 0. 0. 6. 53. 76. 41. 7. 0. 0. 0. 18. 83.
      31. 6. 3. 0. 0. 0. 1. 47. 19. 1. 0. 0. 0. 13. 132. 32. 133. 109.
      0. 0. 0. 5. 46. 37. 133. 102. 0. 0. 0. 0. 5. 50. 43. 2. 0. 0. 0.
      0. 0. 16. 0. 0. 0. 0. 0. 25. 133. 4. 16. 10. 0. 0. 0. 10. 133. 62.
      58. 12. 0. 0. 0. 0. 30. 110. 12. 0. 0. 0. 0. 0. 0. 8.</_>
    <_>
      9. 84. 33. 10. 1. 0. 0. 0. 1. 46. 77. 6. 0. 0. 0. 0. 0. 32. 20. 0.
      0. 0. 0. 0. 0. 0. 0. 0. 0. 0. 0. 0. 27. 78. 128. 32. 0. 0. 0. 0.
      22. 85. 138. 119. 0. 0. 0. 0. 101. 138. 44. 3. 0. 0. 0. 1. 5. 2.
      0. 0. 0. 0. 0. 0. 21. 99. 138. 14. 0. 0. 0. 4. 138. 42. 105. 47.
      0. 0. 0. 44. 138. 38. 5. 1. 0. 0. 0. 57. 28. 1. 0. 0. 0. 0. 0. 4.
      71. 25. 6. 0. 0. 1. 2. 30. 138. 11. 1. 0. 0. 0. 0. 70. 138. 0. 0.
      0. 0. 0. 0. 91. 19. 0. 0. 0. 0. 0. 0. 7.</_>
    <_>
      0. 0. 87. 113. 17. 19. 15. 0. 134. 81. 70. 42. 8. 13. 25. 38. 134.
      58. 1. 0. 0. 0. 0. 9. 9. 2. 0. 0. 0. 0. 0. 0. 0. 0. 0. 4. 7. 88.
      134. 3. 134. 11. 0. 0. 3. 48. 107. 62. 134. 63. 0. 0. 0. 0. 2. 25.
      21. 8. 0. 0. 0. 0. 0. 0. 0. 0. 0. 0. 25. 134. 83. 0. 32. 1. 0. 0.
      10. 102. 92. 78. 134. 6. 0. 0. 0. 1. 16. 93. 6. 1. 0. 0. 0. 0. 0.
      0. 0. 0. 0. 0. 17. 73. 21. 0. 0. 0. 0. 0. 3. 34. 113. 44. 2. 0. 0.
      0. 0. 0. 19. 26. 0. 0. 0. 0. 0. 0. 0. 0.</_>
    <_>
      0. 5. 121. 58. 0. 0. 0. 0. 9. 86. 121. 5. 0. 0. 0. 0. 5. 121. 66.
      0. 0. 0. 0. 0. 3. 54. 8. 0. 0. 0. 0. 0. 23. 36. 121. 26. 0. 1. 16.
      6. 121. 69. 49. 1. 0. 0. 1. 17. 47. 121. 42. 11. 2. 0. 0. 6. 83.
      121. 11. 1. 0. 0. 0. 5. 32. 14. 2. 0. 0. 5. 107. 28. 102. 21. 1.
      1. 0. 1. 50. 56. 35. 19. 7. 9. 4. 1. 28. 102. 121. 18. 1. 1. 0. 0.
      5. 117. 32. 63. 28. 0. 0. 0. 10. 5. 82. 53. 2. 0. 0. 0. 33. 64.
      37. 11. 0. 0. 0. 0. 64. 121. 10. 0. 0. 0. 0. 0. 14. 82.</_>
    <_>
      2. 34. 142. 113. 1. 0. 0. 0. 79. 142. 91. 6. 0. 0. 0. 0. 34. 24.
      0. 0. 0. 0. 0. 0. 0. 0. 0. 0. 0. 0. 0. 0. 18. 15. 38. 74. 28. 52.
      23. 17. 142. 109. 17. 5. 2. 5. 10. 80. 142. 26. 0. 0. 0. 0. 0. 7.
      0. 0. 0. 1. 1. 0. 0. 0. 6. 0. 0. 1. 8. 62. 102. 37. 142. 86. 1. 2.
      7. 12. 34. 73. 142. 72. 0. 0. 0. 0. 0. 4. 3. 1. 0. 0. 1. 0. 0. 0.
      0. 0. 0. 5. 40. 35. 37. 10. 122. 16. 0. 5. 19. 14. 17. 57. 142.
      12. 0. 0. 0. 0. 0. 31. 3. 0. 0. 0. 0. 0. 0. 0.</_>
    <_>
      20. 42. 42. 22. 14. 19. 7. 4. 128. 128. 8. 0. 0. 0. 1. 2. 50. 26.
      0. 0. 0. 0. 0. 1. 0. 0. 0. 0. 0. 0. 1. 1. 24. 27. 49. 18. 6. 11.
      3. 5. 128. 45. 11. 3. 0. 0. 1. 19. 95. 42. 58. 3. 0. 0. 0. 4. 1.
      24. 11. 0. 0. 0. 1. 1. 63. 31. 46. 7. 0. 0. 0. 71. 104. 75. 128.
      15. 0. 0. 0. 21. 17. 128. 128. 37. 0. 0. 0. 0. 14. 128. 53. 6. 0.
      0. 0. 0. 15. 9. 40. 36. 5. 0. 0. 33. 1. 24. 128. 65. 19. 0. 0. 1.
      3. 114. 128. 11. 2. 0. 0. 0. 7. 128. 110. 5. 0. 0. 0. 0.</_>
    <_>
      0. 2. 28. 5. 0. 0. 0. 0. 0. 1. 39. 20. 0. 0. 0. 0. 0. 1. 6. 2. 0.
      0. 0. 0. 0. 0. 0. 0. 0. 0. 0. 0. 0. 1. 142. 121. 8. 1. 0. 0. 22.
      46. 142. 142. 7. 5. 2. 4. 142. 96. 63. 8. 0. 0. 1. 7. 14. 1. 0. 0.
      0. 0. 0. 1. 0. 0. 28. 65. 42. 91. 56. 0. 56. 14. 36. 45. 16. 65.
      110. 37. 142. 49. 7. 2. 1. 5. 16. 59. 49. 7. 0. 0. 0. 0. 0. 1. 0.
      0. 0. 0. 9. 126. 100. 0. 13. 0. 0. 0. 17. 123. 86. 21. 142. 11. 0.
      0. 1. 10. 22. 73. 26. 4. 0. 0. 0. 0. 0. 1.</_>
    <_>
      125. 31. 3. 0. 0. 0. 0. 43. 84. 59. 35. 0. 0. 1. 4. 8. 53. 75. 22.
      0. 0. 10. 35. 11. 40. 13. 0. 0. 0. 3. 84. 62. 68. 32. 4. 2. 3. 1.
      7. 69. 33. 57. 90. 16. 7. 1. 1. 5. 125. 100. 30. 1. 0. 0. 0. 15.
      125. 102. 0. 0. 0. 0. 11. 47. 28. 41. 5. 4. 6. 14. 13. 7. 47. 14.
      11. 13. 13. 4. 7. 34. 125. 28. 1. 0. 0. 0. 1. 70. 125. 24. 0. 0.
      0. 0. 0. 125. 3. 4. 1. 2. 10. 32. 29. 5. 51. 7. 1. 0. 1. 3. 13.
      91. 123. 13. 4. 2. 0. 0. 0. 125. 99. 125. 10. 2. 0. 0. 0. 22.</_>
    <_>
      45. 76. 10. 9. 4. 2. 1. 3. 122. 122. 5. 0. 0. 0. 0. 1. 65. 113.
      75. 0. 0. 0. 0. 1. 2. 54. 30. 0. 0. 0. 0. 0. 60. 24. 6. 1. 2. 2.
      2. 7. 122. 58. 5. 2. 1. 0. 0. 16. 36. 86. 108. 40. 22. 2. 1. 4.
      105. 122. 49. 6. 3. 1. 1. 9. 39. 7. 2. 0. 1. 4. 39. 49. 122. 25.
      4. 3. 1. 0. 3. 37. 30. 13. 8. 21. 30. 7. 5. 38. 122. 15. 2. 2. 3.
      2. 3. 108. 3. 0. 0. 0. 0. 1. 122. 29. 23. 11. 2. 0. 0. 0. 122. 53.
      10. 5. 3. 1. 1. 0. 72. 122. 41. 0. 0. 0. 0. 0. 9. 122.</_>
    <_>
      0. 65. 42. 16. 2. 0. 0. 0. 5. 145. 32. 0. 0. 0. 0. 0. 61. 145. 4.
      0. 0. 0. 0. 0. 40. 17. 0. 0. 0. 0. 0. 1. 7. 46. 39. 10. 3. 2. 0.
      1. 43. 136. 39. 0. 0. 0. 0. 7. 145. 143. 3. 0. 0. 0. 0. 10. 106.
      23. 0. 0. 0. 0. 0. 1. 8. 16. 8. 3. 13. 14. 2. 2. 84. 85. 12. 1. 2.
      1. 0. 26. 145. 118. 0. 0. 0. 0. 0. 35. 81. 82. 0. 0. 0. 0. 0. 1.
      1. 3. 7. 15. 36. 23. 2. 2. 10. 120. 22. 18. 24. 6. 0. 0. 36. 145.
      5. 0. 0. 0. 0. 0. 46. 145. 0. 0. 0. 0. 0. 0.</_>
    <_>
      0. 11. 126. 105. 16. 5. 0. 0. 45. 135. 123. 22. 6. 4. 1. 2. 49.
      134. 5. 1. 1. 0. 0. 0. 2. 3. 0. 2. 9. 2. 0. 0. 8. 60. 22. 22. 33.
      23. 2. 0. 126. 74. 6. 6. 16. 25. 9. 13. 135. 118. 0. 0. 0. 0. 0.
      7. 21. 6. 0. 0. 1. 2. 0. 1. 41. 108. 18. 4. 2. 1. 0. 4. 117. 16.
      15. 7. 3. 2. 1. 76. 135. 6. 0. 0. 0. 0. 0. 116. 16. 0. 0. 0. 0. 0.
      0. 4. 33. 17. 3. 0. 0. 0. 3. 117. 59. 5. 4. 0. 0. 0. 1. 135. 52.
      0. 0. 0. 0. 0. 0. 107. 1. 0. 0. 0. 0. 0. 0. 0.</_>
    <_>
      7. 42. 49. 38. 26. 31. 18. 5. 40. 152. 32. 0. 0. 2. 4. 3. 88. 152.
      2. 0. 0. 0. 0. 0. 4. 3. 0. 0. 0. 0. 0. 0. 1. 32. 73. 13. 10. 22.
      10. 1. 96. 68. 20. 18. 6. 5. 3. 3. 152. 96. 1. 0. 0. 0. 0. 5. 19.
      3. 0. 0. 0. 0. 0. 0. 24. 109. 88. 3. 0. 0. 0. 1. 152. 47. 33. 11.
      0. 0. 0. 43. 152. 8. 1. 0. 0. 0. 0. 65. 23. 1. 0. 0. 0. 0. 0. 1.
      94. 17. 2. 1. 0. 0. 2. 18. 152. 5. 0. 0. 0. 0. 0. 84. 152. 8. 0.
      0. 0. 0. 0. 52. 9. 4. 0. 0. 0. 0. 0. 0.</_>
    <_>
      0. 2. 40. 29. 0. 0. 0. 0. 0. 13. 13. 0. 0. 0. 0. 0. 1. 3. 0. 0. 0.
      0. 0. 0. 0. 0. 0. 0. 0. 0. 0. 0. 0. 12. 138. 87. 2. 0. 0. 0. 27.
      170. 132. 5. 2. 0. 0. 1. 170. 170. 11. 0. 0. 0. 0. 5. 45. 6. 0. 0.
      0. 0. 0. 2. 0. 5. 40. 26. 3. 0. 0. 0. 126. 45. 22. 6. 6. 1. 1. 21.
      170. 63. 2. 0. 0. 0. 0. 56. 94. 4. 0. 0. 0. 0. 0. 13. 0. 7. 24. 3.
      2. 7. 1. 0. 95. 65. 13. 0. 0. 1. 0. 3. 170. 99. 0. 0. 0. 0. 0. 7.
      80. 12. 0. 0. 0. 0. 0. 1.</_>
    <_>
      0. 0. 0. 0. 0. 0. 0. 0. 0. 0. 0. 5. 5. 0. 0. 0. 0. 0. 0. 1. 1. 0.
      0. 0. 0. 0. 0. 0. 0. 0. 0. 0. 0. 0. 1. 15. 8. 3. 0. 0. 49. 14. 5.
      162. 162. 45. 22. 22. 162. 50. 2. 40. 30. 7. 19. 76. 10. 3. 0. 0.
      0. 0. 0. 1. 0. 0. 0. 4. 8. 26. 2. 0. 20. 3. 1. 49. 114. 162. 162.
      149. 137. 14. 0. 6. 9. 18. 162. 162. 4. 1. 0. 0. 0. 0. 3. 3. 0. 0.
      0. 0. 0. 2. 0. 0. 0. 0. 0. 0. 0. 9. 21. 24. 0. 0. 0. 0. 0. 0. 25.
      42. 0. 0. 0. 0. 0. 0. 0. 0.</_>
    <_>
      0. 0. 0. 0. 0. 0. 0. 0. 0. 7. 10. 0. 0. 0. 0. 0. 0. 5. 9. 0. 0. 0.
      0. 0. 0. 0. 0. 0. 0. 0. 0. 0. 0. 0. 0. 0. 1. 10. 0. 0. 26. 155.
      156. 5. 28. 126. 10. 10. 160. 160. 118. 1. 2. 10. 6. 34. 44. 5. 0.
      0. 0. 0. 0. 4. 0. 0. 0. 0. 7. 23. 0. 0. 32. 24. 16. 2. 79. 160.
      116. 72. 160. 76. 9. 1. 3. 43. 110. 160. 50. 10. 0. 0. 0. 0. 0. 2.
      0. 0. 0. 0. 0. 0. 0. 0. 0. 0. 0. 0. 1. 4. 16. 10. 4. 0. 0. 0. 0.
      1. 23. 27. 0. 0. 0. 0. 0. 0. 0. 0.</_>
    <_>
      52. 0. 0. 0. 0. 0. 0. 16. 128. 0. 0. 0. 0. 0. 0. 64. 130. 42. 0.
      0. 0. 0. 1. 47. 130. 116. 7. 0. 0. 0. 0. 1. 75. 0. 0. 0. 0. 0. 0.
      37. 130. 4. 0. 0. 0. 2. 7. 128. 75. 46. 5. 2. 24. 24. 18. 56. 125.
      130. 33. 2. 4. 1. 0. 0. 67. 1. 0. 0. 0. 0. 0. 48. 130. 31. 0. 0.
      1. 2. 2. 26. 89. 16. 1. 3. 93. 46. 4. 9. 114. 75. 16. 4. 24. 7. 0.
      9. 37. 0. 0. 0. 0. 0. 1. 47. 130. 36. 9. 1. 0. 0. 0. 20. 62. 31.
      36. 37. 43. 8. 1. 6. 56. 14. 6. 15. 20. 3. 1. 27.</_>
    <_>
      23. 9. 4. 0. 0. 0. 0. 11. 170. 4. 0. 0. 0. 0. 0. 24. 170. 29. 0.
      0. 0. 0. 0. 3. 38. 6. 0. 0. 0. 0. 0. 0. 40. 0. 0. 0. 0. 0. 0. 31.
      170. 6. 0. 0. 0. 0. 0. 28. 170. 26. 0. 0. 0. 0. 0. 3. 65. 8. 0. 0.
      0. 0. 0. 0. 37. 1. 0. 0. 0. 0. 1. 31. 170. 14. 0. 0. 0. 0. 0. 29.
      170. 26. 0. 0. 0. 0. 0. 13. 73. 10. 0. 0. 0. 0. 0. 2. 16. 17. 2.
      0. 0. 0. 0. 12. 102. 28. 1. 0. 0. 0. 0. 97. 170. 8. 0. 0. 0. 0. 0.
      124. 37. 1. 0. 0. 0. 0. 0. 12.</_>
    <_>
      23. 129. 71. 0. 0. 0. 0. 0. 1. 129. 117. 0. 0. 0. 0. 0. 3. 38. 10.
      0. 0. 0. 0. 0. 0. 0. 0. 0. 0. 0. 0. 0. 54. 121. 21. 0. 0. 0. 0. 1.
      41. 129. 61. 0. 0. 0. 6. 19. 129. 100. 6. 0. 0. 0. 1. 21. 9. 0. 0.
      0. 0. 0. 0. 2. 79. 53. 3. 0. 0. 0. 8. 129. 49. 14. 3. 0. 0. 0.
      125. 129. 129. 6. 0. 0. 0. 0. 44. 129. 15. 0. 0. 0. 0. 0. 0. 5.
      13. 0. 0. 0. 0. 0. 93. 129. 6. 0. 0. 0. 0. 0. 47. 129. 2. 0. 0. 0.
      0. 0. 17. 14. 0. 0. 0. 0. 0. 0. 0. 0.</_>
    <_>
      0. 26. 45. 11. 7. 9. 16. 1. 29. 17. 31. 30. 14. 4. 2. 13. 67. 9.
      3. 2. 2. 1. 50. 146. 72. 12. 0. 0. 0. 0. 37. 102. 1. 71. 74. 10.
      1. 0. 0. 0. 114. 51. 44. 25. 2. 0. 0. 5. 154. 46. 0. 0. 0. 0. 15.
      65. 36. 1. 0. 0. 0. 0. 25. 44. 15. 55. 5. 0. 0. 0. 0. 2. 154. 28.
      8. 0. 0. 0. 0. 47. 154. 7. 0. 0. 0. 0. 0. 97. 45. 0. 0. 0. 0. 0.
      0. 8. 9. 6. 0. 0. 0. 0. 15. 63. 92. 4. 0. 0. 0. 0. 8. 154. 143. 0.
      0. 0. 0. 0. 0. 154. 10. 0. 0. 0. 0. 0. 0. 7.</_>
    <_>
      0. 0. 0. 10. 16. 2. 35. 11. 124. 5. 0. 0. 0. 0. 22. 71. 157. 11.
      0. 0. 0. 0. 0. 101. 48. 1. 0. 0. 0. 0. 0. 13. 0. 0. 0. 3. 4. 6.
      98. 20. 129. 9. 0. 2. 3. 7. 44. 75. 157. 62. 0. 0. 0. 0. 0. 67.
      31. 12. 0. 0. 0. 0. 0. 3. 10. 0. 1. 28. 24. 5. 11. 13. 97. 1. 1.
      7. 4. 1. 3. 157. 104. 6. 0. 0. 0. 0. 9. 157. 7. 1. 0. 0. 0. 0. 0.
      5. 33. 0. 0. 12. 16. 1. 3. 70. 157. 0. 0. 0. 0. 0. 1. 157. 29. 0.
      0. 0. 0. 0. 5. 78. 0. 0. 0. 0. 0. 0. 0. 0.</_>
    <_>
      41. 104. 4. 1. 5. 8. 2. 0. 23. 147. 63. 0. 0. 0. 0. 0. 2. 50. 51.
      0. 0. 0. 0. 0. 1. 5. 1. 0. 0. 0. 0. 0. 1. 26. 7. 1. 13. 100. 109.
      0. 16. 119. 147. 54. 97. 78. 12. 1. 147. 147. 127. 14. 11. 2. 0.
      3. 45. 17. 0. 0. 0. 0. 0. 0. 0. 0. 0. 0. 19. 57. 42. 0. 38. 8. 7.
      13. 147. 114. 8. 17. 147. 34. 6. 4. 31. 15. 3. 86. 65. 2. 0. 0. 0.
      0. 0. 7. 0. 0. 0. 0. 0. 0. 0. 0. 3. 0. 0. 0. 3. 1. 0. 2. 37. 0. 0.
      0. 1. 1. 0. 18. 6. 0. 0. 0. 0. 0. 0. 2.</_>
    <_>
      0. 0. 0. 8. 130. 20. 1. 1. 9. 0. 1. 6. 50. 15. 2. 15. 78. 0. 0. 5.
      13. 0. 0. 77. 87. 0. 0. 0. 0. 0. 0. 78. 0. 0. 0. 0. 57. 80. 0. 0.
      17. 4. 3. 9. 78. 114. 0. 3. 130. 11. 2. 5. 8. 2. 0. 89. 65. 2. 0.
      0. 0. 0. 0. 44. 0. 0. 0. 4. 17. 26. 0. 0. 12. 13. 14. 100. 130.
      80. 0. 0. 130. 130. 33. 37. 27. 3. 0. 10. 72. 60. 0. 0. 0. 0. 0.
      4. 0. 0. 0. 4. 2. 0. 0. 0. 4. 3. 10. 130. 53. 3. 20. 43. 130. 75.
      23. 48. 12. 1. 23. 130. 80. 21. 0. 0. 0. 0. 0. 55.</_>
    <_>
      108. 86. 1. 0. 0. 0. 0. 0. 146. 99. 0. 0. 0. 0. 0. 0. 19. 8. 0. 0.
      0. 0. 0. 1. 1. 0. 0. 0. 0. 0. 0. 0. 66. 145. 20. 4. 7. 1. 0. 2.
      146. 146. 2. 0. 0. 0. 0. 18. 69. 22. 0. 0. 0. 0. 0. 3. 1. 0. 0. 0.
      0. 0. 0. 0. 89. 28. 12. 5. 26. 17. 29. 121. 146. 27. 1. 0. 0. 0.
      1. 146. 54. 2. 0. 0. 0. 0. 0. 27. 1. 0. 0. 0. 0. 0. 0. 0. 26. 0.
      0. 0. 2. 8. 126. 146. 76. 0. 0. 0. 0. 0. 8. 146. 5. 0. 0. 0. 0. 0.
      0. 7. 0. 0. 0. 0. 0. 0. 0. 0.</_>
    <_>
      1. 30. 163. 38. 0. 0. 0. 0. 32. 163. 118. 1. 0. 0. 0. 1. 29. 53.
      4. 0. 0. 0. 0. 1. 1. 0. 0. 0. 0. 0. 0. 0. 33. 25. 91. 36. 0. 0. 0.
      1. 163. 113. 27. 1. 0. 0. 0. 61. 131. 25. 0. 0. 0. 0. 0. 40. 2. 0.
      0. 0. 0. 0. 0. 0. 47. 12. 7. 14. 0. 0. 0. 6. 163. 59. 0. 0. 0. 0.
      0. 40. 149. 15. 0. 0. 0. 0. 0. 11. 1. 0. 0. 0. 0. 0. 0. 0. 63. 5.
      2. 3. 0. 0. 0. 22. 163. 8. 0. 0. 0. 0. 0. 139. 78. 2. 0. 0. 0. 0.
      0. 30. 1. 0. 0. 0. 0. 0. 0. 0.</_>
    <_>
      17. 3. 4. 114. 16. 1. 12. 21. 140. 112. 0. 2. 0. 0. 2. 16. 102.
      126. 0. 0. 0. 0. 0. 0. 5. 5. 0. 0. 0. 0. 0. 0. 2. 0. 0. 9. 4. 1.
      60. 69. 100. 52. 0. 0. 0. 12. 92. 55. 140. 104. 0. 0. 0. 1. 11.
      41. 29. 6. 0. 0. 0. 0. 0. 2. 14. 0. 0. 0. 0. 1. 46. 140. 15. 0. 0.
      0. 0. 44. 140. 137. 105. 1. 0. 0. 0. 7. 91. 140. 13. 0. 0. 0. 0.
      0. 0. 8. 15. 0. 0. 0. 0. 0. 5. 140. 1. 0. 0. 0. 0. 4. 30. 35. 0.
      0. 0. 0. 0. 1. 19. 12. 0. 0. 0. 0. 0. 0. 0. 1.</_>
    <_>
      2. 0. 5. 147. 17. 2. 6. 5. 103. 13. 0. 18. 3. 0. 4. 23. 119. 38.
      0. 0. 0. 0. 0. 1. 9. 3. 0. 0. 0. 0. 0. 0. 0. 0. 0. 48. 17. 5. 70.
      50. 110. 19. 0. 1. 0. 5. 121. 77. 147. 73. 0. 0. 0. 1. 12. 51. 45.
      9. 0. 0. 0. 0. 0. 3. 0. 0. 0. 0. 3. 2. 97. 147. 9. 0. 0. 0. 0. 30.
      147. 126. 96. 1. 0. 0. 0. 6. 100. 147. 15. 0. 0. 0. 0. 0. 0. 11.
      7. 0. 0. 0. 0. 0. 27. 147. 0. 0. 0. 0. 0. 6. 55. 31. 0. 0. 0. 0.
      0. 2. 31. 16. 0. 0. 0. 0. 0. 0. 0. 1.</_>
    <_>
      1. 2. 0. 2. 9. 112. 50. 0. 136. 70. 0. 0. 0. 29. 26. 5. 159. 116.
      0. 0. 0. 0. 0. 1. 30. 11. 0. 0. 0. 0. 0. 0. 0. 0. 0. 0. 2. 159.
      159. 0. 79. 8. 0. 0. 16. 159. 96. 19. 159. 53. 0. 0. 1. 17. 11.
      28. 63. 12. 0. 0. 0. 0. 0. 0. 0. 0. 0. 0. 10. 73. 38. 0. 9. 0. 0.
      0. 38. 159. 49. 13. 117. 8. 0. 0. 1. 49. 36. 39. 16. 4. 0. 0. 0.
      0. 0. 0. 0. 0. 0. 0. 1. 6. 0. 0. 0. 0. 0. 0. 1. 38. 4. 0. 0. 0. 0.
      0. 0. 7. 2. 0. 0. 0. 0. 0. 0. 0. 0. 0.</_>
    <_>
      6. 0. 0. 9. 36. 10. 6. 24. 122. 37. 0. 0. 0. 1. 3. 90. 91. 139.
      39. 0. 0. 0. 0. 9. 1. 139. 33. 0. 0. 0. 0. 0. 32. 3. 0. 88. 99. 9.
      13. 52. 139. 19. 1. 2. 1. 1. 6. 97. 40. 139. 33. 20. 2. 0. 0. 17.
      21. 139. 20. 1. 0. 0. 0. 0. 94. 3. 1. 29. 31. 0. 11. 52. 112. 10.
      2. 5. 4. 2. 10. 76. 37. 26. 14. 36. 38. 9. 4. 11. 69. 130. 4. 2.
      1. 1. 2. 16. 139. 14. 0. 3. 14. 0. 0. 24. 51. 5. 0. 0. 2. 5. 4.
      57. 9. 0. 0. 0. 13. 20. 39. 44. 18. 3. 0. 0. 0. 3. 22. 52.</_>
    <_>
      26. 84. 15. 0. 7. 19. 1. 0. 24. 87. 14. 0. 0. 2. 1. 1. 33. 148. 1.
      0. 0. 0. 1. 1. 3. 108. 6. 0. 0. 0. 0. 0. 16. 45. 17. 1. 44. 148.
      10. 5. 123. 65. 10. 0. 0. 10. 8. 18. 24. 96. 3. 0. 0. 12. 12. 8.
      1. 148. 34. 0. 0. 4. 2. 0. 5. 0. 0. 0. 16. 148. 20. 4. 51. 64. 4.
      0. 1. 148. 24. 9. 10. 113. 8. 0. 0. 18. 6. 1. 1. 46. 13. 0. 1. 16.
      6. 0. 0. 0. 0. 0. 1. 95. 4. 0. 0. 7. 1. 0. 1. 148. 48. 0. 6. 59.
      5. 0. 0. 135. 83. 2. 1. 34. 20. 0. 0. 17. 21. 1.</_>
    <_>
      10. 0. 0. 5. 20. 8. 12. 47. 150. 59. 0. 0. 0. 0. 1. 82. 87. 150.
      19. 0. 0. 0. 0. 3. 4. 141. 9. 0. 0. 0. 0. 0. 37. 4. 0. 27. 30. 11.
      23. 83. 150. 27. 1. 1. 0. 2. 5. 68. 49. 150. 30. 16. 0. 0. 0. 8.
      42. 150. 10. 1. 0. 0. 0. 0. 88. 1. 0. 3. 1. 6. 24. 54. 91. 11. 3.
      4. 3. 5. 22. 64. 28. 39. 23. 43. 34. 9. 3. 8. 90. 150. 7. 3. 2. 1.
      1. 11. 116. 13. 0. 0. 0. 0. 4. 29. 24. 3. 0. 0. 3. 6. 11. 53. 6.
      0. 0. 1. 19. 27. 42. 33. 34. 13. 0. 0. 1. 1. 19. 53.</_>
    <_>
      5. 6. 2. 32. 135. 0. 0. 0. 11. 26. 42. 22. 0. 0. 0. 0. 8. 76. 40.
      5. 0. 0. 0. 0. 6. 15. 1. 1. 5. 5. 0. 0. 1. 8. 11. 40. 135. 7. 0.
      0. 9. 26. 72. 135. 90. 9. 2. 4. 135. 135. 70. 35. 10. 3. 2. 19.
      66. 26. 0. 0. 3. 2. 0. 3. 4. 9. 4. 18. 135. 43. 0. 0. 13. 7. 3.
      26. 111. 95. 70. 36. 135. 14. 2. 5. 10. 18. 58. 135. 82. 3. 0. 0.
      1. 2. 0. 17. 15. 15. 1. 10. 135. 86. 0. 0. 44. 25. 0. 0. 2. 12.
      33. 21. 25. 6. 0. 0. 0. 1. 25. 53. 33. 12. 0. 0. 0. 0. 0. 4.</_>
    <_>
      0. 0. 0. 19. 23. 0. 0. 0. 0. 0. 0. 11. 13. 0. 1. 2. 11. 4. 0. 0.
      0. 0. 1. 7. 12. 31. 3. 0. 0. 0. 0. 0. 1. 1. 4. 153. 153. 0. 0. 0.
      46. 8. 12. 120. 47. 1. 9. 39. 46. 22. 1. 0. 0. 2. 39. 67. 32. 153.
      70. 0. 0. 3. 4. 3. 6. 2. 2. 96. 153. 114. 5. 3. 153. 21. 4. 23.
      28. 34. 12. 27. 65. 19. 0. 0. 0. 4. 17. 17. 2. 16. 14. 0. 0. 22.
      13. 1. 0. 0. 0. 0. 153. 153. 4. 1. 39. 8. 0. 0. 30. 142. 20. 11.
      71. 20. 0. 0. 0. 3. 3. 4. 9. 2. 0. 0. 0. 9. 4. 2.</_>
    <_>
      0. 0. 29. 133. 34. 0. 0. 0. 3. 5. 133. 133. 5. 0. 0. 1. 10. 78.
      58. 27. 2. 0. 1. 4. 2. 115. 104. 0. 0. 0. 0. 0. 3. 1. 12. 133.
      133. 3. 0. 0. 88. 15. 64. 95. 14. 1. 0. 28. 33. 21. 20. 3. 0. 4.
      18. 38. 0. 45. 48. 0. 0. 12. 19. 1. 5. 1. 1. 28. 133. 124. 7. 3.
      122. 18. 1. 5. 14. 35. 14. 18. 61. 28. 0. 0. 0. 1. 3. 5. 4. 2. 0.
      0. 0. 9. 9. 1. 0. 0. 0. 0. 129. 133. 3. 0. 21. 6. 0. 0. 24. 103.
      16. 7. 58. 15. 0. 0. 0. 3. 3. 4. 11. 2. 0. 0. 0. 1. 1. 3.</_>
    <_>
      0. 4. 40. 2. 0. 0. 0. 0. 0. 3. 56. 8. 0. 0. 0. 0. 0. 17. 24. 1. 0.
      0. 0. 0. 0. 2. 0. 0. 0. 0. 0. 0. 0. 34. 166. 24. 0. 0. 0. 0. 15.
      57. 166. 64. 0. 0. 0. 0. 110. 166. 87. 2. 0. 0. 0. 3. 23. 14. 0.
      0. 0. 0. 0. 0. 0. 9. 132. 36. 0. 0. 0. 0. 140. 41. 112. 31. 0. 0.
      0. 5. 166. 45. 9. 0. 0. 0. 0. 30. 50. 3. 0. 0. 0. 0. 0. 3. 1. 2.
      13. 18. 2. 1. 0. 0. 166. 9. 4. 2. 0. 0. 0. 15. 166. 1. 0. 0. 0. 0.
      0. 40. 32. 0. 0. 0. 0. 0. 0. 3.</_>
    <_>
      0. 0. 7. 6. 0. 0. 0. 0. 0. 3. 39. 8. 0. 0. 0. 0. 0. 12. 20. 0. 0.
      0. 0. 0. 0. 2. 0. 0. 0. 0. 0. 0. 0. 0. 107. 129. 0. 0. 0. 0. 11.
      39. 137. 110. 0. 0. 0. 1. 97. 137. 106. 2. 0. 0. 0. 7. 23. 14. 1.
      0. 0. 0. 0. 1. 2. 15. 137. 107. 1. 3. 1. 0. 76. 58. 92. 46. 0. 0.
      0. 5. 137. 137. 14. 0. 0. 0. 0. 23. 32. 62. 2. 0. 0. 0. 0. 3. 9.
      16. 13. 3. 2. 135. 20. 1. 48. 60. 2. 0. 0. 17. 7. 1. 30. 137. 14.
      0. 0. 0. 0. 0. 2. 137. 27. 0. 0. 0. 0. 0.</_>
    <_>
      0. 3. 13. 7. 4. 1. 0. 0. 7. 38. 25. 3. 1. 0. 0. 0. 129. 148. 5. 0.
      0. 0. 0. 0. 148. 148. 0. 0. 0. 0. 0. 0. 1. 2. 3. 6. 21. 21. 1. 0.
      3. 37. 56. 20. 35. 34. 3. 2. 125. 148. 30. 1. 1. 2. 3. 11. 148.
      148. 0. 0. 0. 0. 0. 1. 4. 27. 2. 0. 5. 17. 1. 0. 3. 5. 4. 3. 18.
      93. 29. 11. 106. 24. 2. 1. 1. 11. 24. 52. 148. 67. 0. 0. 0. 0. 0.
      8. 1. 51. 14. 0. 0. 13. 16. 0. 0. 17. 24. 6. 2. 6. 4. 1. 47. 19.
      16. 4. 0. 1. 3. 7. 148. 21. 0. 0. 0. 0. 0. 71.</_>
    <_>
      7. 9. 1. 29. 183. 12. 0. 0. 52. 87. 1. 1. 4. 0. 0. 0. 70. 77. 0.
      0. 0. 0. 0. 0. 36. 10. 0. 0. 0. 0. 0. 2. 1. 2. 0. 3. 183. 74. 3.
      0. 27. 60. 4. 1. 8. 16. 15. 7. 155. 87. 0. 0. 0. 0. 3. 15. 79. 10.
      0. 0. 0. 0. 0. 3. 7. 1. 0. 14. 183. 53. 4. 4. 29. 2. 0. 1. 10. 11.
      53. 60. 104. 3. 0. 0. 0. 0. 16. 106. 56. 12. 0. 0. 0. 0. 0. 10.
      18. 1. 0. 4. 183. 57. 0. 1. 98. 3. 0. 0. 10. 2. 2. 26. 55. 1. 0.
      0. 0. 0. 2. 46. 17. 2. 0. 0. 0. 0. 0. 17.</_>
    <_>
      0. 0. 0. 48. 18. 0. 0. 0. 0. 0. 0. 33. 22. 1. 2. 5. 13. 6. 0. 0.
      1. 0. 4. 12. 12. 43. 14. 0. 0. 0. 0. 1. 2. 1. 5. 147. 147. 3. 0.
      0. 57. 7. 12. 147. 50. 2. 11. 51. 33. 17. 2. 0. 1. 5. 55. 63. 18.
      125. 79. 0. 0. 8. 12. 2. 4. 1. 1. 39. 147. 147. 4. 2. 137. 18. 2.
      12. 42. 65. 14. 25. 61. 18. 0. 0. 0. 4. 15. 11. 2. 3. 4. 0. 0. 27.
      17. 1. 0. 0. 0. 0. 147. 147. 1. 0. 28. 7. 0. 0. 63. 147. 12. 7.
      63. 18. 0. 0. 0. 5. 3. 4. 7. 2. 0. 0. 1. 8. 3. 2.</_>
    <_>
      3. 6. 2. 3. 31. 7. 0. 0. 151. 146. 4. 5. 15. 1. 0. 0. 151. 148. 0.
      0. 0. 0. 0. 0. 13. 6. 0. 0. 0. 0. 0. 0. 0. 8. 18. 27. 36. 4. 0. 0.
      126. 117. 14. 42. 56. 0. 1. 18. 151. 151. 1. 0. 0. 0. 0. 35. 51.
      8. 0. 0. 0. 0. 0. 2. 1. 1. 21. 46. 26. 13. 0. 0. 102. 5. 9. 37.
      16. 0. 1. 148. 151. 7. 0. 0. 0. 0. 0. 151. 33. 0. 0. 0. 0. 0. 0.
      10. 0. 0. 0. 1. 0. 0. 0. 0. 7. 0. 0. 0. 0. 0. 0. 9. 12. 0. 0. 0.
      0. 0. 0. 14. 1. 0. 0. 0. 0. 0. 0. 1.</_>
    <_>
      0. 1. 2. 10. 144. 11. 0. 0. 0. 10. 38. 29. 3. 0. 0. 0. 4. 50. 33.
      4. 0. 0. 0. 0. 5. 9. 1. 0. 2. 2. 0. 0. 0. 0. 0. 13. 144. 45. 0. 0.
      8. 24. 49. 125. 119. 7. 1. 2. 123. 138. 45. 21. 9. 2. 1. 10. 43.
      19. 0. 0. 1. 1. 0. 1. 0. 0. 0. 3. 144. 72. 0. 0. 9. 3. 1. 17. 141.
      90. 44. 25. 130. 16. 1. 3. 9. 17. 40. 124. 49. 14. 0. 0. 0. 0. 0.
      8. 0. 0. 0. 1. 144. 141. 0. 0. 7. 8. 1. 2. 38. 25. 22. 11. 12. 5.
      0. 0. 0. 2. 18. 41. 9. 13. 0. 0. 0. 0. 0. 3.</_>
    <_>
      0. 0. 0. 6. 7. 7. 0. 0. 0. 4. 28. 74. 12. 2. 0. 0. 17. 50. 42. 19.
      3. 3. 1. 2. 131. 131. 0. 0. 0. 0. 0. 1. 0. 0. 0. 11. 49. 28. 0. 0.
      6. 20. 48. 131. 131. 33. 3. 3. 131. 131. 68. 47. 19. 8. 4. 22.
      131. 72. 0. 0. 0. 0. 0. 6. 0. 0. 1. 2. 44. 30. 0. 0. 5. 3. 2. 15.
      131. 131. 64. 17. 131. 17. 3. 5. 16. 56. 102. 131. 93. 11. 0. 0.
      0. 0. 1. 37. 1. 1. 1. 1. 5. 8. 2. 0. 0. 0. 0. 0. 5. 58. 40. 3. 1.
      0. 0. 0. 0. 13. 58. 45. 15. 3. 0. 0. 0. 1. 5. 14.</_>
    <_>
      0. 2. 13. 9. 1. 1. 0. 0. 87. 8. 4. 4. 1. 1. 1. 10. 171. 1. 0. 0.
      0. 0. 0. 55. 40. 0. 0. 0. 0. 0. 0. 6. 0. 14. 52. 6. 1. 0. 0. 0.
      171. 32. 18. 2. 0. 0. 0. 11. 171. 4. 0. 0. 0. 0. 0. 58. 27. 0. 0.
      0. 0. 0. 0. 4. 1. 48. 35. 3. 19. 35. 0. 0. 171. 79. 8. 0. 0. 0. 0.
      1. 171. 127. 13. 0. 0. 0. 0. 7. 9. 5. 1. 0. 0. 0. 0. 0. 4. 26. 4.
      3. 128. 128. 0. 0. 79. 99. 4. 1. 5. 1. 0. 0. 44. 119. 37. 0. 0. 0.
      0. 0. 0. 2. 2. 0. 0. 0. 0. 0.</_>
    <_>
      0. 0. 0. 6. 4. 4. 1. 0. 0. 6. 23. 50. 6. 5. 2. 0. 45. 65. 24. 8.
      0. 1. 2. 1. 133. 133. 0. 0. 0. 0. 0. 0. 0. 0. 0. 16. 39. 20. 0. 0.
      9. 27. 41. 133. 129. 22. 2. 3. 133. 133. 39. 24. 9. 4. 2. 15. 133.
      133. 0. 0. 0. 0. 0. 1. 0. 0. 0. 2. 35. 38. 0. 0. 9. 4. 2. 11. 112.
      133. 55. 24. 132. 15. 2. 3. 8. 29. 57. 133. 132. 34. 0. 0. 0. 0.
      0. 18. 1. 1. 0. 0. 6. 8. 2. 0. 0. 0. 0. 0. 4. 44. 41. 4. 5. 0. 0.
      0. 0. 10. 36. 40. 45. 11. 0. 0. 0. 0. 0. 12.</_>
    <_>
      0. 0. 1. 11. 23. 8. 0. 0. 0. 11. 42. 36. 5. 0. 0. 0. 3. 43. 39. 4.
      0. 0. 0. 0. 6. 8. 1. 0. 1. 1. 1. 1. 0. 0. 0. 18. 103. 33. 0. 0. 8.
      33. 60. 135. 134. 17. 2. 3. 101. 135. 53. 21. 8. 4. 2. 10. 29. 45.
      0. 0. 0. 0. 0. 1. 0. 0. 0. 1. 135. 135. 0. 0. 8. 4. 2. 13. 135.
      135. 37. 21. 130. 24. 2. 3. 9. 32. 43. 134. 37. 18. 0. 0. 0. 0. 0.
      17. 0. 0. 0. 0. 135. 135. 0. 0. 0. 0. 2. 1. 51. 94. 22. 6. 7. 4.
      4. 0. 0. 8. 25. 46. 4. 5. 2. 0. 0. 0. 0. 6.</_>
    <_>
      0. 0. 0. 0. 0. 0. 0. 0. 0. 29. 71. 13. 0. 0. 0. 0. 7. 79. 36. 2.
      0. 0. 0. 0. 1. 3. 0. 0. 0. 0. 0. 0. 0. 0. 1. 5. 0. 0. 0. 0. 24.
      82. 92. 159. 32. 0. 0. 2. 159. 159. 51. 28. 4. 0. 0. 7. 34. 16. 0.
      0. 0. 0. 0. 1. 0. 0. 1. 6. 4. 6. 0. 0. 78. 16. 10. 90. 79. 46. 4.
      22. 159. 102. 4. 10. 7. 5. 2. 57. 64. 19. 0. 0. 0. 0. 0. 4. 0. 0.
      0. 0. 14. 32. 3. 0. 24. 9. 0. 0. 83. 101. 5. 3. 159. 159. 0. 0. 6.
      12. 2. 4. 63. 103. 0. 0. 0. 0. 0. 0.</_>
    <_>
      1. 1. 1. 22. 27. 0. 0. 0. 119. 7. 3. 17. 8. 0. 0. 31. 104. 5. 0.
      0. 0. 0. 0. 34. 1. 0. 0. 0. 0. 0. 0. 0. 10. 3. 2. 103. 137. 1. 0.
      0. 137. 36. 4. 30. 20. 0. 0. 35. 112. 29. 3. 0. 0. 0. 0. 23. 0. 2.
      0. 0. 0. 0. 0. 0. 6. 6. 1. 19. 137. 75. 0. 0. 100. 137. 21. 5. 25.
      19. 2. 2. 23. 137. 70. 0. 0. 0. 0. 0. 2. 77. 9. 0. 0. 0. 0. 0. 0.
      0. 0. 0. 44. 137. 13. 0. 2. 34. 6. 0. 9. 137. 89. 1. 3. 137. 39.
      0. 1. 27. 28. 1. 7. 109. 10. 0. 0. 0. 0. 0.</_>
    <_>
      3. 1. 90. 159. 38. 0. 1. 26. 13. 4. 12. 80. 14. 1. 10. 63. 116. 6.
      2. 2. 0. 0. 1. 67. 49. 0. 0. 0. 0. 0. 1. 76. 9. 1. 6. 68. 7. 9.
      22. 117. 25. 12. 7. 24. 43. 43. 22. 28. 159. 24. 4. 5. 3. 4. 5.
      40. 106. 1. 0. 0. 0. 0. 0. 32. 6. 0. 0. 0. 1. 10. 47. 118. 7. 1.
      0. 1. 13. 90. 159. 36. 86. 2. 0. 0. 1. 11. 87. 159. 42. 0. 0. 0.
      0. 0. 2. 73. 8. 0. 0. 0. 0. 0. 12. 96. 0. 0. 0. 0. 0. 3. 83. 47.
      1. 0. 0. 0. 0. 2. 56. 57. 4. 3. 1. 0. 0. 0. 3. 29.</_>
    <_>
      0. 0. 7. 56. 4. 1. 18. 86. 4. 7. 7. 20. 9. 2. 15. 49. 118. 21. 6.
      5. 0. 0. 1. 29. 78. 0. 0. 0. 0. 0. 0. 66. 0. 0. 0. 2. 21. 23. 42.
      78. 13. 19. 18. 75. 106. 42. 13. 9. 126. 65. 16. 16. 5. 3. 5. 44.
      126. 1. 0. 0. 0. 0. 0. 51. 0. 0. 0. 0. 11. 54. 82. 46. 6. 2. 1. 8.
      56. 126. 126. 32. 126. 7. 1. 2. 3. 14. 126. 126. 86. 0. 0. 0. 0.
      0. 3. 85. 0. 0. 0. 0. 0. 7. 46. 45. 0. 0. 0. 0. 0. 28. 126. 11. 1.
      0. 0. 0. 0. 2. 106. 73. 3. 0. 0. 0. 0. 0. 10. 65.</_>
    <_>
      0. 0. 0. 0. 0. 0. 0. 0. 0. 9. 30. 1. 0. 0. 0. 0. 4. 46. 39. 0. 0.
      0. 0. 0. 2. 6. 0. 0. 0. 0. 0. 0. 0. 4. 12. 3. 0. 0. 0. 0. 17. 49.
      151. 104. 0. 0. 0. 1. 151. 151. 89. 15. 0. 0. 0. 6. 39. 17. 0. 0.
      0. 0. 0. 1. 0. 13. 37. 4. 8. 27. 0. 0. 131. 42. 130. 70. 6. 10. 1.
      15. 151. 39. 11. 7. 0. 0. 0. 74. 56. 2. 0. 0. 0. 0. 0. 11. 0. 0.
      1. 0. 36. 65. 2. 1. 119. 4. 3. 1. 15. 34. 16. 144. 151. 1. 0. 0.
      0. 0. 0. 151. 22. 0. 0. 0. 0. 0. 0. 8.</_>
    <_>
      1. 33. 95. 16. 3. 8. 7. 2. 2. 52. 130. 16. 8. 2. 7. 5. 30. 115.
      130. 22. 6. 2. 7. 15. 101. 114. 21. 0. 0. 0. 1. 15. 0. 0. 1. 4.
      14. 45. 38. 2. 15. 2. 3. 29. 51. 10. 18. 16. 114. 17. 12. 15. 16.
      5. 71. 130. 114. 16. 1. 0. 0. 0. 21. 130. 0. 0. 3. 16. 53. 24. 5.
      0. 34. 7. 0. 11. 51. 36. 3. 6. 130. 110. 0. 1. 2. 4. 5. 52. 62.
      36. 0. 0. 0. 0. 4. 27. 0. 4. 4. 4. 9. 20. 1. 0. 3. 3. 0. 0. 13.
      73. 3. 0. 101. 130. 0. 0. 9. 23. 0. 0. 70. 130. 0. 0. 0. 0. 0. 0.</_>
    <_>
      0. 8. 140. 3. 0. 0. 0. 0. 0. 37. 140. 2. 0. 0. 0. 0. 3. 50. 26. 0.
      0. 0. 0. 0. 1. 2. 0. 0. 0. 0. 0. 0. 2. 28. 140. 21. 7. 1. 3. 4.
      30. 119. 140. 39. 8. 2. 7. 17. 140. 140. 44. 0. 0. 0. 1. 25. 22.
      9. 0. 0. 0. 0. 0. 1. 7. 2. 4. 17. 41. 7. 13. 10. 96. 14. 10. 16.
      21. 6. 51. 140. 140. 22. 1. 0. 0. 0. 21. 140. 21. 3. 0. 0. 0. 0.
      0. 8. 14. 2. 0. 8. 39. 14. 2. 2. 140. 82. 0. 1. 2. 2. 3. 42. 90.
      59. 0. 0. 0. 0. 3. 40. 2. 2. 0. 0. 0. 0. 0. 2.</_>
    <_>
      3. 11. 63. 151. 0. 0. 0. 0. 106. 113. 69. 29. 0. 0. 0. 0. 53. 24.
      0. 0. 0. 0. 0. 0. 0. 1. 0. 0. 0. 0. 0. 0. 41. 23. 69. 153. 0. 0.
      0. 1. 153. 67. 18. 11. 0. 0. 0. 5. 126. 7. 0. 0. 0. 0. 0. 3. 1. 1.
      0. 0. 0. 0. 0. 0. 62. 6. 15. 29. 4. 2. 3. 100. 153. 4. 1. 0. 0. 0.
      0. 153. 91. 0. 0. 0. 0. 0. 0. 28. 1. 0. 0. 0. 0. 0. 0. 0. 53. 0.
      0. 0. 1. 3. 10. 153. 82. 0. 0. 0. 0. 0. 0. 153. 9. 0. 0. 0. 0. 0.
      0. 19. 0. 0. 0. 0. 0. 0. 0. 0.</_>
    <_>
      28. 4. 1. 4. 8. 1. 1. 40. 65. 4. 0. 0. 0. 0. 4. 39. 167. 7. 0. 0.
      0. 0. 75. 169. 11. 0. 0. 0. 0. 0. 146. 93. 56. 0. 0. 0. 8. 3. 2.
      31. 97. 18. 0. 2. 14. 8. 5. 14. 169. 51. 0. 0. 1. 0. 1. 17. 55. 3.
      0. 0. 0. 0. 3. 6. 68. 16. 1. 0. 18. 19. 1. 6. 99. 7. 2. 5. 21. 12.
      1. 23. 169. 6. 0. 0. 1. 1. 0. 78. 50. 0. 0. 0. 0. 0. 0. 9. 12. 29.
      26. 7. 26. 16. 0. 0. 134. 34. 54. 16. 3. 0. 0. 19. 169. 9. 1. 0.
      0. 0. 0. 66. 17. 0. 0. 0. 0. 0. 0. 6.</_>
    <_>
      18. 40. 5. 3. 4. 2. 0. 0. 110. 19. 6. 23. 31. 5. 0. 1. 185. 29. 1.
      1. 1. 0. 0. 9. 40. 1. 0. 0. 0. 0. 0. 2. 3. 57. 79. 23. 12. 7. 0.
      0. 120. 61. 95. 105. 7. 0. 0. 26. 185. 117. 8. 6. 0. 0. 0. 45. 59.
      6. 0. 0. 0. 0. 0. 2. 0. 3. 30. 15. 3. 0. 0. 0. 83. 6. 38. 24. 0.
      0. 0. 162. 185. 7. 1. 1. 0. 0. 0. 185. 33. 0. 0. 0. 0. 0. 0. 14.
      0. 0. 0. 0. 0. 0. 0. 0. 2. 0. 0. 0. 0. 0. 0. 5. 7. 0. 0. 0. 0. 0.
      0. 18. 1. 0. 0. 0. 0. 0. 0. 2.</_>
    <_>
      1. 1. 21. 62. 5. 0. 0. 0. 112. 6. 1. 11. 6. 0. 1. 31. 158. 12. 0.
      0. 0. 0. 0. 74. 59. 2. 0. 0. 0. 0. 0. 15. 1. 1. 7. 8. 0. 0. 48.
      30. 126. 18. 1. 0. 0. 0. 83. 57. 158. 46. 0. 0. 0. 0. 8. 89. 64.
      5. 0. 0. 0. 0. 0. 10. 4. 0. 0. 0. 0. 0. 132. 158. 13. 0. 0. 0. 0.
      0. 158. 158. 96. 1. 0. 0. 0. 0. 71. 158. 21. 0. 0. 0. 0. 0. 0. 21.
      1. 0. 0. 0. 0. 0. 12. 32. 0. 0. 0. 0. 0. 0. 60. 42. 1. 0. 0. 0. 0.
      0. 21. 27. 1. 0. 0. 0. 0. 0. 0. 2.</_>
    <_>
      76. 30. 0. 0. 3. 1. 0. 0. 153. 147. 0. 0. 0. 0. 0. 1. 59. 46. 0.
      0. 0. 0. 0. 1. 1. 1. 0. 0. 0. 0. 0. 0. 71. 10. 1. 2. 2. 0. 0. 2.
      153. 64. 0. 0. 0. 0. 0. 37. 136. 33. 0. 0. 0. 0. 0. 25. 2. 1. 0.
      0. 0. 0. 0. 1. 33. 27. 1. 2. 3. 4. 2. 1. 153. 153. 0. 0. 0. 0. 0.
      7. 139. 153. 0. 0. 0. 0. 0. 3. 9. 8. 0. 0. 0. 0. 0. 0. 2. 3. 0. 0.
      0. 9. 18. 2. 149. 58. 0. 0. 0. 0. 7. 11. 153. 89. 9. 0. 0. 0. 0.
      0. 15. 14. 44. 4. 0. 0. 0. 0.</_>
    <_>
      4. 4. 0. 0. 0. 0. 1. 1. 12. 1. 0. 0. 2. 2. 7. 19. 8. 0. 0. 0. 7.
      11. 120. 64. 0. 0. 0. 1. 2. 4. 157. 104. 3. 1. 0. 0. 1. 4. 5. 3.
      110. 3. 0. 0. 0. 0. 2. 25. 157. 4. 0. 0. 0. 0. 87. 157. 22. 0. 0.
      0. 0. 0. 157. 118. 1. 2. 1. 2. 12. 6. 1. 0. 143. 13. 1. 1. 2. 0.
      0. 0. 157. 24. 0. 0. 0. 0. 0. 7. 76. 5. 0. 0. 0. 0. 3. 8. 1. 3. 3.
      18. 22. 1. 0. 0. 124. 16. 3. 5. 2. 0. 0. 8. 157. 4. 0. 0. 0. 0. 0.
      37. 62. 1. 0. 0. 0. 0. 0. 7.</_>
    <_>
      1. 5. 36. 12. 13. 6. 0. 1. 139. 136. 78. 12. 6. 2. 0. 17. 120. 42.
      0. 0. 0. 0. 0. 6. 1. 0. 0. 0. 0. 0. 0. 0. 9. 1. 2. 4. 99. 48. 3.
      10. 139. 16. 3. 3. 18. 13. 5. 114. 139. 5. 0. 0. 0. 0. 0. 34. 1.
      0. 0. 0. 0. 0. 0. 0. 10. 2. 0. 27. 139. 18. 1. 2. 139. 98. 0. 0.
      13. 6. 1. 16. 139. 76. 0. 0. 0. 0. 0. 4. 1. 2. 0. 0. 0. 0. 0. 0.
      1. 0. 0. 42. 42. 13. 0. 0. 101. 89. 0. 0. 6. 12. 1. 1. 134. 139.
      0. 0. 0. 0. 0. 0. 10. 14. 0. 0. 0. 0. 0. 0.</_>
    <_>
      0. 0. 0. 3. 3. 5. 3. 0. 0. 0. 6. 19. 18. 9. 0. 0. 12. 5. 6. 4. 7.
      7. 3. 8. 149. 0. 0. 0. 0. 0. 0. 53. 0. 0. 0. 30. 23. 2. 0. 0. 3.
      11. 45. 130. 33. 0. 0. 0. 63. 79. 45. 17. 1. 0. 0. 4. 149. 9. 0.
      0. 0. 0. 0. 60. 0. 0. 0. 37. 81. 1. 0. 0. 30. 8. 8. 109. 130. 1.
      0. 3. 149. 26. 7. 10. 4. 0. 0. 32. 149. 2. 0. 0. 0. 0. 0. 94. 0.
      0. 0. 24. 99. 2. 0. 0. 25. 1. 0. 26. 98. 21. 12. 39. 149. 1. 0. 1.
      1. 1. 3. 92. 149. 0. 0. 0. 0. 0. 0. 84.</_>
    <_>
      0. 1. 30. 100. 30. 19. 1. 0. 118. 100. 16. 50. 10. 2. 0. 0. 141.
      100. 0. 0. 0. 0. 0. 0. 16. 5. 0. 0. 0. 0. 0. 0. 0. 0. 1. 16. 129.
      111. 3. 0. 141. 31. 1. 4. 21. 50. 11. 16. 141. 88. 0. 0. 0. 0. 1.
      19. 43. 9. 0. 0. 0. 0. 0. 2. 0. 0. 2. 35. 114. 36. 0. 0. 79. 7. 0.
      0. 16. 51. 18. 47. 141. 45. 0. 0. 0. 0. 1. 69. 44. 12. 0. 0. 0. 0.
      0. 4. 0. 0. 0. 1. 84. 32. 0. 0. 26. 19. 0. 0. 14. 20. 2. 4. 129.
      141. 0. 0. 1. 1. 0. 2. 40. 72. 0. 0. 0. 0. 0. 0.</_>
    <_>
      15. 2. 9. 22. 1. 0. 0. 1. 152. 2. 1. 3. 0. 0. 0. 61. 152. 0. 0. 0.
      0. 0. 0. 37. 2. 0. 0. 0. 0. 0. 0. 0. 41. 3. 3. 13. 7. 5. 1. 6.
      152. 55. 8. 1. 0. 0. 0. 47. 126. 75. 47. 0. 0. 0. 0. 16. 1. 20.
      15. 0. 0. 0. 0. 0. 19. 7. 0. 1. 2. 8. 7. 7. 96. 152. 81. 0. 0. 1.
      6. 6. 12. 152. 152. 0. 0. 0. 2. 0. 0. 152. 140. 0. 0. 0. 0. 0. 10.
      4. 0. 0. 0. 0. 3. 7. 4. 8. 10. 0. 0. 3. 23. 7. 1. 43. 40. 0. 0. 7.
      28. 2. 0. 111. 96. 3. 7. 9. 2. 0.</_>
    <_>
      0. 0. 0. 0. 0. 0. 0. 0. 0. 0. 0. 1. 1. 0. 0. 0. 1. 0. 0. 2. 0. 0.
      3. 13. 0. 0. 0. 0. 0. 0. 3. 8. 0. 0. 10. 59. 9. 0. 0. 0. 17. 8.
      37. 144. 45. 0. 0. 1. 144. 17. 22. 36. 3. 0. 14. 144. 27. 1. 0. 0.
      0. 0. 19. 102. 0. 0. 33. 65. 1. 0. 1. 1. 61. 53. 94. 144. 5. 1.
      13. 7. 144. 144. 9. 9. 0. 0. 2. 53. 82. 129. 0. 0. 0. 0. 1. 24. 0.
      0. 2. 1. 0. 0. 10. 2. 11. 18. 7. 1. 3. 76. 132. 12. 69. 144. 2. 0.
      3. 33. 14. 1. 75. 106. 0. 0. 0. 0. 0. 0.</_>
    <_>
      6. 11. 14. 25. 8. 0. 0. 0. 36. 19. 5. 2. 4. 2. 8. 32. 26. 0. 0. 2.
      4. 3. 79. 156. 2. 0. 0. 0. 0. 3. 156. 96. 31. 3. 1. 10. 30. 1. 0.
      3. 156. 13. 0. 0. 0. 0. 0. 32. 156. 19. 0. 0. 0. 0. 9. 119. 63. 3.
      0. 0. 0. 0. 56. 51. 32. 1. 0. 2. 31. 2. 1. 16. 156. 5. 0. 0. 0. 0.
      0. 39. 156. 15. 0. 0. 0. 0. 0. 24. 100. 5. 0. 0. 0. 0. 0. 4. 39.
      7. 1. 6. 18. 2. 0. 7. 144. 2. 0. 0. 0. 0. 0. 30. 156. 7. 0. 0. 0.
      0. 0. 35. 75. 3. 0. 0. 0. 0. 0. 7.</_>
    <_>
      0. 0. 7. 136. 22. 0. 0. 0. 9. 2. 42. 136. 8. 0. 1. 10. 3. 0. 33.
      48. 0. 0. 32. 36. 0. 0. 7. 9. 0. 4. 70. 9. 7. 2. 8. 136. 136. 27.
      1. 1. 113. 10. 16. 60. 5. 3. 2. 37. 34. 2. 0. 0. 0. 0. 19. 67. 0.
      0. 0. 0. 0. 4. 37. 10. 4. 0. 0. 9. 90. 136. 58. 2. 95. 14. 0. 1.
      2. 99. 101. 21. 47. 37. 1. 0. 0. 6. 11. 10. 2. 10. 6. 1. 1. 2. 2.
      2. 0. 0. 0. 0. 1. 136. 57. 0. 2. 1. 0. 0. 0. 136. 136. 3. 4. 12.
      2. 0. 0. 136. 76. 2. 0. 11. 21. 1. 0. 32. 16. 0.</_>
    <_>
      0. 1. 15. 15. 21. 18. 1. 0. 88. 87. 16. 7. 3. 9. 4. 4. 143. 143.
      1. 0. 0. 0. 0. 0. 18. 14. 0. 0. 0. 0. 0. 0. 0. 0. 32. 24. 4. 13.
      48. 38. 40. 57. 45. 24. 10. 75. 66. 27. 143. 122. 7. 1. 0. 3. 12.
      75. 65. 9. 0. 0. 0. 0. 0. 8. 13. 0. 0. 0. 1. 22. 94. 143. 9. 2. 1.
      0. 2. 143. 143. 93. 89. 3. 0. 0. 0. 8. 96. 143. 18. 0. 0. 0. 0. 0.
      0. 23. 31. 0. 0. 0. 0. 2. 6. 111. 0. 0. 0. 0. 0. 13. 40. 12. 0. 0.
      0. 0. 0. 1. 17. 21. 0. 0. 0. 0. 0. 0. 0. 2.</_>
    <_>
      0. 0. 4. 6. 0. 0. 0. 0. 0. 5. 34. 10. 0. 0. 0. 0. 0. 15. 18. 0. 0.
      0. 0. 0. 0. 2. 1. 0. 0. 0. 0. 0. 0. 0. 28. 141. 6. 0. 0. 0. 7. 50.
      141. 141. 8. 0. 0. 1. 75. 141. 116. 8. 0. 0. 0. 3. 20. 24. 1. 0.
      0. 0. 0. 0. 1. 1. 27. 141. 20. 1. 0. 0. 41. 21. 39. 127. 53. 34.
      5. 20. 141. 141. 26. 4. 2. 5. 2. 49. 51. 60. 33. 0. 0. 0. 0. 3. 6.
      1. 11. 57. 13. 4. 5. 14. 13. 7. 1. 2. 12. 47. 7. 12. 39. 140. 40.
      0. 3. 14. 5. 4. 2. 117. 141. 0. 0. 0. 2. 0.</_>
    <_>
      51. 48. 2. 0. 1. 14. 3. 3. 68. 26. 16. 10. 4. 7. 2. 4. 168. 46. 3.
      1. 0. 0. 2. 17. 42. 2. 0. 0. 0. 0. 4. 8. 11. 34. 11. 2. 3. 168.
      75. 1. 61. 48. 71. 41. 4. 53. 94. 27. 168. 82. 12. 5. 0. 1. 20.
      85. 67. 3. 0. 0. 0. 0. 0. 5. 0. 0. 0. 0. 1. 80. 67. 0. 12. 1. 2.
      3. 2. 73. 168. 76. 125. 2. 0. 0. 0. 2. 124. 168. 21. 0. 0. 0. 0.
      0. 0. 16. 0. 0. 0. 0. 0. 0. 0. 0. 0. 0. 0. 0. 0. 0. 8. 4. 0. 0. 0.
      0. 0. 0. 8. 13. 0. 0. 0. 0. 0. 0. 0. 1.</_>
    <_>
      1. 72. 159. 1. 0. 0. 0. 0. 19. 159. 70. 0. 0. 0. 0. 0. 10. 27. 1.
      0. 0. 0. 0. 0. 0. 0. 0. 0. 0. 0. 0. 0. 43. 61. 105. 2. 3. 6. 0. 0.
      159. 159. 21. 0. 0. 0. 0. 4. 117. 26. 0. 0. 0. 0. 0. 4. 1. 0. 0.
      0. 0. 0. 0. 0. 69. 1. 0. 0. 24. 22. 1. 24. 159. 2. 0. 0. 0. 0. 0.
      106. 116. 0. 0. 0. 0. 0. 0. 27. 1. 0. 0. 0. 0. 0. 0. 0. 69. 0. 0.
      1. 20. 14. 6. 70. 159. 0. 0. 0. 0. 0. 0. 159. 30. 0. 0. 0. 0. 0.
      0. 20. 0. 0. 0. 0. 0. 0. 0. 0.</_>
    <_>
      0. 0. 10. 138. 52. 1. 1. 0. 65. 2. 0. 69. 49. 4. 9. 25. 144. 19.
      0. 0. 0. 0. 0. 14. 9. 3. 0. 0. 0. 0. 0. 0. 0. 0. 2. 52. 87. 121.
      100. 2. 100. 6. 0. 17. 21. 77. 144. 41. 144. 75. 0. 0. 0. 8. 12.
      30. 18. 12. 0. 0. 0. 0. 0. 0. 0. 0. 0. 0. 4. 124. 144. 1. 15. 0.
      0. 0. 47. 144. 144. 18. 119. 8. 0. 0. 16. 61. 27. 45. 3. 1. 0. 0.
      0. 0. 0. 0. 0. 0. 0. 0. 1. 3. 7. 0. 0. 0. 0. 0. 35. 30. 5. 0. 3.
      0. 0. 0. 14. 11. 2. 2. 0. 0. 0. 0. 0. 0. 0. 0.</_>
    <_>
      6. 16. 130. 10. 0. 0. 1. 1. 5. 54. 130. 1. 0. 0. 5. 27. 7. 78.
      126. 0. 0. 0. 42. 60. 3. 27. 39. 0. 0. 1. 35. 11. 49. 23. 6. 0. 0.
      5. 5. 14. 109. 18. 5. 0. 0. 0. 23. 130. 33. 6. 2. 0. 0. 1. 130.
      130. 1. 3. 1. 0. 0. 5. 85. 21. 21. 26. 6. 0. 1. 85. 100. 10. 130.
      66. 5. 0. 0. 6. 53. 101. 130. 10. 0. 0. 0. 0. 6. 48. 0. 0. 0. 0.
      0. 0. 2. 1. 0. 0. 0. 0. 0. 37. 103. 7. 41. 1. 0. 0. 0. 5. 114.
      126. 30. 0. 0. 0. 0. 0. 2. 39. 0. 0. 0. 0. 0. 0. 0. 0.</_>
    <_>
      0. 0. 5. 116. 66. 1. 1. 1. 98. 6. 0. 34. 39. 2. 5. 24. 143. 27. 0.
      0. 0. 0. 0. 5. 5. 2. 0. 0. 0. 0. 0. 0. 0. 0. 2. 51. 92. 102. 86.
      4. 143. 14. 0. 10. 18. 45. 143. 52. 143. 77. 0. 0. 0. 3. 8. 24.
      12. 7. 0. 0. 0. 0. 0. 0. 0. 0. 0. 0. 5. 123. 143. 4. 29. 0. 0. 0.
      33. 143. 143. 30. 143. 6. 0. 0. 8. 38. 23. 55. 4. 1. 0. 0. 0. 0.
      0. 0. 0. 0. 0. 0. 1. 5. 12. 0. 2. 0. 0. 0. 27. 32. 7. 2. 16. 0. 0.
      0. 7. 8. 2. 6. 0. 0. 0. 0. 0. 0. 0. 0.</_>
    <_>
      11. 17. 57. 1. 1. 2. 1. 4. 3. 54. 80. 1. 1. 1. 5. 14. 3. 130. 93.
      0. 0. 0. 38. 29. 2. 91. 113. 0. 0. 2. 43. 6. 34. 18. 4. 0. 1. 7.
      6. 11. 75. 11. 4. 0. 1. 6. 42. 130. 20. 6. 3. 0. 0. 0. 130. 130.
      1. 12. 10. 0. 0. 17. 130. 20. 18. 34. 26. 4. 1. 59. 74. 6. 130.
      62. 16. 2. 0. 6. 28. 87. 109. 5. 0. 0. 0. 0. 18. 45. 0. 0. 0. 0.
      0. 1. 12. 2. 1. 1. 1. 1. 0. 80. 130. 8. 70. 3. 1. 0. 0. 14. 130.
      130. 33. 0. 0. 0. 0. 0. 1. 29. 0. 0. 0. 0. 0. 0. 0. 0.</_>
    <_>
      1. 1. 47. 137. 0. 0. 0. 0. 67. 6. 48. 137. 0. 0. 0. 59. 42. 1. 5.
      7. 0. 0. 0. 96. 0. 0. 0. 0. 0. 0. 0. 0. 19. 9. 39. 137. 6. 0. 0.
      1. 137. 62. 22. 23. 0. 0. 0. 60. 106. 53. 8. 0. 0. 0. 0. 54. 1. 5.
      0. 0. 0. 0. 0. 1. 18. 21. 14. 45. 5. 0. 1. 4. 102. 137. 69. 8. 0.
      0. 0. 6. 94. 137. 77. 1. 0. 0. 0. 13. 34. 41. 1. 0. 0. 0. 0. 2. 3.
      37. 32. 2. 0. 1. 49. 12. 12. 21. 35. 11. 0. 0. 36. 120. 129. 48.
      10. 2. 0. 0. 5. 137. 42. 7. 0. 0. 0. 0. 0. 11.</_>
    <_>
      55. 28. 1. 0. 2. 10. 2. 4. 28. 15. 8. 0. 1. 9. 8. 25. 96. 11. 1.
      0. 0. 1. 42. 144. 9. 0. 0. 0. 0. 0. 115. 103. 18. 27. 5. 0. 2.
      144. 88. 2. 54. 53. 49. 9. 2. 35. 66. 19. 144. 73. 6. 0. 0. 1. 11.
      72. 56. 3. 0. 0. 0. 0. 6. 17. 0. 0. 0. 0. 0. 126. 144. 0. 13. 2.
      2. 2. 1. 101. 144. 53. 122. 4. 0. 0. 0. 3. 112. 144. 26. 0. 0. 0.
      0. 0. 0. 17. 0. 0. 0. 0. 0. 1. 4. 0. 0. 0. 0. 0. 0. 4. 41. 4. 0.
      0. 0. 0. 0. 0. 24. 18. 0. 0. 0. 0. 0. 0. 0. 2.</_>
    <_>
      80. 96. 8. 1. 0. 0. 0. 0. 2. 9. 51. 7. 0. 0. 0. 0. 0. 16. 27. 0.
      0. 0. 0. 0. 0. 2. 0. 0. 0. 0. 0. 0. 35. 151. 117. 18. 1. 0. 0. 0.
      9. 59. 151. 111. 6. 1. 0. 0. 112. 151. 131. 7. 0. 0. 0. 1. 24. 20.
      0. 0. 0. 0. 0. 0. 9. 38. 39. 15. 7. 1. 1. 8. 60. 20. 62. 65. 53.
      13. 2. 21. 151. 64. 15. 3. 3. 2. 1. 68. 48. 6. 0. 0. 0. 0. 0. 3.
      2. 4. 46. 31. 1. 0. 0. 3. 85. 3. 20. 42. 8. 1. 1. 95. 151. 1. 0.
      0. 0. 0. 0. 125. 8. 0. 0. 0. 0. 0. 0. 1.</_>
    <_>
      11. 136. 20. 4. 9. 0. 0. 0. 2. 88. 136. 87. 2. 0. 0. 0. 29. 96.
      136. 77. 4. 1. 0. 0. 62. 95. 16. 0. 0. 0. 0. 0. 5. 37. 17. 7. 18.
      2. 1. 5. 7. 31. 63. 49. 22. 9. 0. 4. 136. 46. 29. 37. 33. 20. 2.
      6. 136. 56. 1. 0. 0. 0. 0. 2. 3. 3. 11. 6. 25. 7. 1. 4. 4. 3. 27.
      60. 8. 1. 0. 3. 136. 8. 9. 49. 14. 3. 0. 43. 136. 6. 0. 0. 0. 0.
      0. 50. 0. 0. 14. 31. 58. 13. 0. 0. 8. 1. 31. 61. 1. 0. 1. 50. 98.
      1. 5. 15. 0. 0. 2. 136. 76. 0. 0. 0. 0. 0. 0. 100.</_>
    <_>
      50. 33. 1. 0. 1. 6. 2. 3. 22. 15. 11. 1. 1. 10. 7. 20. 79. 10. 1.
      0. 0. 1. 47. 145. 7. 0. 0. 0. 0. 0. 113. 122. 16. 28. 6. 1. 1.
      125. 107. 3. 50. 45. 48. 10. 2. 33. 79. 22. 145. 58. 6. 0. 0. 1.
      15. 91. 58. 2. 0. 0. 0. 0. 9. 28. 0. 0. 0. 0. 0. 135. 145. 0. 10.
      1. 1. 1. 1. 89. 145. 52. 103. 2. 0. 0. 0. 2. 113. 145. 25. 0. 0.
      0. 0. 0. 0. 19. 0. 0. 0. 0. 0. 2. 8. 0. 0. 0. 0. 0. 0. 6. 45. 3.
      0. 0. 0. 0. 0. 0. 23. 16. 0. 0. 0. 0. 0. 0. 0. 2.</_>
    <_>
      5. 0. 33. 134. 1. 0. 0. 1. 134. 0. 3. 38. 2. 0. 0. 93. 106. 0. 0.
      0. 0. 0. 0. 110. 2. 0. 0. 0. 0. 0. 0. 5. 21. 7. 24. 30. 1. 1. 1.
      1. 134. 45. 5. 2. 0. 0. 0. 35. 128. 47. 11. 0. 0. 0. 0. 17. 1. 6.
      1. 0. 0. 0. 0. 0. 13. 5. 4. 3. 1. 4. 24. 7. 94. 134. 66. 10. 7. 1.
      6. 4. 36. 134. 134. 6. 2. 0. 0. 0. 31. 102. 9. 0. 0. 0. 0. 0. 3.
      8. 18. 5. 1. 1. 5. 3. 1. 7. 26. 45. 44. 3. 4. 7. 123. 103. 41. 15.
      18. 2. 4. 109. 134. 50. 1. 0. 0. 0. 0. 51.</_>
    <_>
      15. 116. 11. 9. 33. 0. 0. 0. 6. 134. 134. 42. 1. 0. 0. 0. 17. 84.
      134. 62. 2. 0. 0. 0. 48. 98. 21. 0. 0. 0. 0. 0. 2. 17. 8. 12. 51.
      3. 1. 4. 6. 35. 57. 30. 16. 7. 1. 8. 117. 50. 43. 39. 33. 20. 2.
      4. 134. 69. 2. 0. 0. 0. 0. 2. 2. 2. 7. 6. 63. 13. 1. 2. 3. 4. 28.
      51. 7. 1. 0. 4. 134. 8. 9. 54. 16. 3. 0. 34. 134. 6. 0. 0. 0. 0.
      0. 52. 0. 0. 8. 25. 94. 22. 0. 0. 6. 0. 32. 64. 3. 0. 0. 35. 93.
      1. 7. 18. 0. 0. 1. 134. 91. 0. 0. 0. 0. 0. 0. 113.</_>
    <_>
      15. 72. 6. 22. 60. 0. 0. 0. 15. 133. 120. 28. 1. 0. 0. 0. 16. 86.
      133. 47. 2. 0. 0. 0. 44. 94. 21. 0. 0. 0. 0. 0. 1. 9. 4. 13. 86.
      2. 0. 3. 3. 28. 48. 24. 15. 9. 1. 7. 117. 54. 48. 33. 30. 21. 2.
      3. 133. 71. 2. 0. 0. 0. 0. 1. 1. 2. 6. 7. 97. 12. 0. 1. 2. 3. 26.
      51. 7. 2. 0. 3. 133. 8. 9. 53. 17. 4. 0. 27. 133. 6. 0. 0. 0. 0.
      0. 45. 0. 0. 6. 23. 115. 23. 0. 0. 5. 0. 29. 69. 6. 0. 0. 29. 98.
      2. 7. 20. 0. 0. 0. 133. 102. 0. 0. 0. 0. 0. 0. 107.</_>
    <_>
      0. 0. 1. 137. 62. 0. 0. 0. 19. 2. 4. 137. 33. 0. 4. 26. 6. 0. 0.
      8. 2. 0. 40. 70. 0. 0. 0. 0. 0. 1. 63. 16. 10. 4. 3. 137. 137. 18.
      1. 1. 133. 11. 4. 34. 6. 1. 1. 30. 43. 3. 0. 0. 0. 0. 7. 53. 0. 0.
      0. 0. 1. 5. 16. 7. 6. 1. 0. 14. 95. 137. 75. 3. 102. 14. 0. 1. 1.
      64. 115. 27. 40. 34. 7. 0. 0. 8. 10. 7. 0. 6. 18. 5. 1. 0. 0. 0.
      0. 0. 0. 0. 2. 137. 89. 0. 2. 1. 0. 2. 34. 137. 137. 5. 2. 7. 8.
      3. 65. 89. 24. 2. 0. 4. 26. 2. 2. 3. 8. 1.</_>
    <_>
      0. 0. 31. 57. 1. 0. 0. 0. 149. 23. 7. 20. 1. 0. 0. 0. 149. 27. 0.
      0. 0. 0. 0. 3. 25. 3. 0. 0. 0. 0. 0. 1. 2. 1. 10. 12. 5. 1. 0. 0.
      149. 33. 2. 2. 0. 0. 0. 11. 149. 74. 0. 0. 0. 0. 0. 28. 38. 7. 0.
      0. 0. 0. 0. 4. 4. 3. 10. 3. 1. 0. 5. 6. 147. 6. 1. 0. 0. 0. 0.
      149. 149. 7. 0. 0. 0. 0. 0. 149. 21. 0. 0. 0. 0. 0. 0. 14. 5. 0.
      0. 0. 0. 24. 115. 36. 120. 0. 0. 0. 0. 2. 20. 149. 67. 0. 0. 0. 0.
      0. 0. 109. 1. 0. 0. 0. 0. 0. 0. 2.</_>
    <_>
      135. 107. 4. 11. 12. 0. 0. 0. 42. 71. 52. 0. 0. 0. 0. 0. 0. 24.
      30. 0. 0. 0. 0. 0. 0. 3. 0. 0. 0. 0. 0. 0. 34. 130. 36. 11. 5. 0.
      1. 2. 19. 136. 149. 33. 7. 1. 0. 0. 114. 149. 117. 3. 0. 0. 0. 1.
      30. 22. 0. 0. 0. 0. 0. 0. 3. 10. 12. 10. 8. 2. 3. 9. 56. 19. 39.
      37. 50. 15. 2. 16. 149. 58. 10. 2. 3. 2. 1. 66. 75. 5. 0. 0. 0. 0.
      0. 8. 1. 3. 47. 34. 1. 0. 0. 2. 87. 4. 21. 43. 7. 0. 0. 76. 149.
      0. 0. 1. 0. 0. 0. 149. 23. 0. 0. 0. 0. 0. 0. 9.</_>
    <_>
      119. 0. 0. 0. 0. 1. 1. 38. 29. 2. 1. 11. 71. 23. 4. 18. 119. 15.
      1. 5. 25. 7. 3. 34. 49. 1. 0. 0. 19. 20. 9. 24. 119. 0. 0. 2. 5.
      2. 0. 33. 39. 5. 4. 68. 119. 17. 3. 13. 119. 40. 5. 22. 26. 4. 3.
      32. 105. 9. 0. 1. 25. 7. 2. 28. 119. 0. 0. 0. 4. 8. 8. 88. 17. 0.
      0. 6. 58. 119. 85. 51. 71. 2. 0. 2. 7. 23. 68. 119. 107. 1. 0. 0.
      4. 15. 25. 66. 119. 0. 0. 0. 0. 1. 5. 95. 22. 0. 0. 0. 0. 34. 104.
