<?xml version="1.0"?>
<opencv_storage>
<opencv_ml_svm>
  <format>3</format>
  <svmType>C_SVC</svmType>
  <kernel>
    <type>LINEAR</type></kernel>
  <C>1.</C>
  <term_criteria><epsilon>1.1920928955078125e-07</epsilon>
    <iterations>1000</iterations></term_criteria>
  <var_count>128</var_count>
  <class_count>2</class_count>
  <class_labels type_id="opencv-matrix">
    <rows>2</rows>
    <cols>1</cols>
    <dt>i</dt>
    <data>
      0 1</data></class_labels>
  <sv_total>1</sv_total>
  <support_vectors>
    <_>
      4.64373115e-05 7.07397354e-04 6.58118224e-05 -8.37878499e-04
      1.36696253e-04 2.11943057e-04 3.17042213e-05 -5.53515216e-04
      4.48986131e-04 1.25802308e-03 5.83500252e-04 -1.53624802e-04
      -6.93964190e-04 -1.25766470e-04 3.73800343e-04 3.88185028e-04
      1.05120428e-03 6.42786035e-04 -1.16326308e-04 2.17261782e-04
      -3.50287155e-04 -4.87489335e-04 -3.49109876e-04 2.15629974e-04
      3.67745786e-04 -8.95313569e-04 -2.36898413e-04 6.05192326e-04
      4.61095100e-04 -2.27596291e-04 2.50254641e-04 -5.59643668e-04
      9.22889012e-05 1.53913905e-04 4.39911149e-04 -7.65723060e-04
      -7.33503315e-04 7.94660824e-04 7.00056145e-04 2.53852544e-04
      -4.39290627e-04 7.45046127e-05 -1.29250751e-04 -2.14550892e-04
      -3.54289310e-04 -3.55293567e-04 1.28222600e-04 -1.50145803e-04
      -1.85702564e-04 1.12013084e-04 6.83000428e-04 -6.80048019e-04
      -4.07009182e-04 -5.64150105e-04 -3.30269570e-04 1.15784256e-04
      -4.54296503e-04 2.88926531e-04 -3.88453918e-04 -4.22893761e-04
      -4.29350766e-04 -3.40878207e-04 3.47802648e-04 -5.07873599e-04
      -3.15509591e-04 -3.74757074e-04 -3.88921588e-04 -3.06484035e-05
      -7.70524144e-04 1.39707956e-03 6.07046648e-04 -5.51945006e-04
      -8.92343698e-04 -3.10681098e-05 -3.25375324e-04 -3.27222195e-04
      -6.81957405e-04 9.39038349e-04 -1.79236940e-05 7.87805475e-04
      8.99199877e-05 -3.62231804e-04 -4.17953823e-04 -3.45801527e-04
      -7.47013328e-05 -2.98878760e-04 3.45761189e-04 -1.29663225e-04
      4.27845225e-05 5.91721968e-04 1.07147178e-04 -8.01862159e-04
      -1.53010464e-04 -2.35657222e-04 -1.13970891e-03 2.75418861e-04
      -5.17631997e-04 3.08100687e-04 -6.42730884e-05 2.17686218e-04
      -4.99589893e-04 1.33112073e-04 -1.06915634e-03 1.15928509e-04
      -5.91976335e-04 -2.12508909e-04 1.97726593e-04 -3.36187397e-04
      -2.83174450e-04 -3.76719690e-04 1.92410371e-05 3.17057158e-04
      -4.04596503e-04 4.64894292e-05 1.09154069e-04 -3.68923531e-04
      -9.27554793e-04 1.90808089e-04 5.28457516e-04 6.82191239e-05
      2.31244165e-04 -9.76363954e-04 -5.34714549e-04 -1.09395524e-03
      -1.47938030e-04 2.63196816e-05 -6.98364049e-04 -1.77750815e-04</_></support_vectors>
  <uncompressed_sv_total>1619</uncompressed_sv_total>
  <uncompressed_support_vectors>
    <_>
      3. 1. 0. 0. 0. 0. 0. 0. 175. 2. 0. 0. 0. 0. 0. 13. 200. 29. 3. 0.
      0. 0. 0. 38. 78. 76. 47. 1. 0. 0. 0. 8. 4. 2. 0. 0. 0. 0. 0. 0.
      200. 10. 0. 0. 0. 0. 0. 3. 200. 29. 1. 0. 0. 0. 0. 5. 64. 9. 10.
      1. 0. 0. 0. 3. 4. 2. 0. 0. 0. 0. 0. 0. 197. 19. 0. 0. 0. 0. 0. 7.
      200. 66. 0. 0. 0. 0. 0. 6. 18. 2. 0. 0. 0. 0. 0. 0. 1. 1. 0. 1. 0.
      0. 0. 0. 44. 34. 0. 0. 0. 0. 0. 0. 31. 33. 0. 0. 0. 0. 0. 0. 0. 0.
      0. 0. 0. 0. 0. 0.</_>
    <_>
      4. 11. 3. 9. 7. 0. 3. 6. 0. 1. 1. 119. 116. 1. 1. 1. 48. 2. 1. 85.
      103. 3. 4. 90. 113. 3. 0. 1. 1. 0. 1. 113. 1. 10. 8. 51. 31. 6. 0.
      0. 9. 7. 11. 126. 126. 17. 5. 2. 126. 28. 12. 59. 26. 4. 5. 74.
      98. 5. 0. 0. 0. 0. 0. 63. 0. 0. 0. 14. 59. 57. 2. 0. 6. 1. 1. 40.
      81. 126. 91. 8. 126. 34. 1. 5. 5. 48. 90. 51. 89. 65. 0. 0. 0. 0.
      1. 3. 0. 1. 3. 3. 9. 23. 3. 0. 0. 0. 1. 1. 1. 77. 42. 0. 12. 6. 0.
      0. 0. 79. 67. 6. 22. 55. 3. 1. 1. 12. 15. 4.</_>
    <_>
      49. 0. 0. 0. 0. 0. 0. 1. 174. 11. 1. 0. 0. 0. 0. 3. 65. 14. 11.
      27. 16. 4. 0. 1. 128. 7. 2. 11. 10. 3. 0. 6. 63. 1. 0. 0. 0. 0. 0.
      2. 174. 3. 1. 1. 1. 1. 0. 13. 68. 4. 5. 20. 28. 12. 1. 5. 174. 5.
      2. 6. 11. 2. 0. 4. 66. 0. 0. 0. 0. 0. 1. 4. 174. 5. 1. 2. 1. 1. 0.
      7. 62. 5. 4. 33. 23. 6. 0. 1. 174. 3. 0. 7. 9. 1. 0. 3. 53. 0. 0.
      0. 0. 0. 0. 4. 174. 4. 0. 1. 1. 1. 0. 5. 46. 4. 1. 18. 27. 6. 0.
      1. 174. 5. 0. 4. 7. 0. 0. 0.</_>
    <_>
      12. 9. 120. 37. 0. 0. 0. 18. 1. 5. 130. 77. 0. 0. 0. 1. 5. 29.
      130. 76. 0. 0. 0. 1. 3. 47. 130. 13. 1. 0. 0. 1. 0. 23. 128. 32.
      0. 0. 0. 0. 5. 13. 105. 75. 5. 1. 2. 2. 89. 26. 47. 39. 4. 1. 2.
      16. 25. 12. 16. 49. 20. 1. 1. 10. 5. 25. 38. 4. 1. 31. 72. 11. 17.
      13. 17. 20. 7. 10. 77. 71. 51. 9. 7. 18. 7. 22. 66. 37. 18. 26.
      10. 50. 17. 30. 15. 1. 1. 0. 0. 0. 0. 98. 130. 11. 3. 0. 0. 0. 0.
      41. 130. 74. 0. 0. 0. 0. 2. 58. 130. 20. 2. 3. 0. 1. 57. 114. 77.
      4.</_>
    <_>
      30. 127. 33. 1. 0. 0. 0. 3. 26. 139. 21. 1. 17. 26. 0. 0. 5. 5. 0.
      0. 31. 62. 2. 0. 0. 0. 0. 0. 1. 3. 0. 0. 42. 140. 140. 3. 0. 0. 0.
      14. 140. 140. 30. 1. 5. 2. 0. 16. 47. 10. 0. 6. 56. 31. 1. 1. 0.
      0. 0. 0. 5. 6. 1. 0. 82. 61. 21. 0. 0. 0. 30. 140. 140. 17. 4. 6.
      1. 0. 11. 140. 40. 4. 5. 29. 17. 2. 4. 28. 3. 0. 0. 1. 2. 1. 7.
      24. 57. 5. 0. 0. 0. 0. 15. 140. 63. 2. 0. 2. 1. 0. 11. 88. 12. 1.
      1. 3. 2. 1. 13. 124. 3. 0. 0. 0. 0. 0. 12. 70.</_>
    <_>
      44. 136. 18. 0. 0. 0. 0. 0. 2. 57. 43. 0. 0. 1. 2. 0. 0. 10. 13.
      0. 11. 14. 4. 0. 12. 1. 0. 0. 7. 17. 12. 11. 21. 136. 43. 1. 2. 1.
      15. 37. 18. 136. 136. 0. 0. 1. 5. 3. 83. 124. 53. 0. 1. 2. 1. 4.
      14. 5. 0. 0. 0. 2. 9. 5. 11. 5. 8. 52. 26. 6. 35. 85. 125. 82. 43.
      45. 10. 3. 8. 8. 136. 39. 3. 0. 0. 0. 0. 34. 24. 2. 0. 0. 0. 0. 0.
      4. 5. 4. 35. 136. 49. 3. 9. 12. 136. 92. 16. 48. 12. 0. 1. 10.
      136. 136. 1. 0. 0. 0. 0. 3. 18. 16. 0. 0. 0. 0. 0. 0.</_>
    <_>
      6. 9. 9. 78. 109. 2. 1. 3. 131. 23. 7. 10. 12. 2. 2. 84. 149. 1.
      0. 0. 0. 0. 0. 88. 11. 2. 0. 0. 0. 0. 0. 5. 14. 9. 5. 87. 108. 6.
      0. 2. 149. 44. 4. 7. 23. 3. 0. 53. 149. 3. 0. 0. 0. 0. 3. 59. 5.
      2. 0. 0. 0. 0. 2. 4. 14. 2. 0. 6. 70. 55. 18. 10. 149. 34. 0. 1.
      22. 22. 13. 77. 149. 11. 0. 0. 0. 0. 1. 20. 1. 0. 0. 0. 0. 0. 1.
      1. 28. 19. 9. 3. 7. 33. 25. 23. 149. 2. 2. 1. 1. 21. 22. 149. 60.
      0. 0. 0. 0. 0. 0. 35. 1. 0. 0. 0. 0. 0. 0. 0.</_>
    <_>
      0. 0. 0. 1. 170. 37. 1. 1. 32. 15. 7. 7. 18. 6. 1. 4. 78. 17. 2.
      0. 0. 0. 0. 8. 1. 0. 0. 0. 0. 0. 0. 0. 0. 0. 0. 3. 170. 30. 0. 0.
      43. 31. 14. 35. 94. 20. 1. 2. 170. 49. 5. 4. 2. 1. 1. 15. 12. 0.
      0. 0. 0. 0. 0. 2. 0. 0. 0. 4. 170. 27. 0. 0. 40. 3. 0. 7. 97. 52.
      14. 21. 170. 5. 0. 1. 2. 7. 9. 65. 42. 0. 0. 0. 0. 0. 0. 8. 0. 0.
      0. 7. 170. 9. 0. 0. 32. 5. 0. 5. 50. 3. 3. 9. 170. 17. 0. 0. 0. 1.
      1. 25. 79. 3. 0. 0. 0. 0. 0. 6.</_>
    <_>
      22. 13. 18. 34. 21. 18. 6. 22. 80. 21. 4. 7. 21. 19. 16. 67. 4. 6.
      10. 30. 62. 42. 30. 12. 12. 22. 31. 39. 37. 41. 86. 14. 42. 13.
      12. 22. 9. 40. 45. 8. 126. 33. 6. 12. 21. 39. 21. 31. 17. 10. 27.
      104. 126. 80. 22. 9. 2. 35. 109. 112. 85. 7. 5. 3. 50. 29. 9. 54.
      26. 20. 15. 14. 126. 35. 73. 106. 21. 5. 1. 23. 9. 11. 71. 126.
      126. 20. 8. 2. 17. 26. 19. 42. 68. 26. 38. 63. 30. 35. 39. 36. 14.
      3. 1. 13. 23. 27. 43. 67. 34. 21. 4. 15. 35. 10. 16. 25. 31. 47.
      31. 41. 17. 14. 6. 3. 28. 34. 68. 79.</_>
    <_>
      0. 1. 0. 0. 0. 0. 0. 0. 75. 137. 1. 0. 0. 0. 2. 2. 178. 178. 0. 0.
      0. 0. 0. 0. 29. 63. 8. 0. 0. 0. 0. 0. 0. 0. 0. 0. 0. 0. 0. 0. 104.
      19. 2. 4. 1. 1. 5. 4. 178. 48. 0. 0. 0. 0. 0. 4. 94. 16. 2. 0. 0.
      0. 1. 9. 0. 0. 0. 0. 0. 0. 0. 0. 106. 5. 1. 2. 1. 0. 0. 11. 178.
      31. 0. 0. 0. 0. 0. 11. 102. 24. 0. 0. 0. 0. 0. 2. 0. 0. 0. 0. 0.
      0. 0. 0. 56. 17. 0. 0. 0. 0. 0. 2. 178. 114. 0. 0. 0. 0. 0. 1. 99.
      36. 0. 0. 0. 0. 0. 2.</_>
    <_>
      0. 2. 3. 9. 39. 2. 0. 0. 1. 15. 72. 45. 8. 0. 0. 0. 8. 39. 126.
      21. 0. 0. 0. 0. 19. 22. 18. 2. 0. 0. 0. 2. 0. 0. 1. 22. 95. 8. 0.
      0. 8. 10. 82. 127. 127. 39. 8. 4. 127. 111. 118. 61. 7. 8. 9. 23.
      107. 38. 2. 0. 0. 0. 0. 6. 0. 0. 0. 2. 63. 47. 1. 0. 6. 2. 2. 24.
      102. 127. 127. 12. 127. 17. 2. 6. 6. 46. 127. 117. 57. 44. 1. 0.
      0. 0. 22. 34. 0. 0. 0. 0. 13. 11. 4. 0. 0. 0. 0. 0. 2. 34. 60. 1.
      0. 0. 0. 0. 0. 9. 108. 15. 1. 0. 0. 0. 0. 0. 42. 23.</_>
    <_>
      0. 0. 0. 0. 0. 0. 112. 35. 0. 0. 0. 0. 0. 9. 135. 37. 2. 0. 0. 0.
      0. 1. 135. 132. 0. 0. 0. 0. 0. 0. 135. 71. 0. 2. 1. 0. 2. 6. 135.
      71. 9. 0. 0. 0. 36. 99. 135. 47. 112. 9. 0. 0. 4. 16. 97. 135. 21.
      4. 0. 0. 2. 2. 122. 47. 6. 15. 11. 1. 5. 3. 17. 6. 12. 4. 1. 1.
      97. 51. 6. 3. 135. 19. 0. 0. 21. 13. 2. 5. 53. 8. 0. 0. 2. 3. 1.
      2. 12. 4. 2. 1. 2. 1. 2. 9. 9. 2. 0. 0. 82. 14. 0. 3. 104. 16. 0.
      0. 31. 8. 1. 6. 57. 8. 0. 0. 0. 1. 1. 2.</_>
    <_>
      1. 3. 16. 52. 57. 38. 1. 0. 21. 53. 35. 20. 18. 27. 2. 1. 14. 42.
      107. 32. 0. 0. 0. 4. 17. 57. 28. 4. 0. 0. 3. 6. 0. 17. 116. 44.
      11. 7. 0. 1. 5. 14. 64. 144. 34. 10. 3. 4. 120. 53. 47. 21. 1. 0.
      2. 26. 72. 30. 9. 0. 0. 0. 5. 31. 7. 25. 26. 19. 8. 8. 32. 14. 5.
      6. 9. 35. 27. 36. 77. 19. 79. 49. 33. 18. 8. 4. 27. 50. 49. 61.
      36. 0. 0. 0. 19. 136. 18. 72. 14. 1. 1. 13. 19. 23. 15. 21. 1. 7.
      18. 27. 128. 71. 6. 5. 8. 16. 13. 12. 148. 148. 29. 18. 17. 3. 0.
      0. 98. 148.</_>
    <_>
      10. 3. 0. 3. 143. 22. 1. 3. 36. 19. 1. 2. 4. 2. 3. 14. 18. 65. 8.
      6. 7. 3. 1. 1. 143. 143. 1. 0. 0. 0. 0. 0. 9. 4. 1. 9. 143. 36. 0.
      1. 75. 23. 2. 3. 7. 6. 2. 11. 27. 9. 4. 7. 14. 26. 3. 5. 143. 56.
      1. 0. 1. 2. 0. 2. 3. 1. 1. 1. 143. 128. 0. 1. 28. 49. 25. 3. 23.
      14. 1. 3. 16. 26. 54. 17. 4. 2. 0. 1. 143. 52. 5. 1. 0. 0. 0. 0.
      0. 4. 20. 13. 143. 132. 0. 0. 1. 6. 7. 8. 49. 53. 8. 3. 14. 10.
      13. 2. 0. 2. 2. 6. 143. 74. 1. 0. 0. 0. 0. 4.</_>
    <_>
      17. 3. 26. 47. 0. 0. 6. 41. 8. 5. 110. 117. 0. 0. 1. 8. 17. 24.
      117. 82. 1. 0. 1. 8. 7. 23. 38. 75. 8. 0. 0. 0. 9. 4. 40. 117. 49.
      0. 0. 4. 70. 25. 72. 99. 7. 0. 3. 21. 26. 7. 21. 117. 31. 2. 6.
      33. 14. 49. 70. 113. 13. 2. 0. 5. 6. 1. 1. 45. 117. 39. 10. 7. 96.
      15. 7. 21. 13. 11. 24. 36. 10. 5. 6. 83. 60. 34. 61. 11. 21. 10.
      7. 23. 24. 40. 85. 90. 0. 0. 0. 3. 42. 38. 52. 7. 2. 0. 0. 1. 1.
      7. 112. 85. 0. 0. 0. 2. 1. 12. 117. 73. 0. 0. 0. 0. 0. 21. 117.
      57.</_>
    <_>
      4. 10. 7. 94. 129. 0. 0. 0. 129. 3. 1. 47. 86. 0. 0. 68. 76. 13.
      18. 20. 2. 1. 0. 62. 2. 8. 12. 19. 102. 26. 1. 2. 15. 17. 17. 129.
      129. 0. 0. 1. 129. 10. 2. 39. 55. 0. 0. 24. 66. 16. 43. 71. 23. 0.
      0. 4. 1. 9. 67. 109. 43. 1. 0. 0. 20. 10. 16. 91. 116. 0. 0. 1.
      129. 71. 4. 16. 22. 0. 0. 8. 31. 24. 15. 70. 83. 6. 1. 1. 0. 0.
      24. 56. 42. 18. 8. 1. 9. 4. 1. 36. 74. 7. 1. 0. 124. 62. 2. 4. 10.
      2. 0. 0. 30. 28. 6. 19. 45. 9. 1. 0. 0. 0. 7. 27. 37. 16. 7. 2.</_>
    <_>
      0. 0. 1. 125. 99. 0. 0. 0. 0. 0. 31. 124. 17. 0. 0. 0. 13. 18. 33.
      48. 2. 0. 0. 0. 125. 52. 2. 1. 0. 0. 0. 0. 0. 0. 1. 125. 125. 0.
      0. 0. 2. 7. 45. 125. 52. 0. 0. 0. 57. 60. 48. 17. 1. 0. 0. 4. 125.
      46. 1. 0. 0. 0. 0. 7. 0. 0. 0. 88. 125. 1. 0. 0. 6. 4. 10. 60.
      121. 3. 0. 2. 77. 73. 36. 7. 4. 1. 0. 6. 125. 58. 6. 0. 0. 0. 0.
      34. 0. 0. 4. 61. 73. 1. 0. 0. 0. 0. 13. 62. 79. 12. 2. 1. 54. 26.
      38. 11. 2. 2. 4. 27. 125. 18. 3. 0. 0. 0. 0. 45.</_>
    <_>
      133. 5. 0. 0. 3. 1. 0. 1. 91. 3. 0. 1. 80. 3. 0. 1. 79. 6. 0. 0.
      14. 1. 0. 3. 133. 4. 0. 0. 0. 0. 0. 2. 133. 4. 0. 2. 3. 1. 0. 2.
      118. 1. 0. 1. 105. 3. 0. 2. 105. 4. 0. 1. 20. 0. 0. 3. 133. 7. 0.
      0. 0. 0. 0. 1. 133. 14. 0. 2. 7. 0. 0. 0. 123. 5. 0. 2. 108. 3. 0.
      1. 101. 5. 0. 1. 19. 1. 0. 1. 133. 7. 0. 0. 0. 0. 0. 0. 133. 5. 0.
      2. 7. 0. 0. 1. 102. 3. 0. 3. 86. 1. 0. 0. 78. 7. 0. 1. 17. 0. 0.
      0. 133. 7. 0. 0. 0. 0. 0. 0.</_>
    <_>
      11. 90. 146. 44. 3. 4. 3. 1. 146. 146. 31. 0. 0. 0. 0. 1. 46. 22.
      0. 0. 1. 7. 3. 1. 0. 2. 1. 3. 5. 11. 4. 0. 29. 14. 3. 4. 4. 45.
      57. 17. 146. 76. 1. 0. 0. 2. 10. 56. 105. 36. 6. 2. 2. 0. 0. 5. 0.
      1. 1. 9. 13. 2. 1. 0. 8. 5. 1. 4. 15. 33. 22. 5. 107. 146. 31. 0.
      3. 12. 6. 14. 19. 146. 111. 0. 1. 0. 0. 0. 0. 57. 77. 4. 4. 3. 1.
      0. 0. 0. 0. 0. 1. 24. 11. 0. 0. 25. 11. 0. 0. 41. 16. 0. 0. 133.
      75. 0. 1. 22. 12. 0. 0. 89. 146. 3. 2. 3. 1. 0.</_>
    <_>
      11. 27. 33. 6. 11. 24. 0. 0. 11. 6. 25. 28. 2. 2. 9. 7. 1. 0. 1.
      9. 7. 8. 15. 7. 1. 1. 5. 28. 18. 2. 2. 1. 12. 7. 5. 2. 91. 163. 3.
      2. 83. 14. 3. 2. 6. 12. 10. 15. 7. 1. 1. 18. 51. 20. 7. 4. 0. 0.
      2. 29. 31. 14. 3. 0. 3. 0. 0. 0. 49. 163. 80. 3. 33. 3. 4. 11. 8.
      163. 101. 16. 4. 1. 15. 82. 39. 40. 4. 0. 0. 0. 32. 67. 13. 5. 1.
      0. 0. 0. 0. 0. 0. 162. 65. 1. 0. 0. 0. 1. 3. 163. 144. 0. 0. 0. 2.
      15. 24. 163. 65. 0. 0. 0. 6. 16. 31. 88. 2. 0.</_>
    <_>
      0. 0. 138. 120. 0. 0. 0. 0. 1. 3. 138. 84. 0. 0. 1. 1. 1. 1. 105.
      101. 0. 0. 3. 5. 1. 0. 58. 27. 6. 12. 3. 4. 9. 6. 86. 34. 0. 0. 3.
      4. 48. 15. 35. 7. 1. 2. 8. 20. 4. 3. 16. 14. 16. 8. 14. 10. 2. 9.
      26. 6. 4. 10. 3. 4. 6. 2. 4. 1. 1. 4. 29. 20. 29. 34. 13. 2. 1. 4.
      28. 19. 5. 10. 13. 11. 14. 8. 63. 61. 2. 5. 6. 3. 2. 9. 138. 62.
      0. 0. 0. 0. 1. 6. 75. 75. 1. 1. 0. 0. 0. 2. 138. 138. 1. 1. 0. 0.
      0. 0. 138. 138. 0. 0. 0. 0. 0. 0. 138. 138.</_>
    <_>
      0. 1. 6. 82. 60. 6. 0. 0. 0. 2. 17. 79. 30. 0. 0. 0. 156. 27. 24.
      27. 7. 0. 0. 2. 156. 31. 0. 0. 14. 3. 0. 3. 0. 0. 2. 107. 35. 2.
      1. 0. 6. 3. 5. 76. 46. 13. 3. 1. 156. 23. 6. 10. 7. 3. 0. 14. 156.
      49. 3. 5. 10. 1. 0. 3. 0. 0. 0. 14. 36. 26. 34. 6. 6. 0. 0. 3. 46.
      83. 36. 9. 156. 34. 1. 0. 15. 25. 2. 10. 156. 90. 11. 18. 3. 0. 0.
      1. 12. 1. 0. 2. 16. 8. 18. 8. 2. 0. 1. 3. 39. 64. 13. 3. 67. 30.
      2. 2. 39. 61. 1. 2. 156. 68. 2. 8. 21. 3. 0. 1.</_>
    <_>
      0. 0. 0. 76. 162. 1. 0. 0. 34. 1. 0. 54. 162. 2. 3. 38. 20. 13.
      10. 0. 0. 10. 27. 34. 0. 27. 25. 0. 0. 15. 22. 0. 1. 0. 0. 112.
      162. 1. 0. 0. 105. 12. 1. 44. 138. 0. 0. 22. 35. 10. 6. 0. 0. 5.
      12. 18. 1. 4. 2. 0. 0. 12. 30. 1. 1. 2. 1. 130. 162. 0. 0. 0. 42.
      91. 12. 34. 77. 0. 0. 2. 9. 85. 66. 0. 0. 0. 0. 0. 1. 40. 40. 0.
      0. 0. 0. 0. 1. 0. 0. 87. 162. 1. 2. 7. 5. 17. 3. 9. 33. 5. 39. 31.
      1. 33. 30. 0. 0. 13. 34. 2. 1. 43. 37. 0. 0. 3. 9. 1.</_>
    <_>
      0. 154. 41. 0. 0. 33. 7. 0. 0. 16. 3. 0. 0. 27. 6. 0. 0. 0. 0. 0.
      0. 2. 0. 0. 0. 0. 0. 0. 0. 0. 0. 0. 29. 163. 89. 1. 0. 4. 1. 7.
      111. 163. 18. 2. 12. 51. 11. 12. 8. 3. 0. 4. 66. 42. 3. 1. 0. 0.
      0. 0. 2. 0. 0. 0. 107. 57. 4. 1. 0. 0. 0. 163. 163. 69. 1. 35. 17.
      4. 0. 163. 13. 2. 1. 31. 65. 14. 0. 3. 0. 0. 0. 0. 1. 0. 0. 0. 76.
      0. 0. 10. 2. 0. 0. 163. 21. 0. 0. 45. 9. 0. 0. 97. 0. 0. 0. 6. 1.
      0. 0. 0. 0. 0. 0. 0. 0. 0. 0. 0.</_>
    <_>
      2. 16. 25. 131. 119. 9. 0. 0. 72. 2. 2. 81. 87. 0. 0. 18. 42. 0.
      0. 4. 13. 1. 2. 32. 0. 0. 0. 8. 55. 7. 1. 1. 3. 0. 1. 38. 131.
      109. 3. 2. 131. 7. 1. 21. 65. 20. 1. 38. 44. 2. 0. 11. 34. 4. 0.
      20. 0. 0. 0. 9. 52. 10. 0. 0. 2. 0. 0. 0. 131. 131. 1. 2. 85. 57.
      1. 0. 120. 70. 0. 4. 35. 46. 8. 10. 23. 10. 0. 1. 0. 0. 3. 10. 24.
      22. 1. 1. 1. 0. 0. 0. 131. 131. 2. 2. 20. 33. 1. 0. 131. 130. 0.
      0. 33. 55. 15. 9. 4. 3. 0. 1. 6. 4. 9. 11. 2. 2. 1. 2.</_>
    <_>
      10. 32. 15. 11. 4. 3. 2. 3. 14. 81. 25. 0. 0. 0. 0. 2. 113. 117.
      15. 0. 0. 0. 0. 4. 136. 136. 0. 0. 0. 0. 0. 6. 17. 7. 3. 3. 2. 2.
      15. 17. 15. 36. 27. 14. 17. 8. 12. 13. 136. 65. 17. 2. 1. 1. 3.
      42. 136. 85. 0. 0. 0. 0. 0. 20. 48. 20. 0. 0. 2. 3. 9. 21. 20. 2.
      1. 3. 12. 17. 114. 104. 99. 17. 3. 4. 3. 3. 68. 136. 136. 136. 8.
      2. 0. 0. 1. 7. 65. 9. 0. 0. 1. 16. 22. 19. 90. 40. 3. 3. 2. 0. 24.
      57. 4. 8. 12. 45. 28. 6. 21. 19. 40. 103. 29. 18. 4. 2. 1. 1.</_>
    <_>
      0. 0. 0. 22. 132. 1. 0. 0. 0. 0. 0. 18. 111. 9. 3. 1. 3. 11. 0. 4.
      76. 51. 7. 0. 100. 133. 0. 1. 4. 14. 3. 1. 0. 0. 1. 53. 133. 20.
      0. 0. 59. 9. 7. 57. 55. 15. 13. 18. 15. 1. 0. 0. 41. 133. 26. 11.
      47. 51. 0. 0. 29. 59. 4. 1. 1. 0. 0. 12. 133. 133. 1. 1. 122. 24.
      2. 11. 51. 68. 9. 13. 35. 21. 3. 2. 51. 75. 2. 3. 3. 8. 0. 0. 36.
      130. 1. 0. 0. 0. 0. 0. 59. 133. 2. 0. 15. 9. 0. 0. 24. 133. 19. 5.
      21. 20. 2. 0. 6. 31. 6. 3. 2. 1. 0. 0. 34. 74. 2. 0.</_>
    <_>
      18. 0. 0. 0. 0. 0. 0. 3. 179. 0. 0. 0. 0. 0. 0. 62. 143. 0. 0. 1.
      11. 0. 0. 24. 2. 0. 0. 0. 7. 1. 0. 2. 40. 2. 0. 0. 0. 0. 0. 4.
      179. 63. 13. 0. 0. 0. 0. 44. 115. 40. 90. 7. 6. 0. 0. 10. 2. 12.
      60. 3. 3. 0. 0. 1. 17. 11. 0. 0. 0. 0. 0. 0. 111. 179. 92. 0. 0.
      0. 0. 1. 12. 113. 179. 1. 0. 0. 0. 0. 0. 64. 179. 0. 0. 0. 0. 0.
      0. 0. 0. 0. 0. 0. 0. 0. 1. 7. 7. 0. 0. 0. 0. 0. 0. 7. 35. 0. 0. 0.
      0. 0. 0. 8. 49. 0. 0. 0. 0. 0.</_>
    <_>
      0. 0. 12. 128. 72. 0. 0. 0. 12. 1. 3. 118. 53. 4. 13. 31. 4. 0. 0.
      4. 9. 7. 82. 105. 0. 0. 0. 1. 2. 27. 87. 14. 7. 1. 16. 128. 87.
      11. 0. 0. 128. 12. 8. 38. 10. 0. 1. 45. 32. 4. 43. 56. 1. 2. 6.
      56. 0. 19. 69. 22. 3. 11. 8. 1. 8. 4. 0. 7. 128. 102. 5. 0. 102.
      62. 14. 17. 20. 9. 8. 5. 12. 16. 55. 128. 23. 1. 0. 1. 1. 52. 85.
      26. 3. 0. 0. 0. 1. 1. 0. 1. 37. 128. 98. 1. 13. 11. 2. 3. 23. 128.
      102. 8. 2. 3. 2. 14. 69. 36. 4. 1. 0. 17. 12. 7. 24. 4. 0. 0.</_>
    <_>
      10. 13. 95. 91. 19. 0. 0. 0. 4. 12. 130. 70. 1. 0. 0. 1. 1. 24.
      112. 43. 14. 1. 0. 1. 0. 70. 153. 16. 2. 0. 0. 0. 6. 5. 14. 85.
      77. 0. 0. 0. 56. 21. 21. 16. 7. 3. 1. 14. 7. 4. 8. 32. 85. 13. 1.
      6. 0. 10. 26. 10. 18. 2. 0. 0. 5. 8. 4. 38. 62. 19. 10. 1. 30. 48.
      28. 14. 4. 1. 27. 8. 2. 6. 22. 68. 23. 4. 56. 4. 0. 0. 1. 14. 6.
      6. 50. 0. 1. 2. 3. 2. 10. 90. 163. 24. 3. 9. 6. 1. 0. 5. 163. 101.
      0. 2. 5. 3. 0. 9. 163. 36. 0. 0. 1. 0. 0. 38. 163. 0.</_>
    <_>
      1. 7. 60. 157. 91. 4. 2. 1. 15. 7. 27. 157. 73. 0. 0. 0. 5. 2. 6.
      61. 44. 1. 0. 0. 0. 0. 1. 43. 47. 2. 0. 0. 5. 4. 6. 157. 157. 10.
      3. 1. 97. 16. 9. 118. 83. 0. 0. 6. 17. 3. 1. 36. 86. 1. 0. 1. 0.
      0. 0. 17. 54. 22. 0. 0. 25. 3. 6. 157. 157. 2. 6. 33. 93. 19. 10.
      28. 8. 7. 6. 49. 5. 8. 10. 29. 73. 10. 1. 0. 5. 8. 7. 5. 18. 22.
      5. 6. 15. 0. 1. 42. 69. 9. 31. 48. 43. 1. 1. 5. 16. 27. 19. 53. 1.
      1. 3. 20. 49. 42. 3. 1. 24. 7. 1. 4. 12. 10. 4. 16.</_>
    <_>
      0. 0. 0. 0. 22. 45. 43. 9. 34. 2. 1. 13. 97. 69. 7. 22. 122. 32.
      0. 2. 3. 4. 2. 82. 53. 32. 0. 0. 0. 0. 0. 29. 1. 0. 1. 10. 48. 34.
      13. 10. 20. 17. 5. 38. 122. 47. 3. 8. 122. 94. 4. 6. 8. 2. 1. 14.
      99. 54. 0. 0. 0. 0. 0. 1. 2. 1. 5. 93. 61. 2. 7. 12. 25. 15. 8.
      116. 122. 3. 2. 21. 122. 43. 2. 3. 6. 1. 1. 50. 110. 31. 1. 0. 0.
      0. 0. 3. 0. 2. 63. 122. 20. 0. 0. 0. 26. 73. 43. 122. 23. 0. 0. 2.
      122. 120. 4. 0. 0. 0. 0. 5. 87. 23. 3. 3. 0. 0. 0. 4.</_>
    <_>
      4. 34. 143. 76. 7. 0. 0. 0. 4. 27. 143. 55. 0. 0. 1. 3. 0. 7. 143.
      125. 11. 3. 4. 3. 0. 0. 35. 142. 64. 6. 11. 19. 23. 13. 143. 124.
      1. 0. 0. 12. 68. 16. 98. 21. 0. 0. 8. 56. 9. 5. 44. 10. 2. 27. 58.
      34. 5. 0. 4. 9. 3. 18. 44. 76. 22. 3. 8. 9. 0. 0. 41. 89. 113. 12.
      0. 0. 0. 0. 14. 75. 40. 4. 0. 0. 2. 14. 50. 64. 9. 5. 2. 2. 3. 9.
      40. 47. 0. 0. 0. 0. 2. 28. 87. 49. 46. 3. 2. 1. 1. 11. 25. 104.
      24. 3. 13. 55. 10. 6. 18. 72. 3. 17. 24. 46. 12. 5. 6. 1.</_>
    <_>
      34. 154. 27. 0. 0. 0. 0. 1. 96. 155. 3. 0. 0. 0. 13. 10. 13. 52.
      3. 0. 0. 7. 62. 7. 1. 1. 0. 0. 0. 6. 76. 4. 45. 31. 0. 0. 0. 1. 1.
      7. 67. 155. 16. 0. 0. 0. 0. 9. 154. 155. 11. 0. 0. 0. 4. 9. 30. 9.
      0. 0. 0. 0. 17. 16. 27. 14. 2. 1. 1. 2. 1. 6. 124. 45. 1. 0. 0. 0.
      1. 37. 155. 47. 0. 0. 0. 0. 0. 62. 58. 5. 0. 0. 0. 0. 3. 27. 6.
      19. 5. 5. 4. 1. 1. 1. 125. 50. 0. 0. 0. 0. 0. 2. 155. 89. 0. 0. 0.
      0. 0. 5. 43. 47. 5. 0. 0. 0. 0. 4.</_>
    <_>
      6. 0. 0. 0. 188. 101. 0. 1. 97. 8. 1. 3. 44. 12. 0. 9. 12. 3. 1.
      22. 59. 12. 0. 2. 1. 2. 0. 4. 32. 25. 0. 0. 4. 0. 0. 0. 188. 81.
      0. 0. 103. 9. 0. 3. 97. 15. 0. 2. 15. 3. 2. 35. 71. 1. 0. 0. 1. 8.
      5. 12. 13. 16. 4. 1. 1. 0. 0. 0. 188. 48. 0. 1. 70. 3. 0. 4. 117.
      20. 1. 10. 11. 2. 2. 25. 88. 5. 0. 1. 1. 21. 10. 7. 14. 4. 1. 0.
      0. 0. 0. 0. 188. 95. 1. 0. 20. 0. 0. 1. 100. 44. 5. 25. 3. 0. 0.
      2. 76. 22. 1. 4. 1. 3. 1. 1. 13. 17. 4. 1.</_>
    <_>
      0. 0. 11. 125. 21. 0. 0. 0. 0. 0. 0. 28. 8. 0. 0. 0. 1. 0. 0. 1.
      0. 0. 0. 0. 0. 0. 0. 0. 0. 0. 0. 0. 0. 0. 10. 125. 85. 12. 0. 0.
      22. 8. 6. 62. 63. 24. 3. 4. 125. 20. 3. 4. 1. 2. 2. 18. 48. 9. 1.
      0. 0. 0. 0. 4. 0. 0. 0. 7. 74. 122. 18. 0. 17. 2. 1. 3. 26. 116.
      44. 19. 125. 65. 23. 2. 1. 11. 19. 48. 71. 117. 125. 7. 0. 0. 0.
      2. 0. 3. 13. 3. 8. 125. 88. 0. 1. 1. 1. 0. 1. 125. 125. 2. 10. 18.
      26. 11. 12. 124. 86. 3. 1. 24. 125. 22. 11. 54. 19. 1.</_>
    <_>
      18. 0. 0. 70. 130. 1. 0. 4. 18. 0. 0. 9. 98. 16. 1. 7. 106. 2. 0.
      4. 43. 7. 2. 26. 67. 7. 1. 7. 43. 3. 0. 12. 5. 0. 0. 66. 130. 0.
      0. 2. 35. 3. 1. 22. 91. 3. 0. 2. 130. 5. 0. 3. 64. 10. 0. 8. 123.
      3. 0. 1. 67. 14. 1. 36. 0. 0. 0. 70. 130. 0. 0. 0. 41. 1. 0. 8.
      82. 9. 1. 6. 130. 1. 0. 1. 61. 9. 1. 13. 130. 0. 0. 1. 60. 9. 1.
      70. 0. 0. 0. 48. 97. 0. 0. 0. 35. 0. 0. 10. 41. 3. 0. 2. 130. 1.
      0. 0. 35. 8. 1. 9. 130. 0. 0. 0. 31. 10. 2. 92.</_>
    <_>
      0. 0. 11. 156. 32. 0. 0. 0. 28. 12. 37. 100. 9. 0. 0. 1. 156. 18.
      4. 4. 0. 0. 0. 20. 76. 22. 0. 0. 0. 0. 0. 5. 1. 1. 30. 156. 4. 2.
      26. 23. 63. 19. 22. 13. 1. 13. 41. 14. 156. 20. 1. 0. 0. 0. 5. 33.
      75. 7. 0. 0. 0. 1. 0. 8. 0. 0. 2. 8. 0. 3. 144. 104. 18. 0. 0. 0.
      0. 27. 156. 40. 156. 24. 0. 0. 0. 3. 66. 82. 84. 20. 0. 0. 1. 5.
      1. 6. 4. 34. 47. 0. 0. 0. 49. 40. 0. 14. 48. 1. 0. 6. 79. 11. 31.
      26. 35. 1. 0. 2. 34. 35. 35. 60. 12. 0. 0. 2. 0. 5.</_>
    <_>
      0. 6. 14. 18. 3. 0. 0. 0. 30. 52. 25. 13. 2. 0. 0. 0. 153. 84. 2.
      0. 0. 0. 0. 3. 53. 8. 0. 0. 0. 0. 1. 11. 0. 11. 14. 14. 2. 0. 0.
      0. 62. 22. 9. 43. 11. 0. 0. 2. 153. 35. 1. 1. 0. 0. 0. 20. 76. 5.
      0. 0. 0. 0. 0. 27. 0. 11. 46. 48. 2. 0. 0. 0. 98. 57. 55. 76. 4.
      0. 0. 8. 153. 57. 2. 0. 0. 0. 1. 76. 47. 12. 0. 0. 0. 3. 4. 21. 0.
      2. 86. 149. 0. 0. 0. 0. 84. 133. 103. 76. 0. 0. 0. 3. 153. 153. 4.
      0. 0. 0. 0. 5. 30. 71. 9. 0. 0. 7. 4. 3.</_>
    <_>
      0. 2. 6. 2. 3. 1. 0. 0. 16. 14. 10. 1. 0. 0. 0. 1. 152. 6. 0. 0.
      0. 0. 0. 78. 152. 21. 2. 0. 0. 0. 0. 90. 0. 0. 5. 17. 8. 1. 0. 0.
      53. 15. 15. 19. 5. 2. 1. 4. 152. 32. 7. 0. 0. 0. 0. 74. 152. 113.
      32. 0. 0. 0. 0. 35. 0. 0. 3. 6. 2. 6. 10. 4. 51. 6. 1. 4. 5. 15.
      16. 12. 152. 99. 8. 0. 0. 0. 2. 20. 152. 54. 19. 0. 0. 0. 0. 116.
      0. 0. 1. 5. 5. 2. 4. 1. 14. 7. 3. 1. 0. 2. 4. 2. 152. 35. 0. 0. 0.
      0. 0. 16. 152. 14. 3. 0. 0. 0. 0. 64.</_>
    <_>
      0. 0. 1. 111. 85. 14. 5. 0. 0. 0. 2. 116. 128. 9. 4. 0. 9. 34. 12.
      22. 12. 10. 13. 5. 83. 98. 0. 0. 0. 0. 1. 9. 2. 13. 96. 128. 19.
      0. 0. 0. 48. 46. 46. 71. 28. 12. 23. 12. 13. 1. 0. 0. 2. 48. 79.
      29. 53. 17. 1. 0. 1. 4. 15. 62. 18. 23. 68. 128. 18. 28. 97. 30.
      128. 56. 21. 5. 0. 2. 44. 128. 30. 1. 0. 0. 0. 43. 75. 49. 1. 3.
      1. 1. 7. 31. 43. 33. 7. 2. 0. 0. 2. 15. 128. 52. 18. 1. 1. 1. 0.
      1. 97. 128. 3. 0. 1. 4. 3. 36. 46. 30. 0. 0. 0. 0. 8. 34. 23. 5.</_>
    <_>
      0. 7. 47. 11. 1. 0. 0. 0. 0. 18. 129. 30. 1. 0. 0. 0. 1. 52. 138.
      3. 0. 0. 0. 0. 0. 16. 72. 4. 0. 0. 0. 0. 0. 2. 10. 23. 43. 2. 0.
      0. 10. 21. 90. 130. 149. 5. 0. 0. 143. 140. 98. 22. 11. 0. 0. 6.
      41. 27. 21. 0. 0. 1. 1. 10. 1. 1. 3. 6. 57. 3. 0. 0. 36. 3. 2. 13.
      149. 22. 0. 6. 149. 12. 3. 3. 40. 4. 0. 44. 68. 0. 0. 0. 0. 1. 1.
      22. 1. 2. 1. 6. 43. 0. 0. 0. 39. 0. 0. 20. 149. 2. 0. 7. 149. 0.
      0. 1. 25. 1. 0. 41. 42. 2. 1. 0. 0. 0. 0. 9.</_>
    <_>
      0. 1. 1. 5. 9. 12. 2. 0. 0. 3. 30. 48. 19. 7. 2. 0. 0. 22. 48. 15.
      1. 0. 0. 0. 1. 15. 11. 3. 0. 0. 0. 0. 0. 5. 5. 49. 52. 4. 1. 0.
      10. 40. 132. 137. 137. 27. 6. 7. 136. 137. 134. 37. 7. 5. 5. 32.
      36. 25. 3. 1. 0. 1. 3. 8. 0. 1. 1. 18. 77. 27. 1. 0. 10. 8. 8. 44.
      137. 137. 135. 43. 137. 36. 7. 6. 7. 29. 121. 137. 41. 3. 0. 2. 3.
      1. 1. 28. 0. 0. 1. 13. 10. 6. 1. 0. 0. 1. 1. 1. 6. 40. 59. 5. 2.
      1. 0. 0. 1. 12. 55. 33. 2. 0. 0. 2. 2. 4. 4. 5.</_>
    <_>
      53. 0. 0. 0. 1. 1. 4. 43. 11. 6. 13. 12. 5. 8. 9. 16. 17. 19. 15.
      6. 35. 1. 1. 10. 11. 3. 1. 19. 149. 19. 0. 1. 94. 4. 0. 6. 15. 2.
      1. 17. 14. 32. 60. 113. 122. 30. 8. 7. 101. 136. 62. 20. 34. 10.
      6. 24. 19. 6. 0. 1. 149. 51. 1. 8. 89. 4. 0. 1. 9. 7. 1. 5. 19. 4.
      2. 12. 80. 137. 84. 22. 84. 15. 2. 3. 28. 30. 89. 131. 24. 1. 0.
      4. 149. 23. 2. 16. 65. 7. 5. 1. 0. 0. 0. 6. 13. 14. 14. 4. 1. 8.
      14. 3. 1. 7. 6. 5. 19. 3. 16. 9. 17. 2. 0. 34. 149. 7. 1. 3.</_>
    <_>
      3. 40. 26. 0. 0. 10. 14. 2. 43. 87. 83. 0. 0. 6. 19. 62. 119. 70.
      19. 0. 0. 0. 12. 112. 12. 22. 9. 0. 0. 0. 28. 27. 28. 59. 11. 4.
      3. 3. 5. 5. 148. 27. 1. 0. 0. 2. 23. 148. 58. 5. 1. 1. 1. 2. 42.
      148. 3. 2. 0. 0. 0. 2. 50. 30. 79. 27. 26. 7. 1. 0. 0. 29. 148.
      51. 1. 0. 0. 0. 0. 108. 94. 44. 5. 1. 1. 1. 3. 26. 4. 10. 1. 0. 1.
      1. 2. 3. 89. 61. 6. 0. 0. 0. 0. 24. 148. 148. 1. 0. 0. 0. 0. 80.
      44. 64. 1. 0. 0. 0. 1. 19. 2. 16. 3. 0. 1. 0. 1. 1.</_>
    <_>
      0. 1. 25. 22. 0. 0. 2. 2. 1. 0. 8. 18. 1. 0. 13. 55. 2. 0. 1. 3.
      1. 0. 36. 151. 0. 0. 0. 0. 0. 1. 67. 151. 10. 5. 5. 4. 0. 0. 8.
      27. 108. 12. 1. 1. 0. 0. 32. 151. 26. 1. 0. 0. 0. 1. 43. 151. 0.
      0. 0. 0. 3. 6. 14. 50. 18. 11. 6. 13. 5. 5. 48. 42. 151. 42. 3. 2.
      0. 1. 28. 151. 104. 5. 0. 0. 3. 4. 5. 47. 0. 0. 0. 0. 8. 9. 1. 1.
      6. 0. 0. 0. 1. 2. 137. 151. 32. 0. 0. 0. 1. 1. 95. 151. 20. 2. 0.
      0. 1. 2. 2. 25. 0. 0. 0. 0. 5. 7. 0. 0.</_>
    <_>
      15. 12. 2. 13. 43. 7. 1. 2. 74. 37. 0. 0. 1. 3. 1. 10. 14. 4. 0.
      0. 5. 15. 2. 4. 22. 20. 0. 0. 0. 1. 0. 0. 12. 2. 0. 1. 46. 144.
      15. 16. 104. 9. 0. 0. 0. 8. 12. 98. 16. 2. 0. 0. 16. 79. 18. 26.
      11. 14. 0. 0. 6. 18. 0. 0. 10. 3. 5. 10. 63. 144. 25. 5. 133. 16.
      0. 0. 1. 90. 43. 48. 46. 4. 0. 0. 19. 110. 22. 35. 4. 2. 0. 0. 23.
      88. 3. 0. 90. 21. 9. 10. 6. 144. 50. 15. 19. 1. 0. 0. 0. 144. 111.
      49. 26. 0. 0. 0. 5. 85. 65. 117. 1. 0. 0. 0. 54. 144. 17. 5.</_>
    <_>
      0. 23. 170. 59. 0. 0. 0. 0. 1. 115. 170. 0. 0. 1. 1. 1. 0. 152.
      170. 0. 0. 4. 5. 1. 0. 130. 170. 1. 0. 8. 11. 0. 4. 15. 54. 17. 6.
      2. 1. 0. 58. 39. 67. 1. 1. 1. 3. 19. 10. 50. 110. 15. 20. 9. 8.
      12. 20. 170. 116. 8. 6. 0. 0. 0. 7. 14. 3. 2. 7. 6. 3. 1. 46. 51.
      20. 3. 1. 1. 1. 3. 8. 27. 27. 33. 21. 2. 1. 2. 10. 47. 2. 10. 7.
      3. 14. 5. 1. 4. 3. 2. 10. 35. 14. 0. 1. 16. 29. 6. 5. 7. 14. 4.
      15. 34. 22. 2. 1. 1. 13. 24. 12. 10. 6. 14. 5. 3. 12. 9.</_>
    <_>
      116. 5. 0. 0. 0. 0. 0. 8. 172. 30. 0. 2. 8. 1. 0. 2. 40. 11. 3.
      20. 42. 6. 0. 1. 15. 14. 2. 2. 6. 6. 0. 1. 130. 4. 0. 0. 0. 0. 0.
      12. 172. 21. 0. 1. 7. 6. 1. 23. 68. 5. 1. 6. 57. 46. 3. 13. 32. 4.
      0. 0. 6. 5. 3. 21. 98. 5. 0. 0. 0. 0. 17. 41. 172. 24. 0. 0. 2. 3.
      3. 36. 93. 5. 0. 0. 48. 57. 5. 8. 16. 4. 0. 0. 11. 11. 3. 12. 9.
      0. 0. 0. 0. 0. 172. 114. 151. 2. 0. 0. 1. 1. 78. 139. 54. 2. 1.
      10. 38. 13. 1. 12. 4. 6. 1. 4. 17. 6. 1. 1.</_>
    <_>
      3. 48. 47. 1. 0. 0. 0. 0. 1. 21. 59. 9. 0. 0. 0. 0. 46. 17. 31.
      10. 1. 0. 0. 11. 125. 26. 0. 0. 0. 0. 0. 23. 41. 125. 15. 1. 1. 2.
      2. 2. 18. 30. 56. 29. 27. 20. 3. 3. 125. 33. 33. 11. 3. 3. 2. 45.
      125. 1. 0. 0. 0. 0. 0. 72. 49. 125. 13. 1. 1. 3. 6. 3. 43. 125. 8.
      3. 22. 48. 21. 23. 125. 9. 1. 1. 3. 13. 24. 125. 74. 0. 0. 2. 9.
      4. 6. 125. 8. 32. 18. 3. 1. 4. 12. 5. 125. 123. 6. 0. 0. 1. 4. 18.
      125. 92. 1. 0. 0. 0. 4. 125. 18. 12. 1. 7. 16. 4. 3. 52.</_>
    <_>
      0. 0. 0. 0. 4. 24. 78. 14. 20. 5. 2. 12. 64. 49. 29. 9. 141. 10.
      1. 4. 7. 3. 5. 86. 17. 0. 0. 0. 0. 2. 54. 56. 0. 0. 0. 0. 35. 44.
      85. 7. 40. 20. 5. 39. 141. 62. 12. 6. 141. 54. 4. 11. 20. 6. 4.
      46. 76. 1. 0. 0. 0. 3. 32. 65. 0. 0. 0. 1. 28. 53. 12. 2. 13. 1.
      0. 1. 110. 141. 98. 38. 141. 5. 0. 0. 7. 27. 89. 141. 70. 0. 0. 0.
      0. 2. 7. 87. 1. 0. 0. 0. 3. 18. 10. 11. 4. 0. 0. 0. 0. 27. 66. 66.
      11. 0. 0. 0. 0. 3. 70. 112. 19. 0. 0. 0. 0. 1. 8. 49.</_>
    <_>
      44. 0. 0. 0. 0. 0. 4. 28. 156. 1. 0. 0. 0. 0. 0. 37. 104. 16. 1.
      0. 0. 0. 0. 12. 8. 9. 6. 1. 0. 0. 1. 3. 60. 0. 0. 0. 0. 0. 2. 39.
      156. 15. 14. 10. 0. 0. 0. 38. 69. 26. 156. 64. 0. 0. 0. 3. 3. 13.
      156. 53. 0. 0. 0. 0. 46. 8. 0. 0. 0. 0. 2. 36. 153. 63. 64. 90. 3.
      0. 0. 11. 8. 8. 156. 156. 6. 1. 1. 0. 0. 1. 156. 73. 2. 4. 3. 0.
      7. 9. 1. 0. 0. 0. 20. 18. 9. 17. 15. 40. 32. 28. 12. 11. 0. 0. 4.
      48. 24. 20. 8. 5. 0. 0. 2. 3. 1. 7. 11. 1.</_>
    <_>
      3. 157. 159. 3. 0. 0. 0. 0. 30. 154. 31. 0. 0. 0. 0. 0. 6. 7. 1.
      0. 0. 0. 0. 0. 0. 0. 0. 0. 0. 0. 0. 0. 56. 134. 45. 3. 2. 1. 2. 5.
      159. 159. 7. 0. 0. 0. 0. 9. 60. 17. 0. 0. 1. 1. 1. 0. 0. 0. 0. 0.
      0. 0. 0. 0. 131. 10. 1. 2. 15. 7. 0. 22. 159. 10. 0. 0. 0. 0. 0.
      86. 79. 3. 0. 1. 1. 0. 0. 9. 0. 0. 0. 0. 0. 0. 0. 0. 150. 9. 1. 6.
      33. 6. 0. 6. 159. 5. 0. 0. 0. 0. 0. 33. 41. 4. 1. 1. 0. 0. 0. 4.
      1. 1. 0. 0. 0. 0. 0. 1.</_>
    <_>
      0. 38. 134. 21. 0. 0. 0. 0. 1. 86. 134. 1. 0. 0. 0. 0. 0. 55. 134.
      0. 0. 0. 0. 0. 0. 72. 84. 0. 0. 0. 0. 0. 6. 21. 61. 36. 14. 5. 4.
      3. 63. 83. 76. 2. 1. 1. 2. 9. 13. 47. 117. 1. 1. 3. 2. 5. 38. 124.
      60. 0. 0. 1. 1. 31. 11. 12. 8. 3. 3. 5. 11. 6. 36. 29. 17. 2. 0.
      1. 12. 31. 20. 22. 18. 1. 0. 1. 19. 131. 21. 3. 0. 0. 0. 0. 25.
      134. 4. 10. 8. 1. 0. 0. 63. 75. 2. 3. 5. 1. 0. 0. 129. 134. 3. 1.
      0. 0. 0. 0. 94. 134. 0. 0. 0. 0. 0. 0. 23. 98.</_>
    <_>
      29. 8. 8. 3. 7. 11. 18. 54. 33. 14. 1. 1. 20. 37. 5. 29. 0. 0. 0.
      0. 81. 132. 2. 0. 2. 0. 1. 2. 51. 72. 19. 7. 11. 13. 3. 1. 52.
      132. 31. 12. 86. 32. 2. 1. 11. 25. 7. 15. 9. 1. 0. 1. 132. 89. 4.
      4. 2. 2. 1. 13. 111. 53. 8. 2. 2. 0. 0. 0. 74. 132. 13. 2. 64. 10.
      0. 0. 9. 102. 38. 17. 29. 11. 0. 0. 57. 131. 15. 6. 1. 0. 0. 1.
      39. 132. 35. 1. 0. 0. 0. 0. 21. 132. 13. 0. 4. 4. 0. 0. 69. 132.
      27. 1. 48. 51. 1. 1. 33. 49. 7. 4. 9. 10. 0. 0. 41. 131. 10. 1.</_>
    <_>
      1. 2. 1. 0. 2. 102. 14. 0. 69. 21. 1. 0. 0. 20. 6. 8. 121. 30. 0.
      0. 0. 0. 0. 20. 121. 9. 0. 0. 0. 0. 0. 15. 0. 0. 0. 0. 16. 121.
      15. 0. 53. 1. 0. 0. 2. 100. 37. 15. 121. 26. 0. 0. 0. 2. 7. 35.
      121. 23. 0. 0. 0. 0. 0. 20. 0. 0. 0. 0. 2. 121. 48. 1. 6. 0. 0. 0.
      0. 106. 121. 15. 93. 8. 0. 0. 0. 20. 63. 121. 96. 6. 0. 0. 0. 0.
      6. 121. 0. 0. 0. 0. 4. 101. 54. 8. 0. 0. 0. 0. 0. 49. 121. 28. 49.
      0. 0. 0. 0. 54. 66. 73. 66. 0. 0. 0. 0. 0. 10. 94.</_>
    <_>
      2. 20. 59. 0. 0. 0. 0. 0. 4. 28. 80. 0. 0. 0. 0. 0. 4. 34. 34. 0.
      0. 0. 0. 1. 7. 7. 0. 0. 0. 0. 0. 2. 0. 15. 156. 2. 0. 0. 0. 0. 19.
      58. 156. 1. 0. 0. 0. 1. 150. 156. 108. 0. 0. 0. 0. 12. 37. 25. 1.
      0. 0. 0. 0. 2. 8. 8. 74. 2. 0. 0. 0. 1. 99. 38. 68. 5. 1. 1. 0. 6.
      156. 138. 33. 0. 0. 0. 0. 32. 27. 44. 84. 0. 0. 0. 0. 3. 9. 1. 1.
      1. 1. 0. 0. 6. 33. 18. 1. 6. 3. 0. 11. 72. 61. 129. 36. 0. 0. 0.
      74. 91. 6. 51. 97. 0. 0. 0. 57. 30.</_>
    <_>
      10. 3. 1. 2. 3. 5. 9. 17. 24. 0. 0. 4. 16. 13. 9. 28. 161. 0. 0.
      0. 1. 0. 1. 140. 91. 2. 0. 0. 0. 0. 1. 71. 4. 2. 12. 9. 3. 6. 12.
      25. 71. 11. 6. 15. 6. 12. 10. 22. 162. 4. 0. 0. 0. 0. 1. 101. 56.
      0. 0. 0. 0. 0. 3. 119. 1. 2. 58. 47. 6. 0. 0. 0. 96. 73. 57. 31.
      1. 0. 0. 1. 162. 60. 0. 0. 0. 0. 0. 23. 110. 5. 0. 0. 0. 0. 0. 48.
      0. 0. 12. 56. 53. 1. 0. 0. 101. 84. 37. 33. 14. 0. 0. 0. 162. 74.
      0. 0. 0. 0. 0. 7. 114. 7. 0. 0. 0. 0. 0. 5.</_>
    <_>
      50. 1. 0. 0. 0. 0. 0. 50. 171. 1. 0. 0. 0. 0. 0. 171. 64. 0. 2. 3.
      8. 1. 1. 109. 0. 1. 9. 4. 2. 2. 1. 1. 87. 28. 3. 0. 0. 0. 0. 20.
      171. 35. 0. 0. 1. 1. 0. 44. 85. 1. 0. 0. 19. 17. 3. 22. 1. 0. 1.
      2. 9. 8. 5. 3. 58. 8. 3. 1. 1. 2. 7. 68. 171. 21. 1. 1. 1. 1. 1.
      143. 87. 3. 1. 13. 23. 13. 1. 12. 0. 0. 2. 9. 12. 4. 0. 1. 12. 0.
      0. 0. 0. 1. 29. 171. 64. 1. 1. 3. 2. 0. 1. 171. 13. 0. 2. 22. 13.
      6. 0. 11. 0. 2. 7. 6. 3. 3. 0. 0.</_>
    <_>
      0. 2. 129. 41. 0. 0. 0. 0. 4. 26. 129. 28. 0. 0. 0. 0. 3. 40. 114.
      5. 0. 0. 0. 0. 0. 5. 94. 42. 1. 0. 0. 0. 23. 26. 129. 13. 0. 0. 0.
      4. 87. 49. 55. 4. 0. 0. 0. 9. 20. 26. 50. 77. 1. 0. 0. 4. 0. 1.
      74. 129. 2. 1. 1. 0. 27. 5. 3. 0. 0. 0. 25. 38. 46. 32. 28. 4. 0.
      0. 27. 21. 2. 7. 44. 76. 10. 5. 79. 14. 0. 0. 7. 56. 12. 9. 129.
      20. 0. 0. 0. 0. 0. 0. 129. 47. 1. 0. 1. 0. 0. 0. 129. 112. 0. 0.
      0. 1. 0. 1. 129. 99. 0. 0. 0. 0. 0. 1. 129. 62.</_>
    <_>
      113. 0. 1. 116. 89. 0. 0. 56. 4. 2. 2. 125. 123. 0. 0. 1. 57. 16.
      4. 22. 15. 0. 0. 4. 49. 2. 1. 18. 25. 0. 0. 23. 52. 0. 0. 125.
      125. 1. 0. 40. 11. 5. 3. 119. 81. 0. 0. 1. 77. 25. 7. 22. 9. 0. 0.
      2. 111. 15. 6. 15. 9. 0. 0. 16. 8. 0. 1. 106. 125. 5. 0. 7. 16. 1.
      0. 23. 85. 7. 1. 20. 47. 3. 3. 21. 20. 4. 1. 30. 125. 9. 8. 22. 9.
      1. 1. 54. 8. 4. 2. 34. 104. 23. 1. 0. 11. 0. 0. 0. 40. 34. 12. 24.
      16. 1. 1. 3. 26. 16. 6. 37. 125. 0. 0. 4. 21. 6. 7. 125.</_>
    <_>
      0. 2. 4. 3. 6. 4. 1. 0. 8. 5. 12. 3. 3. 0. 0. 11. 78. 1. 4. 3. 1.
      0. 9. 153. 19. 0. 0. 0. 0. 2. 144. 153. 0. 2. 5. 15. 4. 0. 0. 0.
      77. 6. 3. 3. 1. 0. 0. 22. 153. 11. 0. 0. 0. 0. 3. 153. 46. 2. 0.
      0. 0. 3. 41. 86. 1. 0. 2. 7. 8. 12. 2. 1. 78. 29. 3. 1. 0. 0. 0.
      6. 153. 153. 0. 0. 0. 0. 0. 14. 67. 67. 8. 2. 1. 2. 5. 4. 0. 0. 0.
      6. 15. 5. 1. 0. 15. 11. 2. 0. 1. 2. 2. 9. 153. 106. 0. 0. 0. 0. 0.
      57. 135. 43. 2. 0. 0. 0. 3. 25.</_>
    <_>
      1. 0. 119. 100. 0. 0. 0. 1. 0. 2. 118. 125. 78. 2. 0. 0. 0. 27.
      35. 108. 120. 10. 0. 0. 2. 76. 46. 3. 2. 1. 0. 0. 11. 11. 125.
      125. 0. 0. 0. 0. 92. 34. 120. 62. 17. 14. 2. 13. 11. 5. 6. 15. 94.
      120. 5. 5. 7. 40. 12. 1. 8. 36. 8. 4. 63. 32. 53. 36. 0. 0. 0. 1.
      125. 33. 4. 2. 6. 3. 0. 8. 20. 5. 1. 2. 49. 85. 6. 2. 0. 0. 0. 0.
      12. 105. 16. 0. 67. 28. 4. 1. 0. 0. 0. 0. 125. 63. 0. 0. 0. 0. 0.
      0. 23. 25. 0. 0. 2. 18. 10. 4. 1. 1. 0. 0. 0. 64. 32. 1.</_>
    <_>
      80. 12. 1. 0. 0. 0. 0. 5. 74. 15. 0. 3. 7. 3. 1. 13. 16. 3. 0. 15.
      39. 12. 1. 4. 136. 11. 0. 2. 3. 1. 0. 56. 98. 15. 0. 0. 0. 0. 0.
      5. 121. 19. 0. 1. 5. 8. 3. 13. 37. 2. 0. 7. 39. 43. 6. 32. 136. 0.
      0. 1. 2. 2. 1. 136. 80. 35. 0. 0. 0. 0. 0. 3. 136. 44. 0. 0. 1. 3.
      1. 5. 61. 13. 1. 0. 10. 28. 9. 77. 136. 0. 0. 0. 0. 2. 2. 136. 56.
      18. 0. 0. 1. 2. 1. 1. 130. 32. 0. 0. 0. 0. 0. 18. 96. 4. 0. 0. 0.
      0. 0. 136. 118. 2. 1. 1. 0. 0. 0. 136.</_>
    <_>
      0. 0. 1. 4. 1. 8. 78. 12. 3. 1. 1. 14. 17. 80. 45. 8. 110. 4. 1.
      3. 3. 13. 14. 47. 175. 0. 0. 0. 0. 0. 0. 15. 0. 0. 23. 35. 6. 5.
      13. 3. 6. 7. 10. 90. 48. 28. 5. 2. 173. 30. 9. 14. 5. 5. 2. 10.
      175. 2. 0. 0. 0. 0. 0. 4. 0. 0. 7. 8. 3. 11. 37. 19. 5. 1. 2. 19.
      36. 107. 25. 7. 154. 6. 1. 4. 6. 22. 12. 38. 175. 1. 0. 0. 0. 0.
      0. 6. 0. 0. 22. 28. 2. 2. 7. 6. 3. 5. 14. 80. 24. 18. 3. 1. 117.
      23. 7. 14. 4. 4. 1. 8. 175. 2. 0. 0. 0. 0. 0. 3.</_>
    <_>
      0. 0. 0. 2. 167. 5. 0. 0. 42. 0. 0. 1. 54. 5. 1. 6. 167. 0. 0. 0.
      3. 1. 0. 22. 31. 1. 0. 2. 4. 1. 0. 2. 0. 0. 0. 2. 167. 6. 0. 0.
      65. 6. 0. 9. 72. 2. 0. 2. 167. 9. 0. 1. 2. 0. 0. 7. 36. 1. 0. 1.
      4. 2. 1. 2. 0. 0. 0. 5. 167. 5. 0. 0. 70. 3. 0. 8. 83. 2. 0. 1.
      167. 8. 0. 0. 2. 1. 0. 3. 38. 0. 0. 0. 2. 5. 2. 4. 0. 0. 0. 9.
      167. 1. 0. 0. 54. 0. 0. 6. 54. 4. 0. 2. 167. 3. 0. 0. 1. 0. 0. 4.
      32. 2. 2. 3. 2. 2. 1. 1.</_>
    <_>
      0. 0. 4. 23. 2. 0. 2. 9. 3. 2. 5. 61. 28. 1. 0. 1. 121. 19. 6. 12.
      7. 0. 0. 1. 162. 7. 0. 0. 0. 0. 0. 0. 0. 0. 20. 89. 1. 0. 0. 0.
      12. 13. 41. 142. 8. 0. 0. 1. 162. 42. 17. 11. 2. 0. 0. 4. 162. 2.
      0. 0. 0. 0. 0. 1. 0. 0. 22. 128. 1. 0. 0. 0. 35. 7. 11. 63. 5. 2.
      3. 11. 162. 14. 2. 2. 0. 0. 0. 20. 162. 3. 0. 0. 0. 0. 0. 1. 0. 0.
      10. 25. 0. 0. 0. 0. 29. 7. 4. 8. 1. 0. 2. 9. 162. 13. 0. 0. 0. 0.
      0. 10. 162. 3. 0. 0. 0. 0. 0. 1.</_>
    <_>
      160. 26. 0. 0. 4. 1. 0. 6. 163. 105. 0. 0. 0. 0. 0. 0. 45. 35. 13.
      10. 0. 0. 0. 0. 0. 0. 13. 12. 2. 1. 0. 0. 138. 53. 0. 1. 10. 1. 0.
      3. 163. 75. 0. 0. 0. 0. 0. 12. 95. 25. 17. 5. 0. 0. 0. 1. 0. 1.
      19. 8. 0. 0. 0. 0. 163. 10. 0. 1. 19. 10. 3. 38. 163. 8. 0. 0. 0.
      0. 0. 72. 78. 21. 9. 3. 0. 0. 0. 3. 0. 1. 12. 10. 1. 0. 0. 0. 54.
      0. 0. 0. 9. 21. 61. 125. 163. 8. 0. 0. 0. 0. 5. 104. 34. 33. 1. 0.
      0. 0. 0. 1. 1. 5. 2. 7. 6. 1. 0. 0.</_>
    <_>
      32. 13. 4. 3. 17. 12. 6. 7. 73. 61. 24. 8. 20. 7. 1. 17. 195. 10.
      1. 1. 3. 1. 0. 94. 80. 8. 4. 3. 5. 1. 0. 11. 37. 18. 5. 2. 24. 18.
      0. 8. 138. 53. 3. 1. 33. 44. 6. 10. 195. 56. 0. 0. 0. 1. 1. 32.
      65. 25. 10. 1. 0. 0. 0. 2. 33. 13. 3. 1. 5. 16. 7. 10. 108. 13. 2.
      0. 7. 22. 29. 54. 195. 17. 2. 0. 0. 1. 6. 62. 48. 17. 19. 1. 0. 0.
      0. 1. 45. 35. 3. 1. 9. 12. 2. 5. 107. 42. 3. 2. 13. 11. 1. 10.
      195. 38. 2. 1. 0. 0. 0. 15. 27. 13. 17. 2. 0. 0. 0. 0.</_>
    <_>
      1. 2. 53. 94. 4. 0. 0. 0. 23. 8. 33. 60. 8. 4. 2. 17. 4. 1. 4. 21.
      111. 32. 2. 7. 0. 0. 0. 9. 18. 7. 1. 2. 29. 21. 61. 58. 41. 55. 3.
      4. 134. 25. 14. 5. 23. 9. 5. 44. 12. 1. 0. 22. 134. 36. 17. 43. 3.
      0. 0. 13. 23. 5. 20. 134. 22. 3. 2. 1. 32. 134. 27. 11. 134. 36.
      2. 1. 15. 36. 22. 32. 22. 10. 2. 1. 67. 41. 74. 134. 16. 0. 1. 2.
      2. 3. 28. 134. 1. 43. 32. 4. 25. 124. 9. 1. 27. 6. 1. 0. 5. 69.
      58. 116. 17. 1. 0. 4. 4. 2. 34. 134. 2. 0. 5. 24. 4. 1. 9. 40.</_>
    <_>
      0. 3. 80. 90. 8. 6. 1. 0. 1. 23. 120. 60. 1. 2. 2. 0. 1. 25. 56.
      30. 9. 3. 1. 0. 0. 5. 13. 77. 44. 18. 0. 0. 6. 22. 97. 120. 106.
      30. 10. 5. 120. 120. 117. 29. 8. 10. 12. 30. 35. 24. 29. 120. 7.
      0. 1. 3. 0. 2. 22. 120. 11. 2. 10. 4. 15. 44. 14. 12. 41. 67. 44.
      10. 80. 14. 24. 33. 5. 26. 51. 63. 17. 6. 22. 120. 14. 2. 15. 29.
      0. 0. 0. 34. 8. 9. 93. 69. 9. 22. 13. 6. 4. 3. 6. 6. 2. 2. 23. 31.
      1. 1. 2. 31. 12. 0. 3. 12. 1. 0. 16. 120. 4. 0. 0. 2. 7. 38. 110.
      120.</_>
    <_>
      0. 10. 63. 25. 63. 82. 5. 1. 4. 5. 7. 11. 108. 64. 6. 7. 8. 37.
      23. 1. 5. 2. 26. 63. 23. 52. 8. 6. 3. 1. 56. 66. 0. 4. 40. 13. 44.
      94. 16. 0. 25. 1. 4. 8. 118. 49. 2. 13. 118. 26. 2. 0. 7. 6. 29.
      118. 21. 13. 24. 14. 1. 1. 115. 118. 0. 0. 0. 3. 118. 118. 6. 0.
      17. 3. 0. 11. 108. 63. 2. 3. 118. 118. 21. 1. 12. 11. 2. 17. 19.
      67. 118. 52. 1. 1. 5. 9. 0. 7. 11. 20. 118. 43. 0. 0. 1. 0. 0. 17.
      71. 44. 8. 1. 29. 28. 3. 1. 9. 11. 7. 8. 48. 22. 11. 5. 1. 1. 11.
      27.</_>
    <_>
      137. 104. 0. 0. 0. 0. 4. 5. 137. 137. 0. 0. 2. 1. 0. 0. 9. 10. 0.
      0. 3. 8. 3. 0. 0. 0. 0. 0. 0. 1. 5. 2. 108. 45. 0. 0. 0. 41. 72.
      19. 137. 124. 0. 0. 0. 1. 5. 18. 67. 11. 0. 0. 3. 8. 1. 3. 0. 0.
      0. 0. 1. 2. 3. 2. 18. 1. 0. 0. 0. 137. 137. 31. 137. 5. 0. 0. 0.
      14. 67. 137. 70. 0. 0. 0. 9. 8. 1. 18. 0. 0. 0. 0. 3. 3. 2. 1. 0.
      0. 0. 0. 0. 91. 130. 4. 13. 0. 0. 0. 0. 29. 126. 71. 7. 0. 0. 0.
      15. 28. 15. 18. 0. 0. 0. 0. 4. 4. 1. 1.</_>
    <_>
      0. 0. 0. 0. 0. 0. 0. 0. 7. 2. 0. 0. 2. 2. 0. 0. 30. 4. 0. 0. 0. 1.
      0. 4. 0. 0. 0. 0. 0. 0. 0. 0. 0. 0. 0. 0. 16. 19. 3. 1. 51. 5. 0.
      0. 149. 119. 2. 2. 149. 24. 0. 0. 23. 14. 1. 26. 25. 4. 0. 0. 0.
      0. 0. 5. 0. 0. 0. 0. 41. 14. 4. 1. 23. 2. 0. 1. 149. 106. 3. 6.
      149. 149. 5. 3. 48. 26. 2. 13. 78. 108. 2. 0. 0. 0. 0. 1. 0. 0. 0.
      0. 9. 2. 0. 0. 0. 0. 0. 2. 149. 118. 0. 0. 65. 106. 10. 14. 115.
      49. 0. 1. 72. 149. 14. 0. 0. 0. 0. 0.</_>
    <_>
      0. 14. 25. 10. 2. 2. 4. 2. 2. 18. 61. 31. 6. 2. 4. 3. 7. 3. 38.
      63. 4. 0. 8. 15. 1. 11. 17. 10. 0. 0. 34. 24. 0. 2. 3. 6. 24. 15.
      40. 24. 12. 4. 22. 28. 92. 24. 11. 5. 108. 13. 18. 12. 4. 1. 12.
      49. 15. 5. 40. 96. 2. 1. 37. 31. 1. 5. 9. 30. 32. 5. 7. 7. 3. 0.
      20. 43. 54. 31. 37. 11. 36. 6. 104. 144. 1. 2. 22. 32. 5. 3. 103.
      144. 2. 1. 12. 17. 0. 1. 19. 108. 18. 6. 3. 1. 0. 0. 104. 144. 3.
      0. 4. 6. 1. 0. 144. 144. 0. 0. 28. 92. 0. 0. 30. 80. 2. 0. 89.
      144.</_>
    <_>
      2. 12. 25. 120. 51. 0. 0. 0. 6. 37. 47. 77. 11. 0. 0. 0. 58. 48.
      56. 85. 18. 2. 1. 16. 120. 49. 13. 1. 0. 0. 1. 23. 2. 15. 7. 44.
      118. 95. 20. 1. 7. 32. 47. 68. 32. 28. 14. 3. 120. 29. 19. 32. 14.
      3. 6. 39. 120. 51. 3. 0. 0. 2. 4. 37. 0. 0. 0. 1. 120. 120. 19. 0.
      2. 1. 5. 12. 104. 76. 43. 6. 61. 48. 15. 17. 4. 8. 31. 26. 45.
      120. 28. 1. 0. 0. 0. 1. 0. 0. 0. 0. 120. 106. 2. 0. 0. 0. 9. 19.
      120. 71. 2. 0. 1. 11. 19. 34. 12. 3. 4. 1. 39. 83. 9. 3. 1. 1. 4.
      5.</_>
    <_>
      18. 28. 8. 63. 148. 5. 1. 2. 14. 35. 7. 6. 23. 74. 7. 2. 12. 13.
      2. 2. 16. 61. 14. 4. 148. 46. 0. 0. 2. 2. 2. 16. 33. 9. 2. 24.
      148. 8. 3. 11. 70. 18. 3. 3. 11. 18. 19. 33. 4. 1. 0. 3. 22. 91.
      28. 7. 148. 1. 0. 1. 6. 9. 15. 60. 16. 1. 0. 13. 148. 23. 13. 25.
      45. 6. 6. 3. 7. 6. 19. 48. 9. 3. 3. 12. 38. 26. 26. 22. 148. 1. 0.
      2. 19. 6. 13. 148. 8. 3. 6. 31. 115. 28. 5. 6. 7. 9. 31. 7. 4. 7.
      10. 7. 30. 20. 39. 3. 2. 6. 20. 21. 148. 14. 4. 5. 31. 4. 6. 109.</_>
    <_>
      0. 0. 0. 5. 4. 5. 16. 8. 1. 4. 12. 43. 24. 6. 5. 2. 30. 31. 18.
      13. 5. 0. 0. 1. 9. 2. 1. 1. 2. 4. 4. 5. 0. 0. 3. 73. 40. 5. 6. 5.
      13. 30. 58. 144. 40. 0. 0. 0. 144. 114. 42. 27. 1. 0. 1. 6. 31. 3.
      0. 11. 7. 2. 10. 12. 0. 3. 113. 144. 36. 0. 0. 0. 76. 13. 10. 144.
      50. 0. 0. 18. 144. 26. 5. 9. 1. 0. 1. 65. 42. 1. 0. 42. 55. 3. 3.
      8. 3. 11. 97. 57. 2. 0. 1. 3. 89. 2. 4. 41. 4. 0. 2. 128. 144. 0.
      0. 0. 0. 1. 2. 144. 9. 0. 0. 5. 89. 22. 4. 13.</_>
    <_>
      124. 29. 1. 0. 0. 0. 0. 1. 140. 140. 76. 1. 0. 0. 0. 4. 23. 58.
      140. 67. 0. 0. 2. 6. 1. 1. 140. 104. 0. 0. 4. 6. 89. 42. 1. 0. 0.
      0. 0. 1. 140. 106. 35. 1. 0. 0. 3. 42. 17. 21. 109. 29. 1. 2. 35.
      33. 1. 3. 74. 30. 0. 0. 12. 20. 84. 37. 1. 1. 0. 0. 0. 3. 140.
      104. 24. 1. 0. 0. 0. 14. 10. 29. 114. 33. 1. 0. 3. 5. 0. 0. 64.
      51. 1. 1. 2. 1. 41. 4. 1. 1. 0. 0. 1. 68. 69. 14. 3. 0. 0. 0. 1.
      63. 5. 5. 15. 3. 0. 0. 3. 6. 1. 2. 4. 4. 1. 1. 4. 2.</_>
    <_>
      29. 34. 7. 34. 27. 11. 7. 12. 135. 67. 1. 0. 0. 17. 100. 50. 19.
      2. 0. 0. 0. 79. 165. 15. 0. 0. 0. 0. 0. 73. 165. 2. 50. 26. 22.
      57. 7. 0. 0. 7. 165. 82. 2. 1. 0. 0. 2. 14. 112. 17. 13. 2. 0. 9.
      36. 10. 1. 3. 16. 4. 2. 28. 63. 0. 54. 2. 5. 3. 0. 0. 12. 59. 165.
      4. 0. 0. 0. 0. 1. 66. 95. 9. 17. 7. 4. 3. 1. 16. 5. 4. 18. 3. 1.
      2. 10. 21. 43. 0. 0. 0. 1. 4. 14. 51. 165. 0. 0. 1. 1. 1. 2. 106.
      50. 5. 2. 6. 7. 1. 0. 19. 13. 6. 8. 1. 0. 1. 4. 13.</_>
    <_>
      0. 0. 0. 13. 166. 57. 1. 0. 35. 0. 0. 3. 90. 29. 5. 48. 37. 0. 2.
      8. 7. 1. 1. 29. 2. 4. 16. 13. 4. 0. 0. 0. 0. 0. 0. 8. 166. 76. 0.
      0. 50. 2. 0. 7. 133. 35. 4. 43. 14. 1. 0. 18. 42. 4. 3. 21. 12. 2.
      3. 11. 18. 0. 0. 14. 0. 0. 0. 1. 166. 152. 0. 0. 39. 12. 3. 5.
      162. 81. 1. 4. 10. 7. 5. 34. 33. 2. 1. 2. 31. 6. 1. 5. 8. 1. 1.
      12. 0. 0. 0. 10. 166. 75. 0. 0. 1. 2. 1. 5. 166. 58. 7. 2. 1. 1.
      1. 5. 25. 13. 5. 2. 20. 17. 4. 5. 9. 2. 0. 1.</_>
    <_>
      145. 30. 0. 0. 0. 0. 0. 8. 174. 82. 0. 0. 0. 0. 0. 29. 45. 10. 0.
      0. 0. 0. 0. 14. 2. 2. 1. 0. 0. 0. 0. 2. 126. 26. 0. 0. 0. 0. 0. 2.
      174. 95. 0. 0. 0. 0. 0. 2. 113. 12. 0. 0. 0. 0. 0. 7. 0. 0. 0. 0.
      1. 0. 0. 1. 119. 1. 0. 0. 0. 0. 0. 29. 174. 2. 0. 0. 0. 0. 0. 65.
      117. 4. 1. 0. 0. 0. 0. 14. 0. 1. 3. 1. 0. 0. 0. 0. 106. 0. 0. 0.
      0. 0. 4. 67. 174. 0. 0. 0. 0. 0. 0. 141. 39. 0. 1. 1. 0. 0. 0. 19.
      0. 0. 2. 1. 0. 0. 0. 0.</_>
    <_>
      81. 0. 1. 90. 60. 1. 1. 129. 13. 2. 4. 129. 129. 1. 3. 39. 27. 0.
      0. 5. 6. 2. 9. 83. 4. 0. 0. 1. 3. 7. 3. 4. 24. 3. 8. 129. 129. 7.
      3. 49. 129. 37. 22. 97. 62. 4. 2. 35. 37. 11. 14. 5. 4. 8. 10. 35.
      0. 0. 8. 13. 9. 11. 2. 0. 4. 0. 0. 129. 129. 7. 3. 7. 82. 59. 20.
      11. 44. 7. 3. 15. 12. 46. 129. 13. 3. 1. 0. 1. 0. 0. 129. 33. 2.
      1. 0. 0. 4. 7. 3. 129. 83. 0. 0. 1. 18. 11. 3. 3. 3. 1. 2. 10. 1.
      3. 23. 5. 6. 20. 11. 3. 0. 0. 33. 9. 3. 22. 13. 0.</_>
    <_>
      0. 0. 0. 148. 148. 0. 0. 0. 2. 11. 9. 147. 148. 1. 1. 0. 20. 46.
      8. 9. 5. 23. 22. 9. 19. 14. 5. 6. 2. 7. 14. 36. 0. 0. 0. 148. 148.
      3. 0. 0. 9. 8. 3. 116. 104. 12. 0. 0. 99. 49. 7. 11. 8. 1. 0. 1.
      26. 33. 8. 3. 1. 3. 3. 1. 0. 0. 0. 148. 148. 23. 11. 0. 9. 0. 0.
      11. 80. 75. 10. 7. 92. 6. 1. 2. 9. 11. 3. 30. 36. 10. 1. 2. 2. 1.
      2. 16. 0. 0. 1. 55. 78. 10. 4. 0. 1. 0. 0. 5. 49. 38. 21. 11. 11.
      0. 0. 2. 7. 9. 20. 47. 44. 8. 0. 1. 3. 5. 4. 17.</_>
    <_>
      0. 5. 81. 98. 0. 0. 0. 0. 23. 129. 115. 39. 0. 0. 0. 0. 21. 66. 9.
      0. 0. 0. 0. 0. 1. 12. 15. 5. 0. 0. 0. 0. 11. 7. 119. 132. 1. 0. 0.
      3. 132. 119. 43. 50. 1. 0. 0. 50. 118. 72. 23. 6. 0. 0. 0. 13. 2.
      15. 29. 14. 0. 0. 0. 0. 14. 16. 24. 33. 0. 0. 0. 3. 91. 132. 25.
      1. 0. 0. 0. 10. 21. 132. 102. 2. 0. 0. 0. 2. 1. 84. 52. 3. 0. 0.
      0. 0. 2. 1. 0. 0. 0. 0. 3. 5. 2. 43. 9. 0. 0. 0. 0. 1. 1. 132. 52.
      0. 0. 0. 0. 0. 0. 132. 104. 1. 0. 0. 0. 0.</_>
    <_>
      30. 2. 0. 0. 0. 0. 0. 6. 148. 1. 0. 0. 0. 0. 0. 127. 148. 1. 0. 0.
      0. 0. 0. 121. 27. 2. 0. 0. 0. 0. 0. 3. 49. 1. 0. 0. 0. 0. 0. 7.
      148. 13. 0. 0. 0. 0. 0. 52. 148. 15. 0. 0. 0. 0. 0. 33. 18. 1. 0.
      0. 0. 0. 0. 11. 49. 1. 0. 0. 0. 0. 0. 11. 148. 138. 1. 0. 0. 0. 0.
      9. 148. 146. 0. 0. 0. 0. 0. 3. 27. 3. 0. 0. 0. 0. 0. 8. 37. 2. 0.
      0. 0. 0. 0. 3. 133. 53. 0. 0. 0. 0. 0. 7. 148. 47. 0. 0. 0. 0. 0.
      10. 33. 3. 0. 0. 0. 0. 0. 3.</_>
    <_>
      53. 2. 0. 0. 0. 0. 0. 0. 205. 38. 1. 1. 0. 0. 0. 4. 84. 15. 2. 5.
      1. 0. 0. 46. 9. 0. 0. 0. 0. 0. 1. 21. 57. 3. 0. 0. 0. 0. 0. 0.
      205. 17. 0. 0. 0. 0. 0. 22. 144. 3. 0. 0. 0. 0. 0. 50. 4. 1. 0. 0.
      0. 0. 0. 3. 54. 1. 0. 0. 0. 0. 0. 0. 205. 9. 0. 0. 0. 0. 0. 7.
      169. 2. 0. 0. 0. 0. 0. 7. 1. 0. 0. 0. 0. 0. 0. 1. 41. 1. 0. 0. 0.
      0. 0. 0. 205. 8. 0. 0. 0. 0. 0. 2. 139. 2. 0. 0. 0. 0. 0. 1. 0. 0.
      0. 0. 0. 0. 0. 0.</_>
    <_>
      21. 0. 0. 0. 0. 0. 0. 3. 184. 0. 0. 0. 0. 0. 0. 57. 116. 0. 1. 2.
      2. 2. 4. 47. 0. 0. 1. 4. 15. 7. 8. 5. 39. 2. 0. 0. 0. 0. 0. 3.
      184. 58. 14. 0. 0. 0. 0. 41. 107. 36. 91. 11. 1. 0. 0. 14. 4. 13.
      58. 15. 5. 2. 6. 7. 15. 12. 0. 0. 0. 0. 0. 0. 112. 184. 113. 0. 0.
      0. 0. 1. 12. 99. 184. 2. 0. 0. 0. 0. 1. 42. 184. 12. 0. 0. 0. 0.
      0. 1. 0. 0. 0. 0. 0. 0. 0. 9. 10. 0. 0. 0. 0. 0. 0. 6. 40. 0. 0.
      0. 0. 0. 0. 4. 50. 0. 0. 0. 0. 0.</_>
    <_>
      0. 1. 58. 109. 0. 0. 0. 0. 46. 50. 93. 55. 0. 0. 0. 1. 62. 27. 9.
      0. 0. 0. 0. 8. 3. 1. 2. 4. 0. 0. 0. 1. 19. 13. 137. 137. 0. 0. 0.
      4. 137. 80. 68. 25. 0. 0. 0. 13. 110. 25. 115. 28. 0. 0. 0. 7. 1.
      1. 137. 48. 0. 0. 0. 0. 59. 8. 25. 35. 0. 0. 7. 40. 137. 65. 75.
      30. 3. 0. 1. 24. 15. 21. 137. 135. 2. 0. 0. 0. 5. 12. 137. 50. 0.
      0. 0. 1. 11. 2. 1. 3. 3. 1. 34. 60. 7. 4. 11. 44. 39. 2. 5. 14. 0.
      0. 20. 45. 24. 3. 2. 1. 19. 3. 13. 6. 1. 2. 5. 27.</_>
    <_>
      0. 50. 198. 3. 0. 0. 0. 0. 0. 42. 198. 2. 0. 0. 1. 0. 0. 11. 198.
      17. 0. 0. 1. 0. 0. 1. 198. 32. 0. 0. 0. 0. 0. 9. 96. 16. 1. 0. 0.
      0. 5. 33. 169. 26. 2. 1. 2. 3. 65. 59. 113. 3. 0. 0. 2. 11. 11. 3.
      43. 10. 4. 5. 7. 6. 4. 5. 31. 21. 1. 1. 1. 2. 30. 8. 10. 18. 4. 2.
      26. 56. 80. 10. 2. 1. 0. 0. 20. 86. 20. 2. 1. 13. 30. 7. 3. 7. 10.
      6. 5. 2. 15. 24. 15. 4. 91. 29. 1. 0. 3. 2. 3. 20. 40. 19. 2. 0.
      0. 0. 5. 32. 9. 1. 5. 10. 16. 20. 5. 10.</_>
    <_>
      63. 35. 2. 0. 0. 0. 1. 62. 45. 60. 12. 0. 0. 0. 0. 25. 127. 55. 1.
      0. 0. 0. 0. 24. 44. 1. 0. 0. 0. 0. 20. 59. 66. 105. 12. 1. 0. 0.
      3. 11. 37. 77. 73. 8. 0. 0. 2. 13. 127. 84. 8. 0. 0. 0. 0. 34.
      123. 15. 3. 0. 0. 0. 6. 58. 15. 12. 2. 0. 0. 0. 80. 77. 28. 10.
      12. 2. 0. 0. 64. 127. 127. 66. 1. 0. 0. 0. 16. 127. 66. 92. 52.
      10. 1. 1. 6. 14. 2. 0. 0. 0. 0. 0. 61. 75. 20. 0. 0. 0. 0. 0. 57.
      127. 64. 10. 0. 0. 0. 3. 72. 127. 12. 12. 7. 3. 1. 32. 73. 26.</_>
    <_>
      4. 127. 123. 2. 0. 0. 0. 0. 0. 47. 127. 29. 0. 1. 0. 0. 3. 64.
      127. 15. 0. 0. 0. 1. 9. 127. 127. 0. 0. 0. 0. 1. 15. 76. 100. 5.
      0. 0. 0. 0. 11. 31. 127. 14. 1. 0. 0. 1. 53. 49. 107. 5. 0. 5. 12.
      22. 45. 93. 57. 1. 0. 11. 22. 9. 6. 33. 25. 1. 0. 4. 18. 3. 43.
      23. 32. 4. 2. 0. 12. 37. 127. 50. 2. 0. 0. 4. 15. 39. 41. 28. 4.
      1. 0. 13. 55. 19. 0. 1. 1. 0. 0. 10. 127. 33. 6. 2. 1. 0. 0. 4.
      127. 99. 30. 14. 0. 0. 0. 22. 99. 41. 27. 26. 34. 16. 8. 11. 11.
      6.</_>
    <_>
      1. 2. 1. 3. 58. 61. 4. 1. 14. 13. 3. 3. 9. 35. 18. 6. 3. 0. 0. 2.
      40. 129. 27. 1. 0. 0. 0. 1. 126. 129. 4. 0. 2. 2. 2. 4. 129. 75.
      1. 1. 77. 14. 3. 4. 39. 17. 2. 17. 14. 1. 0. 12. 129. 33. 2. 6. 0.
      0. 0. 3. 129. 64. 0. 0. 1. 1. 0. 3. 129. 50. 1. 0. 84. 27. 1. 5.
      77. 15. 1. 7. 23. 6. 0. 1. 64. 75. 6. 4. 0. 0. 0. 0. 129. 126. 1.
      0. 0. 0. 0. 1. 111. 72. 1. 0. 62. 9. 0. 1. 66. 54. 6. 22. 36. 2.
      0. 0. 19. 28. 5. 11. 0. 0. 0. 0. 129. 88. 1. 0.</_>
    <_>
      0. 1. 6. 134. 134. 0. 0. 0. 23. 13. 30. 106. 12. 0. 0. 6. 40. 7.
      11. 3. 0. 0. 9. 61. 3. 4. 27. 1. 0. 0. 48. 33. 8. 11. 20. 134.
      134. 0. 0. 0. 124. 40. 28. 26. 2. 0. 0. 11. 56. 14. 101. 48. 0. 0.
      0. 19. 1. 9. 134. 14. 0. 0. 1. 3. 45. 8. 5. 127. 134. 0. 0. 5.
      109. 31. 50. 35. 0. 0. 0. 5. 5. 6. 119. 93. 0. 0. 0. 0. 0. 6. 124.
      17. 0. 0. 0. 0. 37. 3. 1. 37. 94. 0. 0. 4. 21. 7. 26. 49. 10. 0.
      0. 1. 0. 2. 57. 35. 2. 0. 0. 0. 0. 13. 47. 12. 0. 0. 0. 0.</_>
    <_>
      8. 1. 1. 2. 1. 0. 0. 1. 0. 4. 28. 11. 1. 0. 0. 0. 0. 15. 30. 1. 0.
      0. 0. 0. 1. 4. 2. 1. 4. 2. 0. 0. 6. 5. 90. 32. 5. 0. 0. 2. 5. 19.
      109. 133. 24. 0. 0. 0. 91. 126. 102. 19. 1. 0. 0. 3. 37. 18. 4. 0.
      2. 4. 3. 2. 0. 28. 133. 36. 1. 0. 0. 0. 34. 29. 120. 133. 14. 0.
      0. 7. 133. 115. 59. 11. 1. 0. 0. 23. 36. 40. 132. 0. 0. 0. 0. 1.
      2. 48. 67. 15. 0. 0. 0. 0. 5. 34. 113. 30. 1. 0. 0. 0. 15. 120.
      133. 1. 0. 0. 0. 1. 0. 38. 133. 0. 0. 0. 0. 0.</_>
    <_>
      30. 18. 1. 0. 0. 0. 0. 17. 159. 103. 1. 0. 0. 0. 2. 29. 135. 159.
      15. 0. 0. 0. 4. 14. 28. 30. 2. 0. 0. 0. 1. 2. 58. 14. 1. 0. 0. 0.
      0. 4. 159. 34. 1. 0. 0. 0. 34. 149. 123. 66. 3. 0. 0. 0. 114. 159.
      58. 11. 1. 1. 0. 0. 6. 42. 57. 3. 0. 0. 0. 0. 0. 2. 159. 42. 0. 0.
      0. 0. 4. 32. 154. 14. 0. 1. 3. 1. 32. 59. 2. 0. 3. 8. 5. 0. 5. 9.
      5. 1. 0. 0. 0. 0. 0. 0. 41. 6. 0. 0. 0. 0. 0. 0. 13. 2. 0. 0. 0.
      0. 0. 0. 0. 0. 0. 0. 0. 0. 0. 0.</_>
    <_>
      0. 0. 15. 172. 172. 3. 0. 0. 0. 2. 87. 144. 42. 1. 0. 0. 0. 4. 31.
      31. 19. 10. 1. 0. 0. 0. 1. 1. 1. 2. 0. 0. 0. 0. 3. 172. 172. 10.
      0. 0. 4. 3. 26. 83. 49. 1. 0. 0. 37. 16. 36. 20. 4. 0. 2. 16. 2.
      1. 2. 1. 0. 0. 2. 5. 0. 0. 0. 24. 172. 49. 0. 0. 10. 1. 4. 42. 73.
      6. 4. 13. 48. 16. 8. 4. 10. 8. 15. 36. 2. 3. 7. 2. 3. 3. 1. 2. 0.
      0. 0. 9. 172. 120. 1. 0. 24. 2. 4. 18. 34. 43. 13. 37. 20. 2. 4.
      5. 20. 16. 11. 34. 0. 0. 0. 1. 11. 10. 2. 1.</_>
    <_>
      0. 0. 4. 128. 131. 5. 0. 0. 45. 19. 18. 60. 35. 1. 0. 3. 35. 5. 0.
      7. 35. 3. 0. 3. 0. 0. 0. 18. 60. 16. 0. 0. 2. 0. 2. 93. 131. 0. 0.
      1. 110. 20. 10. 25. 32. 0. 0. 14. 37. 10. 28. 84. 11. 1. 0. 2. 1.
      0. 42. 58. 33. 9. 1. 4. 4. 1. 0. 73. 131. 0. 0. 0. 56. 31. 13. 16.
      24. 0. 2. 12. 7. 7. 25. 81. 9. 7. 81. 53. 1. 0. 29. 21. 2. 3. 131.
      111. 1. 0. 0. 29. 131. 6. 3. 6. 37. 5. 1. 4. 8. 1. 6. 93. 42. 1.
      0. 0. 0. 1. 52. 131. 6. 0. 0. 0. 0. 1. 131. 131.</_>
    <_>
      44. 8. 0. 0. 2. 74. 14. 10. 141. 23. 1. 5. 12. 2. 2. 31. 11. 3. 1.
      20. 86. 10. 2. 7. 149. 30. 0. 1. 9. 2. 1. 8. 17. 1. 0. 0. 42. 149.
      16. 10. 131. 21. 1. 2. 12. 33. 9. 23. 16. 6. 2. 5. 72. 41. 1. 3.
      135. 45. 1. 1. 8. 7. 1. 3. 1. 0. 0. 0. 59. 149. 13. 2. 23. 40. 11.
      1. 42. 149. 4. 6. 3. 38. 23. 10. 44. 18. 0. 0. 82. 34. 3. 7. 33.
      7. 0. 0. 0. 0. 0. 0. 7. 136. 52. 2. 0. 5. 2. 0. 51. 149. 7. 0. 0.
      18. 23. 7. 20. 119. 2. 0. 54. 7. 8. 13. 12. 3. 2. 4.</_>
    <_>
      2. 10. 1. 1. 137. 64. 0. 0. 23. 79. 24. 1. 23. 6. 0. 3. 2. 121.
      95. 4. 3. 1. 0. 1. 2. 113. 96. 4. 0. 0. 0. 0. 3. 1. 0. 8. 137. 26.
      0. 1. 70. 7. 1. 3. 62. 12. 1. 13. 10. 26. 17. 9. 53. 20. 2. 6. 50.
      98. 16. 1. 3. 2. 1. 33. 2. 1. 0. 59. 137. 12. 6. 3. 66. 6. 0. 7.
      49. 11. 22. 46. 11. 1. 0. 0. 31. 38. 64. 47. 42. 2. 0. 0. 1. 4.
      42. 137. 2. 2. 14. 42. 58. 21. 21. 13. 5. 0. 0. 0. 4. 9. 80. 100.
      3. 0. 0. 0. 0. 4. 111. 137. 2. 0. 0. 0. 1. 2. 59. 137.</_>
    <_>
      6. 1. 0. 0. 152. 98. 0. 0. 119. 19. 0. 3. 64. 23. 0. 1. 21. 6. 1.
      37. 66. 2. 0. 0. 0. 3. 3. 18. 23. 0. 0. 0. 2. 0. 0. 0. 152. 65. 0.
      0. 121. 20. 0. 3. 152. 26. 0. 3. 27. 5. 1. 23. 105. 2. 0. 0. 0. 1.
      4. 23. 31. 0. 0. 0. 1. 0. 0. 1. 152. 27. 0. 0. 100. 3. 0. 3. 152.
      21. 0. 9. 25. 1. 0. 16. 100. 10. 0. 1. 0. 0. 0. 8. 35. 14. 0. 0.
      0. 0. 0. 30. 152. 1. 0. 0. 47. 40. 3. 25. 140. 2. 0. 1. 13. 18. 2.
      1. 46. 28. 0. 0. 0. 0. 0. 0. 31. 23. 0. 0.</_>
    <_>
      0. 0. 0. 0. 204. 9. 0. 0. 2. 0. 0. 0. 122. 10. 10. 15. 2. 0. 0. 0.
      0. 4. 21. 13. 1. 0. 0. 0. 4. 12. 4. 6. 0. 0. 0. 2. 204. 9. 0. 0.
      25. 2. 0. 3. 149. 10. 11. 27. 4. 0. 0. 0. 3. 30. 28. 9. 0. 0. 0.
      0. 1. 15. 17. 1. 1. 0. 0. 3. 204. 8. 0. 0. 79. 5. 1. 5. 155. 3. 1.
      5. 18. 1. 0. 0. 15. 21. 4. 3. 2. 3. 1. 1. 2. 7. 18. 5. 1. 0. 0. 0.
      204. 12. 0. 0. 64. 2. 0. 0. 125. 7. 1. 7. 15. 1. 0. 2. 21. 4. 0.
      2. 2. 7. 3. 3. 7. 2. 1. 1.</_>
    <_>
      0. 0. 10. 115. 101. 20. 4. 0. 0. 0. 12. 113. 85. 7. 6. 2. 1. 0. 0.
      8. 51. 33. 21. 17. 18. 0. 0. 0. 1. 2. 8. 115. 11. 1. 14. 115. 115.
      0. 0. 2. 58. 5. 16. 39. 9. 12. 33. 62. 5. 1. 0. 1. 4. 80. 97. 48.
      32. 0. 0. 0. 0. 4. 22. 115. 18. 1. 3. 49. 84. 11. 41. 22. 110. 18.
      1. 2. 5. 3. 58. 74. 12. 6. 1. 1. 5. 18. 76. 64. 11. 0. 0. 0. 0. 1.
      41. 109. 3. 0. 0. 4. 4. 4. 91. 107. 13. 1. 0. 0. 0. 1. 115. 105.
      3. 0. 0. 0. 2. 6. 115. 54. 2. 0. 0. 0. 0. 1. 97. 49.</_>
    <_>
      4. 0. 0. 1. 4. 1. 1. 5. 1. 0. 0. 1. 1. 3. 23. 14. 0. 0. 2. 4. 1.
      14. 25. 2. 0. 0. 1. 2. 1. 4. 3. 4. 27. 2. 0. 2. 2. 0. 1. 20. 103.
      4. 0. 0. 0. 17. 119. 146. 9. 1. 0. 0. 0. 146. 146. 29. 0. 0. 0. 0.
      0. 75. 111. 54. 66. 7. 0. 2. 2. 0. 0. 8. 146. 29. 0. 0. 0. 4. 14.
      77. 66. 11. 3. 1. 1. 146. 80. 20. 0. 1. 1. 0. 0. 97. 146. 39. 70.
      0. 0. 1. 2. 0. 0. 35. 146. 1. 0. 0. 0. 4. 4. 146. 24. 2. 3. 1. 10.
      32. 7. 26. 0. 8. 5. 1. 3. 14. 10. 0.</_>
    <_>
      0. 30. 152. 1. 0. 0. 0. 0. 4. 48. 152. 0. 0. 0. 0. 0. 18. 55. 152.
      0. 0. 0. 5. 36. 14. 48. 151. 0. 0. 0. 18. 77. 0. 5. 29. 3. 0. 2.
      4. 0. 37. 27. 39. 7. 1. 3. 3. 3. 152. 23. 5. 0. 0. 0. 8. 106. 61.
      1. 0. 0. 0. 0. 27. 151. 0. 0. 2. 1. 0. 12. 35. 0. 49. 2. 3. 2. 1.
      19. 27. 13. 152. 3. 0. 0. 0. 0. 3. 31. 135. 1. 0. 0. 0. 0. 0. 38.
      0. 0. 0. 0. 0. 8. 26. 1. 27. 0. 0. 0. 0. 17. 24. 10. 152. 3. 0. 0.
      0. 0. 3. 23. 112. 3. 0. 0. 0. 0. 0. 12.</_>
    <_>
      11. 1. 0. 1. 1. 0. 1. 3. 26. 3. 0. 0. 0. 0. 0. 21. 65. 0. 0. 0. 0.
      0. 0. 148. 100. 0. 0. 0. 0. 0. 0. 148. 3. 4. 4. 5. 1. 0. 2. 3. 69.
      30. 3. 0. 0. 0. 0. 13. 148. 54. 1. 0. 0. 0. 0. 148. 100. 41. 3. 0.
      0. 0. 0. 148. 1. 1. 2. 3. 1. 0. 6. 17. 45. 7. 1. 0. 0. 0. 4. 85.
      148. 148. 14. 0. 0. 0. 0. 38. 22. 148. 63. 0. 0. 0. 0. 4. 9. 0. 0.
      0. 0. 0. 4. 50. 12. 1. 0. 0. 0. 0. 4. 87. 9. 27. 3. 0. 0. 0. 1.
      24. 3. 148. 33. 0. 0. 1. 1. 0.</_>
    <_>
      119. 8. 0. 0. 0. 0. 0. 5. 173. 10. 0. 0. 0. 0. 0. 13. 39. 1. 0. 0.
      0. 2. 1. 9. 0. 0. 0. 0. 0. 0. 0. 0. 159. 20. 0. 0. 0. 0. 0. 2.
      173. 6. 0. 0. 0. 3. 3. 38. 52. 0. 0. 0. 2. 41. 11. 22. 0. 0. 0. 0.
      0. 3. 1. 0. 172. 16. 0. 0. 0. 0. 0. 7. 173. 66. 0. 0. 0. 1. 2. 11.
      103. 19. 0. 0. 1. 44. 22. 9. 0. 0. 0. 0. 1. 10. 6. 0. 81. 30. 0.
      0. 0. 0. 0. 7. 173. 127. 0. 0. 0. 0. 0. 0. 136. 58. 1. 3. 7. 6. 1.
      2. 0. 1. 0. 6. 11. 4. 1. 0.</_>
    <_>
      0. 0. 0. 7. 20. 0. 0. 0. 0. 0. 0. 26. 95. 4. 2. 1. 13. 0. 0. 10.
      56. 23. 48. 30. 138. 0. 0. 0. 1. 3. 16. 133. 0. 0. 0. 5. 24. 8. 4.
      0. 11. 4. 1. 28. 119. 6. 1. 2. 110. 9. 1. 6. 14. 4. 37. 75. 138.
      0. 0. 0. 0. 0. 15. 138. 0. 1. 4. 10. 27. 11. 9. 1. 19. 5. 1. 31.
      138. 9. 3. 2. 138. 33. 1. 4. 13. 1. 3. 34. 138. 4. 0. 0. 0. 0. 0.
      112. 0. 0. 8. 57. 14. 0. 0. 0. 14. 11. 4. 48. 54. 5. 15. 17. 138.
      20. 0. 0. 3. 2. 33. 88. 138. 10. 0. 0. 0. 0. 0. 43.</_>
    <_>
      91. 5. 0. 0. 0. 0. 2. 7. 174. 22. 0. 0. 0. 0. 0. 3. 56. 2. 0. 0.
      4. 29. 11. 9. 0. 0. 0. 0. 7. 105. 77. 2. 91. 4. 0. 0. 0. 0. 2. 8.
      174. 21. 0. 0. 0. 0. 0. 5. 102. 2. 0. 0. 0. 0. 5. 26. 1. 0. 0. 0.
      0. 5. 26. 15. 69. 1. 0. 0. 0. 0. 4. 17. 174. 18. 0. 0. 0. 0. 0.
      19. 125. 3. 0. 0. 0. 0. 30. 60. 0. 0. 0. 0. 0. 0. 70. 29. 29. 0.
      0. 0. 0. 0. 21. 36. 174. 1. 0. 0. 0. 0. 2. 79. 122. 0. 0. 0. 0. 0.
      46. 130. 0. 0. 0. 0. 0. 0. 118. 41.</_>
    <_>
      0. 0. 60. 126. 3. 0. 0. 0. 4. 4. 91. 104. 0. 0. 0. 1. 12. 28. 70.
      15. 1. 0. 0. 2. 14. 44. 32. 1. 1. 0. 1. 6. 10. 5. 14. 108. 75. 12.
      0. 1. 59. 11. 13. 15. 4. 8. 3. 13. 9. 29. 18. 9. 25. 36. 11. 9.
      43. 61. 10. 1. 2. 3. 11. 68. 8. 1. 0. 4. 63. 126. 50. 5. 64. 4. 0.
      0. 1. 19. 90. 54. 11. 1. 0. 0. 6. 37. 126. 119. 15. 1. 0. 0. 0. 3.
      94. 126. 1. 0. 0. 0. 3. 70. 97. 8. 2. 0. 0. 0. 0. 13. 126. 72. 8.
      1. 0. 0. 0. 0. 117. 126. 2. 0. 0. 0. 0. 0. 45. 126.</_>
    <_>
      0. 0. 5. 4. 0. 0. 0. 0. 0. 3. 56. 33. 6. 6. 1. 0. 0. 8. 25. 5. 4.
      11. 5. 0. 0. 0. 0. 0. 0. 0. 0. 0. 0. 0. 15. 63. 13. 0. 0. 0. 14.
      68. 155. 155. 105. 16. 2. 2. 102. 155. 155. 24. 8. 8. 4. 8. 5. 3.
      1. 0. 0. 0. 0. 0. 0. 0. 0. 13. 15. 8. 3. 0. 33. 18. 20. 72. 143.
      155. 138. 25. 155. 83. 17. 7. 10. 68. 74. 72. 21. 8. 0. 0. 0. 0.
      0. 1. 0. 0. 0. 0. 0. 1. 1. 0. 1. 0. 0. 0. 0. 76. 58. 2. 16. 5. 0.
      0. 0. 31. 25. 6. 2. 1. 0. 0. 0. 0. 0. 0.</_>
    <_>
      0. 1. 140. 116. 3. 0. 0. 0. 1. 16. 141. 51. 0. 0. 0. 0. 0. 2. 141.
      141. 4. 1. 0. 0. 1. 2. 74. 79. 2. 0. 0. 1. 3. 3. 41. 110. 113. 54.
      1. 1. 67. 39. 87. 25. 10. 9. 1. 9. 14. 7. 24. 30. 33. 7. 1. 3. 1.
      1. 3. 8. 11. 3. 1. 2. 1. 0. 0. 1. 78. 141. 4. 1. 38. 22. 9. 1. 10.
      128. 14. 9. 7. 21. 38. 15. 13. 6. 0. 1. 1. 4. 5. 6. 9. 0. 0. 0. 0.
      0. 0. 0. 12. 141. 8. 0. 0. 1. 2. 1. 4. 141. 38. 0. 1. 15. 17. 2.
      4. 128. 36. 0. 1. 16. 11. 1. 1. 10. 15. 1.</_>
    <_>
      1. 2. 2. 2. 50. 36. 4. 1. 7. 1. 1. 0. 1. 8. 22. 30. 20. 15. 0. 1.
      3. 10. 40. 18. 93. 154. 1. 0. 1. 2. 2. 1. 11. 3. 1. 1. 154. 127.
      1. 1. 74. 11. 2. 2. 5. 6. 4. 32. 8. 6. 7. 34. 44. 8. 8. 11. 45.
      92. 8. 11. 5. 1. 0. 0. 3. 0. 0. 0. 154. 154. 4. 1. 29. 24. 24. 7.
      22. 81. 6. 3. 2. 8. 35. 53. 40. 1. 0. 0. 26. 55. 4. 10. 12. 1. 1.
      2. 0. 0. 0. 0. 154. 154. 1. 0. 0. 0. 4. 2. 143. 154. 1. 0. 2. 0.
      10. 7. 21. 17. 4. 7. 12. 4. 0. 1. 2. 2. 19. 43.</_>
    <_>
      19. 50. 3. 1. 1. 0. 2. 4. 16. 63. 3. 0. 0. 12. 19. 7. 95. 11. 0.
      0. 0. 6. 19. 114. 85. 3. 2. 0. 0. 0. 4. 102. 5. 19. 10. 14. 4. 0.
      0. 3. 65. 138. 11. 3. 1. 1. 5. 20. 148. 59. 0. 0. 1. 3. 13. 148.
      38. 9. 6. 4. 7. 9. 15. 65. 1. 2. 2. 4. 1. 0. 13. 40. 51. 10. 0. 1.
      0. 0. 22. 148. 148. 13. 0. 0. 0. 1. 3. 148. 35. 2. 0. 2. 3. 7. 24.
      34. 37. 0. 0. 0. 0. 0. 6. 115. 39. 0. 0. 0. 0. 0. 6. 148. 23. 0.
      0. 0. 0. 6. 25. 148. 4. 0. 0. 0. 1. 8. 28. 34.</_>
    <_>
      5. 0. 0. 1. 8. 7. 5. 16. 2. 0. 0. 0. 0. 11. 47. 38. 0. 0. 0. 0. 0.
      7. 131. 133. 0. 0. 0. 0. 0. 0. 144. 149. 26. 5. 1. 0. 1. 3. 3. 23.
      140. 9. 0. 0. 0. 0. 54. 149. 34. 1. 0. 0. 0. 0. 149. 149. 1. 0. 0.
      0. 0. 0. 77. 146. 23. 7. 1. 1. 0. 0. 0. 3. 149. 31. 1. 0. 0. 0. 1.
      64. 149. 16. 0. 0. 0. 0. 9. 59. 1. 1. 0. 0. 0. 0. 2. 7. 1. 0. 0.
      0. 0. 0. 0. 1. 68. 0. 0. 0. 0. 0. 0. 31. 40. 2. 0. 0. 0. 0. 0. 15.
      0. 0. 0. 0. 0. 0. 0. 0.</_>
    <_>
      0. 2. 140. 123. 0. 0. 0. 0. 1. 50. 140. 41. 0. 0. 0. 0. 2. 124.
      140. 0. 0. 0. 0. 0. 0. 58. 140. 1. 0. 0. 0. 0. 6. 1. 133. 140. 0.
      0. 0. 2. 52. 34. 120. 28. 0. 0. 0. 55. 28. 80. 89. 0. 0. 1. 7. 50.
      1. 43. 140. 2. 4. 6. 5. 2. 19. 7. 8. 18. 0. 0. 0. 2. 133. 35. 0.
      0. 0. 0. 0. 27. 50. 14. 5. 5. 1. 1. 4. 23. 2. 2. 10. 16. 10. 7. 4.
      2. 4. 2. 0. 0. 0. 0. 18. 42. 52. 13. 0. 1. 0. 1. 27. 114. 24. 5.
      3. 21. 19. 9. 12. 33. 5. 13. 13. 22. 9. 1. 0. 1.</_>
    <_>
      39. 10. 1. 0. 0. 0. 0. 2. 146. 125. 0. 0. 0. 0. 0. 5. 104. 131.
      26. 0. 3. 10. 11. 1. 1. 17. 41. 4. 5. 7. 21. 9. 54. 1. 0. 1. 0. 0.
      0. 9. 146. 43. 13. 4. 0. 0. 0. 42. 88. 85. 146. 65. 0. 0. 0. 4. 0.
      68. 146. 15. 0. 0. 0. 0. 48. 11. 0. 1. 0. 0. 0. 4. 103. 97. 82.
      22. 0. 0. 0. 5. 7. 16. 146. 146. 0. 0. 0. 0. 1. 17. 146. 33. 1. 0.
      0. 3. 7. 3. 0. 0. 0. 0. 0. 1. 3. 13. 24. 5. 0. 0. 0. 0. 0. 0. 17.
      19. 1. 0. 0. 0. 5. 0. 2. 4. 2. 0. 0. 9.</_>
    <_>
      1. 12. 29. 142. 74. 11. 4. 0. 23. 104. 58. 59. 13. 3. 3. 0. 3. 9.
      17. 48. 18. 1. 0. 0. 1. 6. 25. 17. 3. 0. 0. 0. 17. 22. 17. 142.
      142. 0. 0. 1. 142. 142. 21. 45. 16. 2. 0. 6. 44. 18. 4. 16. 23.
      32. 7. 3. 5. 4. 6. 22. 17. 6. 3. 2. 37. 3. 4. 142. 107. 2. 4. 46.
      142. 16. 2. 9. 6. 1. 2. 101. 62. 16. 5. 3. 21. 23. 3. 4. 1. 3. 7.
      20. 50. 25. 1. 0. 30. 4. 3. 32. 5. 1. 5. 142. 63. 14. 16. 10. 3.
      0. 1. 128. 14. 29. 59. 11. 6. 2. 0. 2. 1. 4. 18. 29. 30. 11. 1. 0.</_>
    <_>
      19. 34. 1. 0. 0. 0. 0. 0. 144. 144. 0. 0. 0. 0. 0. 4. 92. 112. 15.
      1. 1. 3. 1. 1. 7. 23. 22. 1. 0. 3. 12. 8. 36. 9. 3. 0. 0. 0. 0. 1.
      144. 35. 11. 3. 0. 0. 0. 24. 109. 52. 135. 98. 0. 0. 0. 5. 2. 38.
      144. 59. 0. 0. 0. 1. 20. 17. 5. 0. 0. 0. 0. 0. 111. 116. 93. 17.
      0. 0. 0. 2. 12. 24. 144. 144. 0. 0. 0. 0. 0. 4. 142. 68. 0. 0. 0.
      0. 0. 4. 4. 0. 0. 0. 0. 0. 0. 14. 30. 3. 0. 0. 0. 0. 0. 1. 28. 15.
      0. 0. 0. 0. 0. 0. 6. 4. 0. 0. 0. 0.</_>
    <_>
      11. 0. 0. 0. 0. 9. 40. 29. 92. 1. 0. 0. 0. 7. 16. 37. 125. 4. 0.
      0. 0. 2. 7. 45. 11. 0. 0. 0. 0. 23. 67. 21. 19. 0. 0. 0. 0. 18.
      50. 71. 60. 12. 0. 0. 2. 84. 40. 21. 125. 28. 0. 0. 0. 5. 3. 31.
      64. 0. 0. 0. 0. 5. 69. 64. 12. 0. 0. 0. 0. 7. 94. 74. 11. 1. 0. 0.
      4. 125. 74. 24. 125. 3. 0. 0. 0. 33. 33. 59. 125. 0. 0. 0. 0. 7.
      51. 104. 51. 1. 0. 0. 0. 2. 64. 58. 0. 0. 0. 0. 0. 65. 125. 10.
      73. 0. 0. 0. 0. 31. 100. 99. 125. 0. 0. 0. 0. 2. 15. 125.</_>
    <_>
      0. 1. 27. 1. 0. 0. 0. 0. 16. 37. 166. 40. 0. 0. 0. 2. 12. 88. 166.
      12. 0. 0. 0. 2. 0. 72. 166. 0. 0. 0. 0. 0. 10. 4. 8. 0. 0. 0. 0.
      0. 166. 56. 70. 1. 0. 0. 0. 37. 75. 35. 40. 3. 5. 5. 5. 29. 0. 18.
      86. 4. 1. 8. 24. 5. 13. 1. 0. 0. 0. 1. 7. 4. 166. 42. 1. 0. 0. 3.
      28. 35. 88. 62. 6. 0. 2. 2. 5. 13. 33. 14. 0. 0. 0. 12. 51. 25. 0.
      0. 0. 0. 0. 20. 24. 2. 35. 7. 1. 0. 28. 166. 105. 26. 29. 67. 12.
      1. 11. 26. 3. 4. 44. 93. 2. 0. 0. 0. 3. 4.</_>
    <_>
      19. 12. 38. 20. 0. 0. 0. 1. 16. 11. 13. 7. 0. 0. 0. 0. 5. 1. 0. 0.
      0. 0. 0. 0. 0. 0. 0. 0. 0. 0. 0. 0. 11. 12. 52. 36. 0. 0. 0. 5.
      148. 72. 13. 4. 0. 0. 1. 39. 165. 34. 0. 0. 0. 0. 0. 34. 23. 0. 0.
      0. 0. 0. 0. 5. 26. 1. 4. 3. 0. 1. 24. 59. 97. 6. 0. 0. 0. 0. 17.
      165. 165. 7. 0. 0. 0. 0. 14. 165. 45. 0. 0. 3. 17. 8. 2. 28. 36.
      0. 0. 0. 0. 1. 29. 157. 120. 0. 0. 0. 0. 0. 5. 165. 15. 0. 0. 1.
      1. 1. 12. 165. 2. 0. 0. 3. 19. 9. 4. 13.</_>
    <_>
      1. 1. 1. 0. 32. 95. 39. 2. 70. 15. 5. 1. 6. 21. 15. 13. 139. 58.
      0. 0. 0. 0. 0. 6. 14. 5. 0. 0. 0. 0. 0. 0. 0. 0. 9. 14. 22. 139.
      139. 0. 42. 4. 1. 4. 55. 139. 74. 20. 139. 35. 0. 0. 3. 10. 6. 35.
      31. 10. 0. 0. 0. 0. 0. 2. 1. 3. 123. 103. 28. 47. 19. 4. 6. 1. 13.
      38. 106. 127. 77. 30. 69. 3. 1. 0. 3. 15. 68. 132. 13. 2. 1. 0. 0.
      0. 6. 15. 2. 3. 20. 12. 1. 0. 47. 33. 0. 0. 2. 2. 1. 4. 98. 42. 0.
      0. 9. 11. 0. 1. 113. 65. 0. 0. 27. 17. 0. 0. 50. 32.</_>
    <_>
      5. 24. 108. 55. 3. 1. 0. 0. 44. 134. 37. 1. 0. 0. 0. 3. 17. 91.
      103. 6. 0. 0. 0. 3. 1. 31. 115. 17. 8. 1. 0. 0. 26. 8. 8. 5. 5.
      21. 5. 2. 134. 34. 3. 5. 2. 1. 0. 14. 25. 19. 45. 93. 23. 0. 0. 6.
      0. 63. 108. 32. 2. 0. 0. 0. 11. 1. 0. 0. 2. 80. 105. 7. 98. 14. 3.
      13. 8. 18. 62. 33. 9. 5. 5. 83. 51. 30. 28. 1. 2. 21. 22. 18. 5.
      14. 30. 4. 0. 0. 0. 0. 0. 84. 134. 1. 2. 0. 0. 0. 2. 68. 134. 12.
      0. 0. 0. 1. 7. 103. 134. 1. 1. 0. 0. 0. 1. 42. 134. 8.</_>
    <_>
      0. 0. 9. 38. 1. 0. 0. 0. 0. 0. 27. 90. 6. 0. 0. 0. 1. 2. 25. 90.
      26. 5. 8. 7. 5. 2. 14. 29. 3. 2. 33. 72. 0. 0. 8. 133. 12. 0. 0.
      0. 5. 13. 86. 142. 13. 0. 0. 0. 110. 53. 53. 25. 6. 2. 6. 35. 45.
      1. 0. 0. 0. 1. 20. 134. 0. 0. 2. 142. 20. 0. 0. 0. 36. 19. 30.
      142. 28. 0. 0. 3. 142. 29. 8. 6. 2. 0. 0. 37. 125. 0. 0. 0. 0. 0.
      0. 33. 0. 0. 10. 142. 8. 0. 0. 0. 76. 35. 34. 94. 0. 0. 0. 0. 142.
      30. 3. 0. 0. 0. 0. 20. 86. 2. 0. 0. 0. 0. 0. 14.</_>
    <_>
      82. 1. 0. 0. 0. 0. 0. 3. 93. 26. 1. 3. 1. 0. 0. 1. 180. 79. 0. 0.
      0. 0. 0. 3. 50. 13. 0. 0. 0. 0. 0. 0. 100. 3. 0. 0. 0. 0. 0. 1.
      116. 7. 0. 5. 6. 0. 0. 3. 180. 13. 0. 0. 0. 0. 0. 14. 94. 4. 0. 0.
      0. 0. 0. 1. 90. 4. 0. 0. 0. 0. 0. 3. 115. 14. 0. 4. 5. 0. 0. 6.
      180. 49. 0. 0. 0. 0. 0. 23. 84. 15. 0. 0. 0. 0. 0. 2. 65. 10. 0.
      1. 0. 0. 0. 1. 45. 29. 1. 8. 9. 0. 0. 0. 180. 157. 1. 1. 1. 0. 0.
      2. 89. 47. 0. 0. 0. 0. 0. 1.</_>
    <_>
      8. 3. 1. 23. 41. 2. 0. 0. 3. 35. 48. 51. 20. 0. 0. 0. 38. 125. 27.
      2. 0. 0. 0. 1. 5. 20. 42. 15. 0. 0. 0. 1. 8. 3. 3. 82. 63. 0. 0.
      0. 11. 31. 46. 125. 103. 1. 0. 1. 125. 125. 43. 17. 4. 0. 0. 2.
      16. 30. 82. 70. 1. 0. 0. 0. 1. 1. 1. 44. 95. 11. 0. 0. 35. 4. 2.
      41. 125. 13. 2. 12. 125. 21. 7. 43. 22. 3. 1. 36. 24. 12. 41. 125.
      22. 0. 0. 0. 0. 2. 4. 12. 79. 25. 0. 0. 43. 3. 0. 17. 125. 29. 2.
      5. 125. 6. 1. 42. 82. 4. 1. 15. 42. 10. 9. 113. 122. 6. 0. 2.</_>
    <_>
      6. 116. 75. 102. 33. 0. 0. 0. 53. 141. 43. 12. 6. 0. 0. 0. 19. 20.
      7. 23. 24. 4. 6. 23. 60. 99. 10. 10. 1. 0. 1. 12. 38. 31. 9. 35.
      101. 12. 5. 8. 141. 111. 3. 1. 1. 1. 2. 11. 70. 15. 6. 29. 13. 1.
      1. 8. 18. 69. 21. 54. 35. 1. 0. 2. 28. 7. 2. 1. 67. 116. 30. 12.
      141. 19. 1. 1. 1. 5. 13. 54. 79. 5. 1. 19. 30. 13. 3. 7. 10. 8. 1.
      10. 43. 33. 12. 7. 8. 1. 0. 0. 5. 141. 130. 15. 98. 12. 0. 0. 7.
      45. 70. 86. 50. 15. 0. 0. 4. 18. 30. 18. 2. 0. 0. 0. 1. 22. 83.
      31.</_>
    <_>
      13. 13. 6. 11. 2. 0. 0. 3. 1. 2. 3. 26. 8. 1. 1. 1. 114. 17. 0. 5.
      4. 2. 1. 0. 219. 21. 0. 0. 0. 0. 0. 0. 7. 1. 1. 3. 7. 15. 13. 30.
      2. 1. 1. 6. 9. 15. 18. 19. 139. 6. 0. 2. 16. 23. 9. 7. 219. 18. 0.
      0. 0. 0. 0. 1. 1. 1. 16. 26. 11. 8. 6. 12. 5. 15. 17. 17. 10. 6.
      4. 8. 126. 7. 6. 19. 26. 5. 1. 3. 219. 13. 0. 0. 1. 0. 0. 3. 0. 0.
      9. 13. 5. 5. 1. 0. 0. 8. 11. 10. 6. 4. 0. 0. 105. 5. 9. 12. 4. 0.
      0. 4. 219. 2. 0. 0. 0. 0. 0. 16.</_>
    <_>
      20. 130. 2. 0. 0. 4. 2. 0. 9. 107. 58. 24. 1. 0. 0. 0. 130. 75.
      20. 15. 1. 0. 0. 1. 91. 37. 0. 1. 0. 0. 0. 4. 5. 85. 9. 0. 0. 130.
      83. 1. 19. 98. 105. 4. 0. 20. 59. 19. 130. 67. 29. 3. 0. 0. 9. 49.
      130. 25. 0. 0. 0. 0. 0. 11. 0. 1. 3. 2. 1. 130. 104. 0. 9. 8. 7.
      1. 0. 61. 130. 59. 100. 11. 1. 0. 0. 0. 75. 130. 103. 36. 0. 0. 1.
      0. 0. 13. 0. 0. 2. 3. 2. 3. 2. 0. 4. 9. 3. 2. 0. 2. 13. 4. 19. 6.
      0. 0. 0. 0. 5. 13. 34. 2. 0. 0. 0. 0. 0. 8.</_>
    <_>
      0. 0. 0. 0. 0. 0. 0. 0. 0. 0. 0. 2. 3. 0. 0. 0. 1. 0. 0. 0. 0. 0.
      0. 0. 0. 0. 0. 0. 0. 0. 0. 0. 0. 1. 30. 70. 9. 0. 0. 0. 21. 6. 11.
      151. 65. 0. 0. 0. 151. 10. 5. 24. 9. 0. 0. 14. 32. 0. 0. 1. 20. 0.
      0. 3. 0. 3. 151. 151. 1. 0. 0. 0. 76. 42. 92. 151. 10. 0. 0. 1.
      151. 64. 8. 12. 1. 0. 0. 23. 40. 5. 0. 13. 42. 0. 0. 4. 0. 1. 77.
      119. 23. 0. 0. 0. 42. 78. 60. 53. 0. 0. 0. 0. 151. 151. 3. 1. 0.
      0. 0. 0. 41. 36. 1. 27. 51. 0. 0. 0.</_>
    <_>
      2. 36. 27. 2. 0. 0. 0. 0. 11. 76. 44. 1. 0. 0. 0. 0. 5. 120. 53.
      2. 0. 0. 0. 0. 2. 88. 121. 4. 1. 1. 2. 1. 9. 35. 34. 4. 1. 0. 0.
      0. 67. 26. 11. 3. 1. 0. 0. 7. 12. 16. 43. 25. 17. 2. 1. 2. 0. 13.
      89. 32. 10. 7. 2. 0. 18. 12. 6. 3. 2. 1. 76. 33. 57. 17. 3. 2. 1.
      0. 103. 56. 3. 3. 3. 8. 13. 5. 155. 34. 0. 0. 1. 3. 9. 42. 155.
      14. 0. 0. 0. 0. 0. 5. 155. 80. 1. 0. 0. 0. 0. 3. 155. 79. 1. 0. 0.
      0. 0. 0. 155. 71. 1. 0. 0. 0. 0. 9. 155. 47.</_>
    <_>
      0. 0. 70. 118. 0. 0. 0. 1. 1. 10. 118. 78. 0. 0. 0. 0. 1. 7. 65.
      116. 8. 0. 0. 0. 0. 0. 21. 97. 21. 0. 0. 0. 3. 4. 67. 118. 51. 2.
      0. 1. 93. 62. 118. 78. 4. 1. 0. 4. 25. 23. 49. 118. 7. 0. 0. 0. 1.
      9. 33. 77. 35. 0. 0. 0. 6. 1. 3. 47. 118. 77. 20. 10. 112. 10. 4.
      25. 25. 17. 28. 60. 27. 18. 20. 118. 76. 0. 0. 2. 36. 42. 20. 26.
      37. 2. 1. 1. 3. 0. 0. 0. 66. 118. 16. 6. 9. 2. 1. 8. 57. 30. 30.
      22. 17. 3. 1. 31. 118. 37. 5. 8. 60. 11. 1. 3. 8. 5. 7. 60.</_>
    <_>
      4. 6. 1. 0. 3. 11. 7. 6. 4. 0. 0. 0. 0. 16. 61. 26. 42. 28. 0. 0.
      0. 25. 25. 4. 122. 83. 0. 0. 0. 0. 0. 0. 37. 4. 0. 0. 0. 13. 15.
      22. 96. 5. 0. 1. 6. 31. 60. 92. 20. 7. 0. 2. 80. 122. 44. 12. 122.
      40. 0. 0. 12. 8. 1. 11. 20. 1. 0. 0. 0. 102. 95. 14. 122. 30. 3.
      8. 13. 13. 40. 37. 17. 10. 4. 22. 122. 53. 23. 25. 122. 1. 0. 0.
      15. 12. 15. 122. 0. 0. 0. 0. 3. 122. 103. 2. 8. 2. 0. 1. 2. 49.
      122. 17. 1. 1. 0. 3. 13. 36. 122. 44. 21. 0. 0. 0. 0. 2. 34. 122.</_>
    <_>
      0. 0. 1. 52. 27. 11. 3. 0. 1. 6. 21. 28. 12. 8. 2. 0. 1. 3. 75.
      53. 1. 2. 9. 6. 0. 1. 82. 43. 0. 1. 29. 16. 0. 0. 0. 4. 32. 34.
      15. 0. 7. 2. 25. 117. 117. 42. 4. 1. 116. 27. 79. 76. 13. 8. 32.
      117. 20. 18. 20. 12. 0. 0. 117. 117. 0. 0. 0. 5. 35. 63. 8. 0. 6.
      1. 1. 18. 107. 117. 27. 3. 117. 108. 10. 4. 10. 93. 77. 43. 30.
      117. 106. 0. 0. 2. 31. 33. 0. 0. 8. 5. 21. 93. 8. 0. 0. 0. 3. 7.
      13. 95. 42. 0. 1. 5. 1. 1. 2. 54. 80. 4. 2. 24. 19. 0. 0. 4. 71.
      11.</_>
    <_>
      24. 25. 2. 4. 1. 0. 0. 0. 118. 158. 1. 0. 0. 0. 0. 0. 67. 158. 1.
      0. 0. 0. 0. 0. 7. 7. 1. 0. 3. 3. 0. 0. 1. 7. 4. 7. 7. 0. 0. 0. 72.
      158. 9. 3. 4. 0. 0. 2. 158. 158. 0. 0. 0. 0. 0. 9. 45. 7. 0. 0. 2.
      2. 1. 4. 0. 0. 0. 2. 12. 3. 0. 0. 123. 15. 2. 3. 15. 3. 0. 17.
      158. 36. 0. 0. 0. 0. 0. 48. 49. 6. 1. 3. 2. 0. 0. 5. 0. 0. 2. 8.
      7. 1. 0. 0. 54. 42. 3. 10. 15. 1. 0. 1. 158. 158. 1. 1. 0. 0. 0.
      3. 31. 82. 1. 1. 1. 0. 0. 0.</_>
    <_>
      0. 0. 0. 0. 35. 100. 16. 0. 69. 10. 0. 0. 2. 22. 20. 6. 137. 42.
      0. 0. 0. 1. 0. 10. 135. 7. 0. 0. 0. 0. 0. 27. 0. 0. 0. 0. 51. 111.
      39. 0. 47. 3. 0. 0. 39. 103. 40. 8. 137. 14. 0. 0. 4. 6. 4. 29.
      137. 2. 0. 0. 0. 0. 0. 31. 3. 9. 4. 3. 5. 58. 28. 1. 10. 2. 8. 24.
      24. 137. 47. 18. 137. 34. 9. 6. 2. 13. 24. 55. 137. 14. 0. 0. 0.
      0. 0. 5. 2. 7. 9. 13. 11. 12. 5. 2. 1. 6. 22. 92. 64. 22. 2. 1.
      137. 95. 30. 25. 11. 5. 1. 6. 137. 38. 0. 0. 0. 0. 0. 2.</_>
    <_>
      0. 1. 3. 59. 51. 0. 0. 0. 3. 9. 22. 135. 36. 1. 0. 0. 26. 37. 17.
      20. 21. 3. 0. 4. 1. 2. 3. 37. 52. 2. 0. 0. 0. 2. 5. 96. 132. 5. 0.
      0. 10. 30. 71. 135. 100. 6. 0. 1. 93. 135. 60. 29. 12. 0. 0. 3.
      10. 17. 3. 60. 54. 2. 3. 4. 5. 12. 2. 38. 135. 13. 0. 0. 44. 6. 4.
      41. 135. 20. 0. 6. 135. 40. 9. 15. 23. 1. 0. 19. 30. 9. 5. 28. 10.
      0. 2. 20. 24. 16. 0. 17. 135. 15. 0. 0. 34. 2. 0. 35. 135. 7. 0.
      5. 135. 27. 2. 2. 11. 0. 0. 22. 44. 5. 2. 2. 0. 0. 2. 40.</_>
    <_>
      36. 40. 19. 0. 0. 0. 0. 0. 173. 66. 2. 0. 1. 0. 0. 0. 64. 11. 0.
      2. 32. 25. 0. 0. 0. 0. 9. 5. 19. 48. 1. 0. 42. 62. 56. 0. 0. 1. 6.
      1. 173. 81. 5. 0. 0. 0. 1. 8. 105. 5. 0. 0. 2. 18. 13. 12. 0. 0.
      0. 0. 18. 79. 5. 0. 39. 10. 4. 0. 0. 36. 98. 23. 173. 19. 0. 0. 0.
      2. 14. 74. 134. 1. 0. 0. 0. 12. 13. 14. 0. 0. 0. 0. 10. 50. 9. 0.
      6. 0. 0. 0. 0. 65. 150. 20. 173. 0. 0. 0. 0. 9. 46. 116. 87. 0. 0.
      0. 0. 1. 7. 21. 0. 0. 0. 0. 7. 20. 12. 3.</_>
    <_>
      1. 1. 0. 8. 38. 12. 2. 0. 3. 0. 0. 6. 42. 16. 14. 67. 27. 0. 0. 0.
      0. 0. 17. 128. 57. 0. 0. 0. 0. 0. 11. 128. 6. 3. 2. 17. 21. 3. 3.
      5. 53. 3. 0. 1. 8. 6. 21. 128. 79. 5. 0. 0. 0. 0. 12. 128. 128.
      15. 0. 0. 0. 0. 4. 128. 19. 4. 10. 12. 4. 1. 2. 23. 128. 21. 0. 1.
      0. 0. 1. 51. 128. 17. 0. 0. 0. 0. 1. 81. 128. 5. 0. 0. 0. 0. 0.
      97. 3. 0. 0. 0. 1. 3. 36. 66. 60. 2. 0. 0. 0. 0. 15. 128. 110. 2.
      0. 0. 0. 0. 1. 128. 82. 0. 0. 0. 0. 0. 0. 91.</_>
    <_>
      0. 0. 1. 66. 45. 0. 0. 0. 0. 0. 1. 88. 94. 0. 0. 0. 10. 1. 2. 21.
      60. 8. 4. 25. 6. 0. 0. 3. 50. 19. 4. 25. 0. 7. 70. 133. 11. 0. 0.
      0. 4. 7. 29. 133. 25. 0. 0. 0. 93. 25. 22. 37. 6. 1. 1. 21. 23. 0.
      0. 0. 39. 44. 5. 18. 0. 83. 133. 89. 0. 0. 0. 0. 59. 45. 133. 133.
      1. 0. 0. 2. 133. 29. 12. 7. 0. 0. 1. 28. 33. 0. 0. 1. 23. 30. 2.
      12. 10. 67. 112. 16. 0. 3. 64. 30. 133. 33. 63. 18. 0. 2. 26. 77.
      133. 7. 1. 0. 0. 0. 0. 69. 24. 0. 0. 8. 33. 3. 0. 7.</_>
    <_>
      7. 93. 7. 0. 0. 0. 0. 0. 69. 144. 3. 0. 0. 0. 0. 0. 31. 144. 31.
      17. 2. 0. 0. 0. 0. 3. 15. 51. 24. 0. 0. 0. 31. 47. 43. 10. 0. 0.
      0. 1. 144. 144. 12. 7. 0. 0. 0. 26. 87. 94. 142. 144. 11. 0. 0. 5.
      0. 2. 90. 144. 72. 1. 0. 0. 45. 11. 22. 5. 0. 0. 0. 3. 144. 79.
      22. 18. 1. 0. 0. 14. 20. 27. 41. 144. 50. 0. 0. 1. 0. 0. 22. 59.
      17. 2. 0. 0. 0. 0. 0. 0. 0. 0. 0. 0. 4. 4. 2. 2. 0. 0. 0. 0. 1. 2.
      3. 24. 9. 0. 0. 0. 0. 0. 1. 4. 2. 0. 0. 0.</_>
    <_>
      4. 0. 0. 10. 152. 12. 1. 0. 41. 3. 0. 1. 43. 5. 4. 3. 152. 9. 0.
      0. 0. 0. 0. 15. 100. 1. 0. 0. 0. 0. 0. 26. 7. 2. 1. 40. 152. 4. 5.
      2. 38. 3. 2. 7. 35. 20. 25. 8. 152. 4. 0. 1. 2. 2. 1. 19. 126. 2.
      2. 1. 0. 0. 0. 26. 5. 4. 7. 39. 152. 0. 0. 1. 36. 15. 31. 23. 22.
      3. 1. 1. 152. 27. 1. 2. 1. 0. 0. 1. 138. 8. 3. 3. 7. 1. 0. 2. 1.
      0. 1. 17. 152. 0. 0. 1. 31. 9. 5. 6. 17. 0. 0. 0. 152. 52. 0. 0.
      0. 0. 0. 0. 105. 30. 1. 2. 6. 1. 0. 0.</_>
    <_>
      0. 1. 67. 79. 0. 0. 8. 12. 9. 20. 126. 72. 1. 0. 2. 6. 3. 3. 26.
      126. 81. 32. 2. 3. 0. 0. 8. 78. 82. 36. 0. 0. 31. 14. 126. 126. 0.
      0. 0. 1. 126. 57. 83. 31. 2. 1. 2. 44. 30. 6. 5. 44. 126. 39. 8.
      28. 0. 0. 0. 6. 126. 74. 0. 0. 71. 12. 18. 32. 1. 2. 1. 2. 126.
      108. 13. 14. 2. 0. 0. 9. 20. 28. 18. 74. 63. 15. 0. 3. 0. 0. 0. 4.
      69. 77. 0. 0. 20. 10. 0. 0. 2. 6. 1. 1. 91. 123. 4. 1. 0. 0. 0. 0.
      35. 57. 11. 6. 4. 4. 1. 2. 3. 0. 0. 0. 30. 44. 3. 2.</_>
    <_>
      78. 1. 0. 0. 0. 0. 0. 12. 159. 12. 0. 0. 0. 0. 9. 87. 55. 13. 4.
      3. 8. 48. 63. 42. 0. 1. 1. 2. 7. 79. 50. 1. 120. 1. 0. 0. 0. 0. 0.
      16. 159. 33. 5. 0. 0. 0. 0. 31. 91. 27. 59. 37. 3. 4. 5. 22. 0. 0.
      81. 94. 5. 17. 27. 3. 105. 6. 0. 0. 0. 0. 0. 14. 159. 127. 35. 3.
      0. 0. 0. 7. 26. 45. 159. 72. 0. 0. 0. 2. 1. 1. 75. 70. 1. 1. 1. 0.
      52. 9. 0. 0. 0. 0. 0. 6. 157. 57. 4. 0. 0. 0. 0. 3. 39. 17. 13. 2.
      0. 0. 0. 5. 5. 2. 2. 1. 0. 0. 0. 2.</_>
    <_>
      0. 0. 148. 88. 0. 0. 0. 0. 0. 3. 148. 58. 0. 0. 0. 0. 0. 41. 148.
      13. 2. 1. 0. 0. 4. 130. 90. 2. 1. 4. 5. 2. 11. 10. 148. 82. 0. 0.
      0. 0. 57. 30. 148. 23. 2. 4. 3. 15. 4. 37. 134. 13. 34. 28. 3. 5.
      1. 148. 90. 3. 8. 3. 0. 0. 35. 18. 24. 7. 0. 2. 2. 6. 80. 67. 10.
      1. 1. 1. 1. 27. 11. 20. 10. 3. 55. 38. 5. 20. 0. 36. 27. 7. 56.
      19. 0. 0. 25. 2. 0. 0. 0. 9. 8. 21. 60. 13. 2. 1. 0. 0. 2. 92. 7.
      3. 4. 35. 51. 12. 8. 44. 0. 0. 1. 26. 79. 7. 0. 0.</_>
    <_>
      0. 0. 1. 5. 2. 1. 0. 0. 0. 1. 23. 34. 1. 0. 0. 0. 0. 17. 51. 15.
      6. 0. 0. 0. 0. 3. 3. 12. 21. 0. 0. 0. 0. 24. 85. 72. 0. 0. 0. 0.
      10. 18. 109. 153. 1. 0. 0. 0. 127. 143. 124. 50. 1. 0. 0. 6. 26.
      18. 4. 5. 7. 0. 0. 2. 0. 63. 153. 92. 0. 0. 0. 0. 72. 31. 92. 153.
      2. 0. 0. 6. 153. 119. 23. 16. 0. 0. 0. 31. 37. 20. 4. 0. 0. 0. 0.
      4. 0. 8. 58. 8. 2. 4. 1. 0. 18. 45. 36. 14. 2. 2. 0. 1. 41. 153.
      59. 0. 0. 0. 0. 1. 1. 20. 9. 0. 0. 0. 0. 0.</_>
    <_>
      0. 0. 0. 5. 19. 7. 0. 0. 95. 1. 0. 1. 5. 4. 2. 55. 112. 1. 0. 0.
      0. 11. 86. 145. 1. 0. 0. 0. 0. 18. 65. 6. 0. 0. 0. 3. 17. 9. 3. 2.
      153. 17. 0. 0. 1. 2. 5. 35. 153. 51. 0. 0. 0. 3. 35. 69. 24. 3. 0.
      0. 0. 5. 30. 10. 1. 0. 0. 0. 4. 8. 11. 42. 70. 2. 0. 0. 0. 1. 27.
      153. 153. 13. 0. 0. 0. 0. 1. 139. 22. 2. 0. 0. 0. 0. 0. 1. 30. 0.
      0. 0. 0. 0. 5. 146. 15. 0. 0. 0. 0. 0. 48. 153. 46. 0. 0. 0. 0. 0.
      12. 142. 1. 0. 0. 0. 0. 0. 0. 1.</_>
    <_>
      7. 120. 117. 0. 0. 0. 0. 0. 10. 145. 145. 0. 0. 0. 0. 0. 0. 39.
      145. 16. 0. 0. 0. 0. 0. 6. 145. 12. 0. 0. 0. 0. 53. 28. 6. 0. 0.
      0. 1. 14. 91. 53. 15. 3. 1. 0. 0. 7. 6. 10. 52. 60. 18. 0. 0. 0.
      0. 5. 71. 29. 4. 0. 0. 0. 20. 0. 0. 0. 0. 1. 73. 67. 36. 13. 18.
      8. 1. 16. 60. 17. 1. 2. 22. 57. 10. 17. 36. 0. 0. 3. 23. 20. 3. 5.
      38. 5. 0. 0. 0. 0. 0. 3. 145. 82. 0. 0. 0. 0. 0. 48. 145. 5. 0. 0.
      0. 2. 1. 48. 145. 2. 0. 0. 0. 0. 0. 9. 145. 14.</_>
    <_>
      1. 0. 0. 0. 0. 0. 3. 5. 23. 0. 0. 0. 0. 0. 1. 59. 94. 0. 0. 0. 0.
      0. 1. 164. 21. 0. 0. 2. 8. 1. 7. 164. 8. 2. 0. 0. 0. 0. 2. 5. 124.
      17. 0. 0. 0. 0. 0. 34. 164. 6. 0. 0. 1. 0. 0. 104. 53. 0. 0. 4.
      29. 4. 1. 32. 10. 2. 0. 0. 0. 0. 1. 4. 143. 17. 0. 0. 0. 0. 0. 11.
      164. 63. 0. 0. 1. 0. 0. 10. 61. 16. 0. 0. 22. 18. 0. 2. 3. 0. 0.
      0. 0. 0. 3. 15. 47. 26. 3. 2. 0. 0. 2. 11. 164. 164. 1. 0. 0. 0.
      0. 0. 35. 143. 0. 0. 4. 8. 0. 0.</_>
    <_>
      62. 32. 0. 0. 0. 0. 0. 0. 195. 48. 0. 0. 4. 0. 0. 1. 89. 6. 0. 6.
      93. 3. 0. 0. 1. 0. 0. 2. 20. 3. 2. 5. 79. 17. 0. 0. 0. 0. 0. 7.
      195. 31. 0. 0. 4. 0. 0. 37. 118. 6. 0. 5. 103. 13. 0. 8. 1. 0. 0.
      3. 23. 10. 2. 2. 71. 19. 2. 0. 0. 0. 0. 5. 195. 57. 0. 1. 4. 0. 0.
      41. 110. 11. 1. 7. 92. 8. 0. 11. 0. 0. 0. 2. 30. 7. 1. 0. 67. 1.
      0. 0. 0. 0. 0. 14. 195. 5. 0. 1. 4. 0. 0. 44. 79. 2. 0. 8. 72. 4.
      0. 7. 0. 0. 0. 7. 19. 3. 2. 0.</_>
    <_>
      3. 135. 135. 1. 1. 3. 0. 0. 18. 135. 135. 0. 0. 0. 0. 0. 2. 81.
      135. 2. 1. 0. 0. 0. 0. 15. 94. 6. 3. 6. 1. 0. 41. 60. 41. 1. 2.
      117. 24. 14. 135. 135. 20. 0. 0. 2. 5. 25. 38. 70. 113. 15. 0. 0.
      0. 0. 0. 27. 96. 4. 0. 0. 0. 0. 11. 0. 0. 0. 12. 135. 52. 28. 135.
      5. 1. 0. 0. 14. 29. 110. 31. 7. 9. 21. 5. 6. 2. 8. 0. 1. 7. 5. 1.
      1. 0. 0. 5. 5. 21. 29. 32. 39. 9. 7. 39. 4. 1. 1. 2. 7. 13. 63. 4.
      0. 0. 0. 2. 17. 10. 11. 0. 0. 0. 0. 0. 1. 0. 0.</_>
    <_>
      0. 0. 5. 132. 51. 0. 0. 0. 36. 39. 53. 132. 11. 0. 0. 2. 20. 17.
      12. 99. 15. 0. 1. 5. 0. 0. 7. 111. 29. 0. 0. 0. 8. 2. 2. 132. 132.
      0. 0. 1. 132. 34. 13. 80. 38. 0. 0. 12. 31. 13. 7. 123. 61. 0. 0.
      2. 0. 0. 9. 124. 32. 1. 0. 0. 21. 1. 0. 132. 132. 0. 0. 3. 128.
      32. 12. 30. 20. 0. 0. 9. 8. 9. 11. 131. 62. 4. 1. 1. 0. 0. 0. 48.
      20. 4. 13. 8. 20. 1. 0. 69. 65. 7. 2. 8. 63. 9. 1. 4. 10. 4. 1.
      11. 2. 1. 1. 9. 44. 42. 4. 2. 2. 0. 0. 1. 4. 11. 21. 29.</_>
    <_>
      104. 114. 14. 0. 0. 0. 0. 1. 92. 70. 39. 21. 15. 18. 3. 6. 22. 14.
      27. 44. 56. 36. 1. 1. 42. 46. 19. 1. 1. 1. 0. 2. 124. 99. 36. 6.
      0. 0. 0. 5. 43. 72. 124. 101. 2. 0. 0. 0. 122. 72. 124. 49. 7. 0.
      1. 24. 48. 14. 10. 1. 0. 0. 24. 55. 58. 118. 31. 8. 0. 0. 0. 2.
      43. 24. 59. 76. 6. 0. 4. 16. 124. 87. 30. 6. 1. 0. 1. 34. 41. 69.
      104. 2. 0. 1. 10. 22. 74. 18. 1. 0. 0. 0. 4. 52. 20. 6. 1. 2. 1.
      0. 30. 78. 71. 24. 7. 0. 0. 1. 10. 87. 8. 29. 47. 2. 2. 13. 22.
      13.</_>
    <_>
      10. 0. 0. 79. 133. 1. 0. 6. 14. 1. 7. 52. 70. 12. 2. 12. 8. 17.
      14. 30. 73. 38. 14. 13. 9. 16. 5. 22. 29. 30. 23. 14. 5. 1. 1. 14.
      133. 45. 0. 1. 13. 9. 24. 133. 111. 28. 5. 4. 105. 31. 27. 39. 18.
      14. 24. 40. 12. 3. 3. 5. 17. 40. 41. 20. 0. 0. 0. 1. 133. 133. 2.
      0. 4. 1. 1. 8. 77. 133. 55. 8. 68. 29. 18. 5. 28. 65. 46. 28. 12.
      27. 29. 31. 22. 5. 2. 3. 0. 0. 0. 0. 110. 133. 1. 0. 0. 0. 0. 0.
      31. 133. 13. 1. 2. 3. 2. 1. 39. 103. 34. 5. 6. 6. 3. 7. 27. 42.
      37. 20.</_>
    <_>
      50. 161. 0. 0. 0. 0. 0. 0. 95. 161. 0. 0. 0. 2. 1. 1. 18. 10. 0.
      0. 11. 30. 5. 2. 1. 0. 0. 1. 3. 10. 10. 7. 47. 124. 0. 0. 0. 0. 0.
      5. 161. 161. 0. 0. 0. 0. 0. 11. 91. 18. 0. 4. 15. 9. 1. 1. 0. 0.
      0. 6. 17. 9. 2. 0. 76. 3. 0. 0. 0. 0. 0. 68. 161. 9. 0. 0. 0. 0.
      0. 118. 106. 3. 0. 4. 12. 3. 1. 8. 0. 0. 0. 3. 14. 11. 2. 0. 141.
      4. 0. 0. 0. 0. 0. 35. 161. 8. 0. 0. 0. 0. 0. 61. 62. 8. 1. 3. 11.
      4. 1. 7. 0. 1. 1. 21. 13. 1. 0. 0.</_>
    <_>
      13. 2. 0. 0. 0. 0. 5. 35. 116. 24. 1. 1. 0. 0. 0. 15. 213. 48. 0.
      0. 0. 0. 0. 3. 49. 2. 0. 0. 0. 0. 0. 3. 14. 0. 0. 1. 3. 1. 2. 32.
      100. 26. 3. 11. 19. 1. 1. 6. 213. 62. 1. 1. 1. 0. 0. 5. 72. 7. 0.
      0. 0. 0. 0. 2. 16. 20. 6. 8. 5. 1. 0. 8. 118. 4. 2. 23. 28. 4. 1.
      12. 213. 6. 0. 1. 1. 0. 0. 36. 74. 1. 0. 0. 0. 0. 0. 8. 10. 25. 6.
      1. 1. 0. 0. 0. 100. 7. 5. 4. 6. 4. 1. 8. 213. 19. 0. 0. 0. 0. 0.
      10. 59. 2. 0. 0. 0. 0. 0. 3.</_>
    <_>
      71. 47. 0. 0. 0. 0. 19. 85. 76. 35. 0. 0. 0. 0. 67. 145. 25. 7. 1.
      0. 0. 0. 87. 140. 1. 2. 1. 0. 0. 0. 23. 35. 115. 110. 2. 0. 0. 0.
      0. 12. 145. 114. 1. 0. 0. 0. 0. 8. 108. 20. 1. 0. 0. 0. 0. 4. 6.
      5. 1. 0. 0. 0. 0. 0. 92. 48. 10. 0. 0. 0. 0. 51. 145. 25. 1. 0. 0.
      0. 0. 117. 106. 4. 0. 0. 0. 0. 0. 15. 12. 2. 0. 0. 0. 0. 0. 1. 34.
      4. 0. 0. 0. 0. 20. 145. 93. 0. 0. 0. 0. 0. 1. 145. 28. 5. 0. 0. 0.
      0. 0. 14. 5. 7. 0. 0. 0. 0. 0. 0.</_>
    <_>
      24. 21. 0. 0. 2. 4. 5. 4. 117. 0. 0. 0. 1. 12. 9. 15. 168. 0. 0.
      0. 0. 0. 2. 31. 19. 0. 0. 0. 0. 1. 23. 13. 78. 32. 0. 0. 0. 1. 0.
      1. 146. 10. 1. 1. 2. 4. 1. 7. 168. 14. 0. 0. 0. 0. 1. 14. 38. 0.
      0. 0. 0. 0. 14. 15. 93. 36. 0. 0. 0. 0. 0. 0. 151. 14. 0. 1. 0. 0.
      0. 9. 168. 27. 0. 0. 0. 0. 0. 7. 51. 6. 0. 0. 0. 0. 1. 14. 79. 34.
      0. 0. 0. 0. 0. 0. 69. 49. 7. 3. 1. 0. 0. 1. 155. 168. 61. 4. 1. 0.
      0. 0. 18. 119. 86. 0. 0. 0. 0. 1.</_>
    <_>
      6. 0. 0. 0. 164. 97. 0. 1. 71. 6. 0. 0. 39. 15. 1. 8. 8. 1. 0. 1.
      57. 32. 1. 3. 0. 0. 0. 0. 19. 41. 3. 0. 3. 0. 0. 0. 164. 126. 0.
      1. 93. 1. 0. 0. 85. 34. 2. 21. 15. 1. 0. 2. 74. 33. 2. 6. 0. 0. 0.
      2. 29. 33. 3. 0. 1. 0. 0. 0. 164. 130. 0. 0. 69. 15. 1. 2. 142.
      47. 0. 2. 15. 8. 1. 8. 71. 10. 0. 0. 0. 0. 0. 0. 27. 27. 1. 0. 0.
      0. 0. 0. 164. 83. 0. 0. 22. 17. 3. 2. 164. 43. 0. 0. 10. 15. 6. 3.
      17. 8. 8. 2. 1. 2. 2. 1. 12. 26. 26. 3.</_>
    <_>
      2. 1. 1. 62. 136. 0. 0. 0. 56. 5. 1. 11. 11. 0. 0. 8. 19. 1. 2. 1.
      1. 2. 1. 7. 0. 1. 2. 3. 9. 13. 0. 0. 7. 1. 0. 16. 136. 13. 0. 0.
      104. 5. 0. 2. 15. 1. 0. 11. 20. 2. 3. 2. 9. 9. 3. 6. 0. 0. 3. 6.
      5. 5. 12. 4. 6. 1. 0. 0. 136. 86. 2. 1. 80. 20. 1. 0. 17. 8. 5.
      20. 17. 12. 2. 1. 3. 3. 36. 79. 0. 0. 0. 0. 0. 3. 136. 83. 1. 0.
      0. 0. 103. 136. 48. 3. 11. 2. 0. 0. 5. 33. 136. 130. 4. 1. 0. 0.
      0. 0. 135. 136. 0. 0. 0. 0. 0. 0. 136. 124.</_>
    <_>
      11. 0. 0. 0. 0. 5. 36. 31. 112. 5. 0. 0. 0. 2. 19. 29. 140. 28. 0.
      0. 1. 0. 1. 17. 31. 4. 0. 0. 3. 4. 7. 34. 6. 0. 0. 0. 2. 7. 53.
      63. 74. 12. 0. 1. 22. 24. 36. 11. 140. 37. 0. 0. 1. 0. 0. 10. 105.
      2. 0. 0. 0. 0. 0. 38. 0. 0. 0. 0. 12. 45. 81. 51. 38. 1. 0. 0. 47.
      70. 45. 35. 140. 5. 0. 0. 1. 1. 10. 68. 134. 1. 0. 0. 0. 0. 0. 48.
      0. 0. 0. 0. 2. 94. 140. 17. 3. 0. 0. 0. 3. 73. 140. 40. 46. 0. 0.
      0. 0. 0. 138. 140. 39. 0. 0. 0. 0. 2. 46. 87.</_>
    <_>
      35. 1. 0. 0. 0. 1. 0. 10. 158. 0. 0. 0. 0. 0. 0. 148. 70. 0. 0. 0.
      0. 0. 14. 158. 0. 0. 0. 0. 0. 0. 20. 50. 74. 1. 0. 0. 0. 1. 11.
      11. 158. 10. 0. 0. 0. 0. 1. 73. 126. 12. 3. 0. 0. 0. 3. 54. 3. 8.
      10. 0. 0. 0. 7. 10. 28. 1. 0. 0. 0. 40. 158. 27. 158. 43. 0. 0. 0.
      3. 50. 66. 118. 58. 4. 0. 0. 0. 0. 2. 1. 10. 14. 3. 0. 0. 0. 0. 0.
      5. 5. 1. 1. 76. 125. 4. 58. 16. 0. 0. 0. 35. 91. 33. 78. 67. 0. 0.
      0. 1. 7. 8. 9. 11. 1. 1. 1. 2. 4. 3.</_>
    <_>
      0. 0. 0. 0. 0. 0. 0. 0. 1. 1. 0. 1. 1. 0. 0. 0. 19. 3. 0. 1. 1. 0.
      0. 3. 1. 0. 0. 0. 0. 0. 0. 1. 0. 0. 1. 37. 12. 0. 0. 0. 41. 17.
      15. 183. 183. 10. 1. 2. 183. 52. 16. 63. 27. 3. 1. 88. 55. 1. 0.
      0. 0. 0. 0. 23. 0. 0. 1. 28. 13. 8. 1. 0. 50. 5. 6. 154. 183. 183.
      17. 11. 183. 35. 5. 19. 20. 40. 12. 45. 63. 5. 0. 0. 0. 0. 0. 8.
      0. 0. 0. 0. 0. 1. 0. 0. 0. 0. 0. 0. 4. 24. 1. 0. 0. 0. 0. 0. 1. 3.
      0. 0. 0. 0. 0. 0. 0. 0. 0. 0.</_>
    <_>
      0. 0. 11. 108. 20. 0. 3. 1. 0. 3. 80. 131. 10. 0. 0. 0. 21. 25.
      60. 75. 4. 2. 0. 1. 5. 28. 62. 15. 32. 10. 0. 1. 0. 0. 1. 102.
      131. 14. 0. 0. 11. 22. 62. 106. 131. 42. 0. 1. 131. 83. 37. 12.
      11. 7. 1. 6. 27. 4. 1. 1. 76. 44. 1. 2. 0. 0. 0. 29. 117. 14. 0.
      0. 22. 3. 1. 7. 131. 92. 2. 10. 131. 10. 1. 1. 26. 19. 3. 36. 36.
      2. 1. 2. 60. 26. 0. 1. 0. 0. 0. 13. 89. 2. 0. 0. 12. 0. 0. 4. 131.
      38. 3. 7. 131. 6. 1. 0. 19. 13. 3. 26. 17. 5. 4. 10. 24. 4. 0. 0.</_>
    <_>
      26. 82. 31. 2. 0. 1. 1. 7. 4. 12. 57. 69. 40. 6. 2. 5. 42. 13. 3.
      48. 69. 16. 5. 14. 148. 56. 0. 1. 0. 1. 3. 75. 4. 42. 58. 4. 7.
      90. 3. 0. 49. 32. 75. 24. 6. 12. 8. 11. 29. 16. 4. 18. 25. 64. 20.
      6. 148. 148. 0. 0. 3. 9. 2. 2. 3. 1. 1. 1. 3. 148. 44. 1. 38. 53.
      22. 1. 5. 148. 12. 5. 10. 48. 38. 12. 19. 20. 4. 6. 58. 81. 2. 4.
      6. 7. 8. 15. 1. 0. 0. 0. 0. 148. 29. 3. 0. 7. 4. 0. 32. 148. 10.
      0. 8. 70. 18. 1. 31. 95. 0. 2. 8. 46. 22. 23. 4. 1. 2. 4.</_>
    <_>
      0. 0. 4. 4. 1. 43. 59. 0. 12. 18. 9. 8. 14. 123. 82. 31. 38. 33.
      48. 0. 1. 5. 117. 136. 26. 55. 28. 0. 0. 0. 136. 80. 0. 0. 0. 0.
      24. 68. 29. 0. 47. 2. 0. 0. 136. 136. 28. 18. 136. 23. 0. 0. 13.
      27. 45. 98. 40. 3. 0. 0. 0. 0. 99. 44. 0. 0. 0. 0. 10. 24. 3. 0.
      9. 0. 0. 0. 71. 136. 41. 8. 136. 11. 0. 0. 6. 75. 75. 80. 59. 3.
      1. 6. 1. 0. 1. 13. 1. 0. 0. 0. 0. 2. 3. 4. 0. 0. 0. 0. 0. 38. 28.
      2. 7. 0. 0. 0. 1. 21. 62. 30. 6. 0. 0. 20. 29. 4. 4. 9.</_>
    <_>
      30. 38. 9. 15. 5. 0. 2. 77. 79. 126. 48. 22. 6. 0. 0. 17. 114. 66.
      4. 0. 1. 8. 1. 22. 3. 0. 0. 0. 3. 44. 18. 1. 18. 16. 68. 106. 6.
      0. 2. 35. 137. 38. 19. 51. 5. 0. 0. 54. 137. 27. 1. 0. 0. 0. 0.
      60. 2. 2. 1. 0. 3. 8. 2. 2. 22. 13. 65. 36. 0. 6. 20. 3. 137. 137.
      8. 6. 0. 0. 2. 6. 80. 137. 3. 0. 0. 0. 0. 2. 5. 46. 5. 0. 0. 1. 0.
      0. 3. 0. 0. 0. 0. 69. 103. 3. 57. 60. 0. 0. 0. 15. 70. 36. 114.
      137. 0. 0. 0. 0. 12. 56. 62. 45. 2. 0. 0. 0. 0. 9.</_>
    <_>
      0. 39. 139. 11. 0. 0. 0. 0. 3. 139. 139. 0. 0. 0. 0. 0. 0. 139.
      134. 0. 0. 0. 0. 0. 0. 120. 39. 2. 0. 0. 0. 0. 13. 36. 42. 10. 1.
      0. 0. 0. 79. 80. 27. 0. 0. 1. 0. 3. 15. 139. 56. 2. 10. 6. 1. 2.
      20. 139. 51. 0. 1. 0. 0. 0. 21. 5. 1. 1. 4. 7. 4. 31. 99. 6. 0. 0.
      2. 1. 0. 65. 26. 9. 1. 1. 35. 9. 3. 27. 74. 58. 3. 0. 3. 1. 8. 89.
      5. 0. 0. 0. 1. 9. 29. 63. 18. 0. 0. 1. 2. 0. 7. 80. 4. 0. 0. 1. 9.
      2. 18. 139. 10. 1. 3. 0. 0. 0. 27. 139.</_>
    <_>
      0. 6. 12. 10. 1. 0. 0. 0. 31. 12. 8. 1. 0. 0. 0. 1. 151. 3. 0. 0.
      1. 0. 0. 13. 48. 1. 0. 3. 11. 0. 0. 5. 0. 132. 27. 2. 0. 0. 0. 0.
      49. 33. 12. 0. 0. 0. 0. 1. 151. 8. 0. 0. 2. 0. 0. 17. 53. 0. 0. 1.
      14. 1. 0. 9. 0. 151. 21. 0. 0. 59. 2. 0. 77. 151. 15. 0. 0. 1. 0.
      2. 151. 16. 0. 0. 2. 0. 0. 22. 51. 0. 0. 1. 12. 0. 0. 7. 0. 49. 2.
      0. 0. 151. 14. 0. 64. 151. 4. 0. 0. 72. 4. 0. 151. 151. 2. 1. 1.
      1. 0. 2. 38. 23. 2. 2. 4. 0. 0. 4.</_>
    <_>
      3. 57. 102. 2. 0. 0. 1. 1. 137. 123. 56. 0. 0. 0. 0. 6. 137. 51.
      5. 0. 0. 0. 0. 2. 38. 24. 10. 0. 0. 0. 0. 0. 28. 11. 16. 0. 0. 0.
      0. 6. 137. 39. 14. 2. 0. 0. 0. 32. 129. 57. 137. 40. 0. 0. 0. 4.
      4. 50. 137. 7. 0. 0. 0. 0. 30. 8. 0. 0. 0. 0. 0. 6. 131. 105. 45.
      11. 0. 0. 0. 8. 15. 30. 137. 132. 8. 6. 1. 1. 0. 5. 137. 27. 3. 4.
      7. 1. 4. 6. 0. 0. 0. 0. 1. 12. 20. 32. 9. 1. 0. 0. 6. 59. 7. 7. 8.
      9. 6. 24. 40. 27. 0. 0. 3. 2. 2. 15. 77. 7.</_>
    <_>
      20. 8. 0. 1. 5. 70. 56. 8. 0. 0. 0. 6. 41. 130. 13. 0. 1. 0. 0. 2.
      7. 23. 15. 21. 0. 0. 0. 0. 1. 4. 6. 4. 26. 3. 7. 35. 44. 13. 5.
      31. 16. 8. 9. 130. 130. 53. 3. 1. 130. 17. 10. 32. 17. 24. 34. 87.
      11. 0. 1. 10. 82. 80. 29. 24. 7. 19. 47. 37. 73. 4. 1. 4. 39. 24.
      5. 97. 130. 18. 0. 1. 130. 128. 65. 36. 18. 3. 1. 18. 11. 11. 74.
      130. 61. 14. 1. 5. 13. 24. 10. 10. 44. 19. 3. 3. 5. 16. 3. 23.
      130. 85. 0. 0. 23. 82. 53. 13. 29. 18. 1. 11. 7. 8. 48. 46. 23. 9.
      2. 8.</_>
    <_>
      0. 5. 134. 26. 0. 0. 0. 0. 2. 50. 115. 8. 0. 0. 0. 0. 3. 62. 134.
      0. 0. 0. 1. 1. 2. 26. 134. 15. 0. 0. 1. 5. 10. 22. 40. 1. 0. 8.
      22. 2. 41. 25. 23. 0. 0. 0. 6. 24. 7. 9. 33. 0. 0. 0. 44. 27. 14.
      7. 21. 0. 0. 0. 25. 77. 6. 1. 0. 0. 0. 134. 134. 3. 33. 29. 3. 0.
      0. 107. 71. 8. 11. 69. 18. 0. 0. 12. 12. 11. 35. 57. 7. 0. 0. 0.
      4. 21. 0. 0. 0. 0. 0. 134. 133. 0. 0. 2. 1. 0. 0. 134. 134. 0. 0.
      25. 12. 0. 0. 134. 82. 0. 2. 68. 33. 0. 0. 41. 13. 0.</_>
    <_>
      1. 35. 19. 0. 0. 0. 0. 0. 64. 82. 10. 0. 0. 0. 0. 0. 134. 47. 0.
      0. 2. 4. 2. 12. 79. 134. 1. 0. 7. 11. 2. 5. 4. 14. 3. 0. 0. 0. 4.
      5. 102. 48. 0. 0. 0. 0. 9. 32. 134. 35. 0. 0. 4. 3. 2. 43. 45. 33.
      1. 1. 35. 22. 2. 5. 1. 0. 0. 0. 0. 0. 134. 96. 24. 4. 0. 0. 0. 1.
      134. 134. 134. 19. 0. 0. 1. 3. 19. 134. 28. 15. 2. 1. 29. 57. 7.
      12. 0. 0. 0. 0. 1. 3. 134. 88. 2. 0. 1. 9. 17. 32. 128. 30. 31.
      39. 41. 23. 7. 5. 12. 15. 15. 93. 28. 1. 6. 16. 4. 1.</_>
    <_>
      47. 5. 0. 0. 0. 0. 0. 0. 149. 37. 1. 0. 0. 0. 0. 0. 25. 14. 10.
      10. 6. 0. 0. 0. 6. 9. 12. 7. 7. 3. 0. 0. 43. 4. 0. 0. 1. 1. 0. 1.
      149. 30. 1. 0. 0. 0. 0. 5. 38. 11. 14. 9. 5. 15. 3. 4. 0. 6. 23.
      11. 2. 7. 9. 2. 22. 0. 0. 0. 0. 0. 75. 46. 149. 0. 0. 0. 0. 0. 59.
      110. 33. 0. 0. 0. 1. 17. 84. 34. 0. 0. 0. 0. 0. 9. 119. 40. 0. 0.
      0. 0. 0. 1. 149. 124. 6. 0. 0. 0. 0. 12. 149. 112. 1. 0. 0. 0. 0.
      2. 149. 91. 0. 0. 0. 0. 0. 0. 149. 105.</_>
    <_>
      3. 23. 136. 15. 0. 0. 0. 1. 5. 41. 136. 20. 0. 0. 0. 0. 3. 48. 51.
      7. 1. 0. 0. 0. 0. 1. 23. 65. 17. 0. 0. 0. 39. 102. 136. 8. 0. 2.
      4. 13. 136. 134. 121. 7. 0. 0. 0. 8. 39. 48. 68. 26. 6. 2. 3. 1.
      0. 0. 58. 64. 12. 10. 13. 3. 88. 14. 11. 1. 0. 3. 23. 118. 136.
      11. 1. 0. 0. 0. 0. 109. 46. 3. 2. 4. 5. 4. 22. 28. 2. 0. 1. 2. 3.
      21. 39. 15. 93. 0. 0. 0. 0. 0. 2. 136. 86. 0. 0. 0. 0. 0. 9. 136.
      22. 1. 1. 0. 0. 1. 5. 20. 4. 1. 3. 5. 3. 4. 2. 3.</_>
    <_>
      44. 1. 0. 4. 1. 0. 0. 8. 167. 7. 0. 0. 0. 1. 41. 98. 36. 2. 1. 0.
      0. 58. 167. 35. 0. 1. 0. 0. 0. 129. 167. 1. 61. 2. 0. 0. 0. 1. 2.
      2. 167. 32. 0. 0. 0. 0. 0. 5. 110. 16. 3. 1. 0. 3. 11. 17. 2. 0.
      1. 2. 4. 28. 27. 16. 57. 0. 0. 0. 1. 1. 1. 11. 167. 4. 0. 0. 0. 0.
      0. 50. 124. 12. 3. 1. 1. 1. 3. 28. 5. 3. 7. 8. 7. 5. 3. 6. 65. 1.
      1. 0. 0. 0. 0. 24. 167. 4. 0. 0. 0. 0. 0. 87. 65. 26. 4. 1. 1. 1.
      1. 15. 6. 5. 5. 8. 6. 3. 3. 3.</_>
    <_>
      0. 0. 0. 6. 63. 26. 1. 0. 19. 50. 14. 4. 34. 42. 9. 13. 102. 142.
      44. 0. 0. 1. 2. 14. 142. 142. 16. 0. 0. 0. 0. 2. 0. 0. 0. 0. 14.
      23. 0. 0. 5. 6. 4. 14. 87. 72. 9. 2. 142. 56. 6. 7. 8. 5. 4. 23.
      142. 127. 0. 0. 0. 0. 0. 13. 0. 0. 0. 0. 4. 1. 0. 0. 3. 1. 2. 14.
      81. 54. 4. 5. 126. 73. 17. 9. 15. 16. 6. 43. 142. 142. 24. 0. 0.
      0. 0. 22. 0. 0. 0. 0. 0. 0. 0. 0. 0. 0. 1. 20. 17. 3. 0. 0. 13.
      61. 19. 16. 16. 8. 4. 2. 20. 142. 52. 0. 0. 0. 1. 1.</_>
    <_>
      3. 0. 0. 0. 0. 1. 3. 4. 114. 11. 0. 0. 0. 0. 1. 11. 188. 24. 0. 0.
      0. 0. 0. 3. 95. 24. 4. 2. 1. 0. 0. 0. 6. 1. 0. 0. 0. 0. 5. 11.
      128. 2. 0. 0. 0. 0. 1. 23. 188. 25. 0. 0. 0. 0. 0. 8. 108. 60. 1.
      0. 0. 0. 0. 0. 8. 14. 2. 0. 0. 0. 0. 2. 140. 11. 0. 0. 0. 0. 0.
      10. 188. 28. 0. 0. 0. 0. 0. 16. 89. 84. 0. 0. 0. 0. 0. 0. 8. 4. 1.
      0. 1. 1. 0. 2. 127. 10. 0. 0. 0. 0. 0. 5. 188. 43. 3. 0. 0. 0. 0.
      3. 48. 90. 6. 0. 0. 0. 0. 0.</_>
    <_>
      50. 27. 11. 1. 1. 1. 6. 31. 60. 141. 10. 0. 0. 0. 0. 4. 68. 141.
      18. 0. 0. 0. 0. 0. 141. 64. 3. 0. 0. 0. 0. 4. 5. 3. 4. 2. 8. 24.
      44. 36. 42. 48. 26. 18. 15. 4. 11. 27. 141. 105. 15. 2. 0. 0. 0.
      10. 141. 72. 1. 0. 0. 0. 0. 1. 0. 0. 0. 1. 16. 35. 39. 21. 25. 5.
      3. 11. 37. 50. 22. 25. 141. 36. 1. 1. 1. 1. 4. 38. 141. 78. 0. 0.
      0. 0. 0. 1. 0. 0. 0. 3. 30. 19. 26. 9. 8. 12. 4. 22. 66. 19. 3. 1.
      122. 108. 4. 4. 2. 0. 0. 1. 141. 80. 0. 0. 0. 0. 0. 1.</_>
    <_>
      0. 25. 15. 0. 0. 0. 0. 0. 0. 129. 46. 0. 0. 0. 0. 0. 4. 60. 13. 0.
      0. 0. 0. 2. 6. 1. 0. 0. 0. 0. 0. 6. 0. 40. 55. 6. 1. 0. 0. 0. 10.
      128. 127. 25. 9. 2. 0. 2. 129. 129. 38. 1. 0. 0. 0. 20. 65. 6. 0.
      0. 0. 0. 0. 33. 1. 65. 28. 4. 3. 54. 56. 0. 36. 44. 38. 20. 21.
      20. 13. 10. 129. 129. 30. 1. 1. 2. 1. 34. 53. 102. 39. 0. 0. 0. 0.
      10. 1. 6. 13. 8. 4. 114. 82. 0. 3. 12. 13. 21. 40. 107. 45. 0. 12.
      129. 74. 12. 21. 9. 0. 0. 1. 129. 129. 0. 0. 0. 0. 0.</_>
    <_>
      74. 43. 0. 5. 22. 0. 0. 0. 162. 137. 0. 0. 0. 0. 0. 0. 44. 22. 0.
      0. 0. 0. 0. 0. 0. 0. 0. 0. 0. 0. 0. 0. 73. 11. 0. 13. 12. 0. 0. 5.
      162. 59. 0. 0. 0. 0. 0. 9. 124. 19. 0. 0. 0. 0. 0. 0. 1. 0. 0. 0.
      0. 0. 0. 0. 43. 0. 0. 4. 1. 0. 22. 109. 162. 4. 0. 0. 0. 0. 8.
      162. 123. 7. 0. 0. 0. 0. 0. 18. 2. 0. 0. 0. 0. 0. 0. 0. 1. 0. 0.
      0. 0. 0. 132. 162. 23. 0. 0. 0. 0. 0. 43. 162. 17. 0. 0. 0. 0. 0.
      2. 34. 1. 0. 0. 0. 0. 0. 0. 0.</_>
    <_>
      1. 7. 112. 138. 0. 0. 0. 0. 70. 130. 116. 26. 0. 0. 0. 2. 34. 32.
      4. 1. 0. 0. 0. 0. 0. 0. 1. 1. 0. 0. 0. 0. 7. 4. 46. 137. 1. 2. 33.
      59. 138. 70. 21. 9. 1. 2. 22. 56. 105. 38. 50. 0. 0. 0. 0. 3. 0.
      2. 55. 1. 0. 0. 0. 0. 13. 1. 3. 22. 46. 12. 31. 114. 55. 120. 81.
      30. 41. 6. 10. 11. 15. 86. 138. 0. 0. 0. 0. 0. 0. 12. 138. 1. 0.
      0. 0. 0. 18. 2. 3. 78. 71. 2. 2. 17. 4. 22. 24. 49. 48. 0. 0. 1.
      1. 21. 80. 1. 0. 0. 1. 0. 0. 2. 84. 5. 0. 0. 0. 0.</_>
    <_>
      60. 49. 0. 0. 0. 0. 1. 22. 70. 135. 0. 0. 0. 0. 0. 3. 96. 84. 0.
      0. 0. 0. 1. 4. 56. 2. 0. 0. 0. 0. 13. 42. 50. 21. 1. 0. 0. 1. 9.
      63. 56. 60. 0. 0. 0. 11. 21. 23. 135. 66. 0. 0. 0. 1. 2. 19. 130.
      15. 0. 0. 0. 0. 2. 43. 21. 118. 32. 10. 7. 1. 2. 4. 51. 135. 8. 0.
      0. 9. 21. 30. 135. 37. 0. 0. 0. 1. 6. 53. 125. 34. 0. 0. 0. 0. 0.
      15. 2. 40. 52. 36. 10. 0. 0. 0. 20. 135. 63. 2. 0. 0. 0. 2. 84.
      135. 67. 0. 0. 0. 0. 2. 71. 115. 25. 0. 0. 0. 0. 0.</_>
    <_>
      4. 2. 0. 0. 9. 134. 58. 5. 78. 20. 1. 0. 18. 128. 5. 2. 134. 16.
      0. 0. 0. 1. 0. 8. 56. 12. 0. 0. 0. 0. 5. 16. 8. 38. 76. 22. 38.
      79. 10. 2. 65. 3. 13. 39. 134. 130. 2. 6. 134. 40. 0. 0. 9. 5. 1.
      8. 48. 76. 2. 0. 0. 0. 1. 2. 1. 21. 128. 22. 5. 0. 23. 17. 21. 1.
      27. 52. 55. 10. 69. 56. 134. 8. 0. 0. 4. 2. 16. 108. 24. 39. 6. 0.
      0. 2. 1. 6. 2. 9. 59. 1. 0. 0. 55. 48. 1. 3. 105. 5. 0. 0. 85. 44.
      14. 31. 108. 2. 0. 0. 15. 52. 2. 43. 23. 0. 1. 5. 2. 4.</_>
    <_>
      40. 150. 10. 3. 1. 1. 0. 0. 104. 150. 0. 0. 0. 0. 0. 0. 12. 18. 3.
      0. 0. 2. 1. 1. 0. 2. 3. 1. 0. 0. 0. 0. 55. 60. 1. 1. 8. 36. 1. 2.
      150. 150. 0. 0. 0. 0. 0. 4. 93. 28. 1. 1. 0. 2. 1. 2. 0. 0. 2. 1.
      1. 2. 1. 0. 28. 1. 0. 0. 6. 146. 84. 43. 150. 5. 0. 0. 0. 3. 33.
      150. 108. 2. 1. 2. 1. 1. 0. 20. 0. 0. 0. 3. 3. 2. 0. 0. 0. 0. 0.
      0. 0. 81. 132. 44. 23. 0. 0. 0. 0. 1. 58. 150. 17. 2. 0. 0. 0. 0.
      1. 17. 0. 0. 1. 1. 1. 2. 0. 0.</_>
    <_>
      0. 0. 2. 10. 6. 0. 0. 0. 11. 2. 5. 9. 3. 0. 0. 10. 175. 25. 0. 1.
      1. 0. 1. 140. 126. 24. 0. 0. 0. 0. 1. 58. 0. 0. 7. 35. 3. 0. 0. 0.
      91. 15. 22. 19. 0. 0. 0. 12. 179. 8. 1. 0. 0. 0. 2. 175. 44. 9. 5.
      2. 0. 1. 4. 65. 0. 0. 5. 41. 10. 0. 0. 0. 156. 8. 9. 12. 1. 0. 0.
      1. 179. 16. 0. 0. 0. 0. 1. 10. 46. 7. 3. 2. 2. 8. 6. 3. 1. 0. 0.
      14. 9. 0. 0. 0. 125. 2. 0. 1. 1. 0. 0. 7. 179. 10. 0. 0. 0. 0. 0.
      17. 41. 6. 4. 3. 2. 1. 0. 1.</_>
    <_>
      0. 0. 0. 0. 8. 43. 6. 0. 22. 0. 0. 1. 33. 144. 30. 20. 144. 2. 0.
      1. 2. 10. 11. 49. 96. 2. 0. 0. 0. 0. 3. 49. 0. 0. 0. 2. 8. 7. 2.
      0. 15. 4. 2. 49. 125. 45. 8. 2. 144. 11. 3. 16. 21. 5. 2. 45. 109.
      1. 0. 1. 3. 1. 1. 79. 0. 0. 0. 1. 14. 1. 0. 0. 24. 3. 0. 15. 144.
      11. 0. 1. 144. 40. 0. 5. 34. 2. 0. 10. 144. 15. 0. 0. 6. 6. 2. 9.
      0. 0. 0. 0. 4. 2. 0. 0. 9. 5. 0. 5. 144. 30. 0. 0. 144. 74. 0. 5.
      48. 3. 0. 0. 144. 38. 0. 0. 1. 3. 4. 4.</_>
    <_>
      2. 145. 146. 35. 0. 0. 0. 0. 23. 146. 44. 0. 0. 0. 0. 0. 5. 45.
      17. 2. 0. 0. 0. 0. 0. 8. 11. 2. 0. 0. 0. 0. 45. 97. 41. 22. 12. 5.
      2. 9. 146. 146. 6. 0. 0. 0. 0. 26. 69. 72. 13. 0. 0. 0. 0. 2. 3.
      28. 6. 0. 0. 0. 0. 0. 32. 1. 0. 1. 7. 25. 146. 115. 146. 7. 0. 0.
      0. 0. 22. 146. 64. 27. 2. 0. 0. 0. 0. 16. 9. 18. 0. 0. 0. 0. 0. 0.
      0. 0. 0. 0. 0. 22. 146. 63. 9. 0. 0. 0. 1. 1. 38. 105. 14. 2. 0.
      0. 1. 0. 1. 6. 4. 2. 0. 0. 0. 0. 0. 0.</_>
    <_>
      0. 0. 0. 100. 158. 0. 0. 0. 5. 0. 0. 91. 158. 2. 5. 32. 4. 0. 0.
      1. 22. 30. 12. 34. 16. 0. 0. 0. 6. 9. 6. 31. 1. 0. 0. 127. 158. 1.
      0. 0. 30. 1. 0. 47. 144. 10. 9. 73. 6. 0. 0. 0. 45. 54. 14. 33.
      12. 0. 0. 0. 6. 10. 9. 61. 5. 2. 1. 109. 158. 0. 0. 0. 110. 21. 1.
      29. 75. 3. 1. 12. 16. 4. 0. 3. 49. 29. 8. 12. 13. 0. 0. 0. 2. 6.
      10. 76. 5. 3. 0. 40. 158. 7. 0. 0. 90. 44. 1. 10. 48. 1. 0. 0. 17.
      20. 3. 1. 9. 6. 5. 9. 26. 12. 3. 0. 0. 1. 2. 40.</_>
    <_>
      0. 0. 161. 161. 29. 0. 0. 0. 5. 6. 161. 82. 1. 0. 2. 5. 1. 55.
      161. 4. 0. 4. 6. 2. 0. 161. 161. 0. 0. 1. 1. 0. 7. 1. 12. 142. 70.
      0. 0. 1. 68. 8. 10. 17. 5. 2. 11. 49. 7. 4. 9. 5. 16. 40. 32. 17.
      1. 19. 20. 0. 4. 13. 15. 15. 12. 3. 6. 31. 44. 7. 3. 0. 98. 43. 4.
      4. 4. 2. 1. 9. 14. 13. 6. 21. 21. 7. 5. 10. 4. 0. 0. 1. 4. 4. 16.
      64. 3. 0. 1. 3. 11. 104. 57. 5. 47. 6. 0. 0. 1. 16. 47. 61. 17. 2.
      1. 1. 1. 18. 77. 34. 44. 1. 0. 0. 2. 10. 33. 58.</_>
    <_>
      108. 59. 9. 7. 0. 1. 4. 7. 165. 92. 0. 0. 0. 1. 0. 0. 31. 8. 1. 3.
      5. 8. 1. 0. 0. 0. 1. 3. 4. 4. 0. 0. 160. 40. 7. 6. 0. 0. 0. 14.
      165. 49. 0. 0. 0. 0. 0. 6. 75. 7. 1. 7. 19. 1. 0. 1. 0. 0. 2. 4.
      6. 1. 0. 0. 147. 9. 1. 0. 0. 0. 0. 78. 165. 9. 0. 0. 1. 0. 0. 116.
      58. 4. 1. 5. 12. 5. 0. 13. 0. 0. 0. 1. 5. 2. 0. 0. 105. 12. 0. 0.
      0. 0. 0. 165. 93. 0. 0. 5. 14. 3. 7. 165. 5. 0. 2. 11. 16. 3. 2.
      11. 0. 0. 1. 4. 3. 1. 0. 0.</_>
    <_>
      0. 0. 0. 0. 0. 0. 0. 0. 8. 0. 0. 0. 0. 0. 0. 1. 35. 1. 0. 0. 0. 0.
      0. 0. 10. 0. 0. 0. 0. 0. 0. 2. 0. 0. 0. 0. 0. 0. 1. 0. 88. 2. 0.
      0. 0. 7. 33. 22. 148. 63. 0. 0. 0. 0. 4. 23. 148. 39. 0. 0. 0. 0.
      1. 52. 0. 0. 0. 0. 0. 0. 4. 0. 23. 3. 8. 2. 0. 8. 126. 55. 148.
      120. 46. 5. 1. 1. 23. 80. 148. 134. 11. 0. 0. 0. 0. 28. 0. 0. 0.
      0. 0. 0. 6. 0. 2. 2. 8. 4. 2. 43. 146. 3. 57. 36. 39. 9. 4. 64.
      131. 22. 148. 130. 21. 1. 0. 1. 27. 41.</_>
    <_>
      1. 0. 0. 1. 213. 137. 0. 1. 12. 0. 1. 1. 48. 9. 4. 28. 1. 0. 0. 1.
      2. 4. 7. 20. 3. 1. 2. 2. 1. 1. 1. 2. 4. 0. 0. 0. 213. 47. 0. 0.
      71. 3. 0. 1. 91. 12. 6. 19. 7. 1. 0. 1. 12. 32. 7. 6. 1. 0. 1. 1.
      3. 7. 3. 1. 2. 0. 0. 0. 213. 38. 0. 0. 49. 40. 6. 1. 115. 9. 0. 2.
      12. 23. 6. 2. 19. 13. 1. 0. 0. 0. 0. 0. 10. 10. 5. 3. 0. 0. 0. 2.
      213. 33. 0. 0. 23. 31. 7. 6. 124. 7. 0. 0. 44. 22. 1. 1. 6. 2. 0.
      1. 2. 0. 0. 1. 8. 4. 2. 4.</_>
    <_>
      4. 1. 0. 0. 0. 0. 1. 8. 4. 0. 0. 0. 0. 1. 7. 45. 34. 4. 0. 0. 0.
      0. 28. 162. 89. 6. 0. 0. 0. 0. 12. 162. 18. 2. 0. 0. 0. 0. 0. 19.
      101. 2. 0. 0. 0. 0. 22. 162. 24. 0. 0. 0. 0. 0. 78. 162. 1. 0. 0.
      0. 0. 0. 19. 116. 39. 5. 1. 0. 0. 0. 1. 15. 162. 41. 0. 0. 0. 0.
      1. 58. 148. 17. 0. 0. 0. 0. 4. 48. 4. 1. 0. 0. 0. 0. 1. 4. 28. 5.
      1. 0. 0. 0. 0. 2. 162. 44. 0. 0. 0. 0. 0. 4. 162. 22. 0. 0. 0. 0.
      0. 4. 3. 0. 0. 0. 0. 0. 0. 1.</_>
    <_>
      4. 0. 0. 0. 0. 0. 1. 20. 21. 0. 0. 0. 0. 0. 47. 112. 0. 0. 0. 0.
      0. 10. 145. 48. 9. 0. 0. 0. 0. 5. 87. 145. 7. 0. 0. 0. 0. 0. 0. 8.
      145. 4. 0. 0. 0. 0. 56. 145. 30. 3. 0. 0. 0. 6. 145. 145. 4. 0. 0.
      0. 0. 0. 134. 145. 4. 0. 0. 0. 0. 0. 0. 1. 145. 22. 0. 0. 0. 0.
      35. 121. 120. 20. 0. 0. 0. 0. 56. 69. 2. 0. 0. 0. 0. 0. 25. 19. 0.
      0. 0. 0. 0. 0. 0. 0. 7. 0. 0. 0. 0. 0. 43. 43. 13. 0. 0. 0. 0. 0.
      17. 33. 0. 0. 0. 0. 0. 1. 2. 1.</_>
    <_>
